svm_type c_svc
kernel_type linear
nr_class 5
total_sv 495
rho 0.010934171105027788 -0.06609499011068476 -0.25239792444481773 -0.013957234586307295 -0.07707911715521833 -0.2622581090442566 -0.02473693032695755 -0.18966977018668854 0.05220852717097729 0.2392032394156658
label 3 4 1 2 5
nr_sv 100 98 100 98 99
SV
0.009630799981942127 0.008866433739247944 0.007141802512451212 0.009347326154648035 18038:0.9655172413793102 24030:1.0 28844:1.0 19031:1.0 24886:0.636015325670498 13383:1.0 36265:1.0 15222:1.0 14334:1.0 38413:0.8275862068965518 28528:0.09304871373836891 29565:0.582375478927203 39507:1.0 9216:0.09482758620689653 34470:0.1685823754789272 17186:0.13380489242558205 29574:1.0 16758:0.43742017879948913 16227:0.6082375478927203 14355:0.6321839080459771 27285:0.3793103448275862 6320:1.0 16248:1.0 2610:0.03475643130815544 36302:1.0 13062:1.0 12559:0.37931034482758624 25317:0.37931034482758613 29989:0.25110521662245805 27315:1.0 14842:1.0 6896:0.2249589490968801 12569:0.13409961685823754 20741:0.45900383141762446 44239:1.0 37783:1.0 11051:1.0 16287:0.09848997070092405 42201:0.2704980842911877 43348:0.2681992337164751 22893:0.5210727969348659 12602:0.2835249042145593 15332:0.7816091954022989 8916:1.0 7559:0.9655172413793104 3329:0.42528735632183906 11412:1.0 19927:1.0 4247:0.23946360153256702 2654:1.0 31168:1.0 21263:0.4224137931034482 9959:0.367816091954023 21638:0.24521072796934862 25781:1.0 19122:1.0 4607:0.5925925925925926 25784:0.43678160919540227 15855:1.0 12647:1.0 33838:1.0 121:1.0 27667:0.3524904214559387 24559:0.23499361430395915 30362:1.0 43387:0.5622605363984674 11824:0.31800766283524906 1489:0.8888888888888888 11828:0.681992337164751 19163:0.2567049808429119 9658:0.789272030651341 14472:0.5823754789272031 39991:0.42528735632183906 32070:0.2701149425287356 24583:0.8256704980842912 36393:0.6321839080459769 14483:0.13601532567049807 43115:0.10727969348659003 820:0.30204342273307794 11125:0.5606641123882501 39276:0.45977011494252873 8282:0.4827586206896552 39630:0.5660919540229885 3072:0.5747126436781609 36072:1.0 14506:0.2002786485545106 15431:1.0 43135:1.0 34260:0.9348659003831418 1533:1.0 8297:1.0 39653:0.3793103448275862 9343:1.0 1182:0.4980842911877395 21711:0.21072796934865898 1549:0.4980842911877394 8304:1.0 10417:1.0 10416:1.0 13194:0.10727969348659004 33272:0.846743295019157 17421:0.29666119321291734 25885:1.0 17437:0.21455938697318014 39327:0.37931034482758624 15492:1.0 4992:1.0 5313:1.0 42298:0.5210727969348659 5618:0.17762452107279694 43176:0.6513409961685824 20943:1.0 18813:0.3425287356321839 3118:0.10063856960408683 9071:1.0 10842:1.0 9412:0.14942528735632182 15048:0.37931034482758613 18827:1.0 24703:1.0 35768:1.0 5907:1.0 23082:0.7892720306513411 26334:1.0 44687:1.0 32434:0.5747126436781608 16022:0.7816091954022988 38990:0.636015325670498 35782:1.0 11238:1.0 18861:0.731800766283525 21804:1.0 21445:0.3425287356321839 35434:0.3026819923371647 930:0.49808429118773945 18329:0.0695128626163109 31899:0.8109833971902937 6802:0.6398467432950191 30468:0.11570881226053639 254:1.0 10130:1.0 39770:0.19731800766283528 25978:1.0 29151:1.0 15600:0.0810071154898741 17523:0.16762452107279693 3170:0.38927203065134103 37260:0.5376756066411238 3823:0.5708812260536399 16076:0.578544061302682 31619:0.6015325670498084 6516:1.0 25170:1.0 3826:0.23371647509578541 44121:1.0 27823:1.0 20193:0.6245210727969348 20195:0.6832694763729246 26394:0.7892720306513411 12387:1.0 40872:1.0 4462:1.0 35158:0.8697318007662833 35484:1.0 33672:0.8697318007662834 17970:0.05789697743720733 14230:0.7318007662835249 28159:0.681992337164751 13322:1.0 9146:0.1053639846743295 23189:0.5402298850574713 22768:1.0 27549:0.7547892720306514 12960:0.210727969348659 25219:0.7241379310344828 38364:0.260536398467433 36561:0.20032840722495895 14275:0.2164750957854406 23194:0.4252873563218391 13352:0.3256704980842912 29511:0.8160919540229885 14287:0.27203065134099613 27869:1.0 22342:0.7011494252873562 29207:0.10579656408354964 17137:0.1278300243817485 7803:1.0 40560:0.5261813537675606 13363:0.7404214559386973 20653:0.2490421455938697 6282:0.18007662835249041 3575:0.5210727969348659 9177:0.3793103448275862 44795:0.8505747126436781 24422:1.0 4822:1.0 
0.00897074109701907 0.008244818367915631 0.006724963337249343 0.008863521234954583 25248:1.0 27889:1.0 27253:0.11566484517304189 36600:1.0 23604:0.6816939890710383 8501:0.7513661202185792 30554:1.0 33741:0.2741347905282332 36605:0.1721311475409836 40586:0.5901639344262296 15221:0.3224043715846994 39127:0.7540983606557377 33132:0.5819672131147541 21574:0.3360655737704918 11350:0.44125683060109283 18494:0.08196721311475409 24900:0.36338797814207646 17180:1.0 11724:1.0 22396:0.7103825136612021 27906:0.38251366120218583 14790:0.06767893935322047 4190:0.7322404371584701 44484:0.14207650273224043 34101:1.0 43608:0.45081967213114754 17186:0.09541824295922656 39141:0.3551912568306011 43315:0.2868852459016393 16227:0.43374316939890717 37396:0.1885245901639344 18076:0.9453551912568308 13427:1.0 8869:0.24225865209471764 16243:0.7295081967213114 29270:0.7540983606557377 18085:1.0 29587:0.2987249544626594 11383:0.4890710382513661 20726:0.3989071038251366 25306:0.3797814207650273 9251:0.540983606557377 34884:0.8224043715846995 13442:0.27413479052823314 25721:0.10772833723653392 12551:0.22768670309653916 16261:0.21935987509758 15278:0.13114754098360656 13892:0.29872495446265934 4216:0.4808743169398907 27936:0.24316939890710385 12559:0.36065573770491804 20357:0.8224043715846995 43944:0.19330601092896177 29989:0.5819672131147542 5178:0.5027322404371586 43649:0.592896174863388 12569:0.2868852459016394 24949:0.8497267759562843 38108:1.0 22878:1.0 40294:1.0 30595:1.0 17688:0.38251366120218583 16279:0.8224043715846994 35967:1.0 8904:0.15163934426229508 17257:1.0 12602:0.10109289617486336 40649:0.5327868852459016 15332:0.5573770491803279 44885:0.7882513661202185 37065:0.2293564055859138 19927:0.1018735362997658 2195:0.808743169398907 17709:0.8224043715846994 1444:0.39275956284153 5799:0.11639344262295083 32032:0.534153005464481 1099:0.7226775956284153 19122:0.23770491803278693 44264:1.0 8584:0.8169398907103825 25784:0.6229508196721313 39221:0.4185792349726777 38137:0.09115747640337804 45204:1.0 14886:0.7513661202185793 2668:1.0 12642:0.5100182149362477 17287:0.2756527018822101 29323:0.0943426550948248 36708:0.47449908925318757 24127:0.0976775956284153 25376:0.10382513661202185 4911:1.0 6939:0.20491803278688522 34562:0.2978142076502732 32050:0.27267759562841526 23355:0.2367941712204007 25388:0.3096539162112933 17314:0.7377049180327868 29337:1.0 18670:0.09625893232450608 17322:0.3825136612021857 27002:0.162568306010929 13981:0.30965391621129323 40692:0.2704918032786885 11456:0.19763205828779595 30052:1.0 39980:0.7042349726775956 33508:0.2336065573770492 33862:0.18579234972677597 27010:0.22996357012750457 12183:1.0 22945:0.8469945355191257 32070:0.3852459016393442 12702:0.027812806501331097 16397:0.5928961748633879 40372:0.47540983606557374 24169:0.39071038251366125 11125:0.3998178506375227 11845:0.3005464480874317 40376:1.0 13578:0.48907103825136605 25421:1.0 16407:0.09187158469945357 1520:0.3551912568306011 33897:0.2144808743169399 42810:1.0 4650:1.0 14506:0.14282165921510184 25441:1.0 12236:1.0 43139:0.3005464480874317 8300:0.1885245901639344 16435:0.20947176684881605 12762:0.6156648451730418 36773:1.0 18739:0.42310694769711166 7002:1.0 32950:0.5819672131147541 30095:0.29781420765027317 25869:0.26958105646630237 492:0.05140027322404372 17408:0.2832422586520947 26250:1.0 21362:1.0 20047:0.20081967213114757 28368:0.6174863387978141 13194:0.07650273224043716 3752:0.3469945355191257 11532:0.25751366120218583 26267:1.0 33935:0.6174863387978141 15470:0.1436377829820453 12778:0.273224043715847 2766:1.0 30423:0.09593199757134183 12267:0.739071038251366 10804:0.27732240437158473 42289:0.46448087431693985 39327:0.27049180327868855 12794:0.40437158469945356 18781:0.19763205828779598 23036:0.7295081967213115 26712:0.27049180327868855 14102:0.7841530054644807 18797:0.2677595628415301 19683:0.3360655737704918 30700:0.5227686703096539 42007:1.0 25110:0.7322404371584699 29774:0.05282331511839708 9743:0.08352849336455893 20512:0.09517304189435338 37927:1.0 39723:0.5928961748633881 10461:0.08500303582270798 9412:0.03551912568306011 32426:0.36247723132969034 13245:0.4644808743169399 21779:0.4672131147540984 38968:0.20491803278688522 20971:0.5628415300546449 28736:0.06393442622950819 33981:0.1475409836065574 28414:1.0 12848:0.47404371584699456 32138:0.4726775956284154 20534:0.3551912568306011 16548:0.467896174863388 11589:0.31602914389799636 9767:0.2704918032786885 16022:0.18579234972677594 16023:1.0 15570:0.16211293260473592 8737:0.07728337236533958 12863:0.3907103825136612 4737:0.9480874316939892 33633:0.9453551912568308 22235:0.4781420765027322 8388:1.0 15078:1.0 30468:0.24754098360655738 9445:1.0 43212:0.12021857923497267 34002:0.12568306010928962 37249:0.3360655737704918 42626:0.30054644808743164 35126:1.0 14178:0.07756527018822101 41768:1.0 37631:0.28551912568306015 15600:0.17330210772833726 26779:0.610655737704918 37256:0.4098360655737704 3170:0.1387978142076503 25170:0.3565573770491804 1285:0.6898907103825137 2844:1.0 17070:0.27959927140255014 41189:1.0 1290:0.9289617486338797 1667:0.29644808743169404 7408:1.0 43236:0.40983606557377045 26394:0.5628415300546449 42951:1.0 21866:0.06693989071038252 22741:1.0 37992:1.0 40524:1.0 16629:0.5100182149362477 33367:0.5136612021857925 31635:1.0 27189:0.27868852459016397 4469:1.0 20608:0.7322404371584701 27192:1.0 11654:0.23224043715846995 1682:0.19467213114754098 6245:1.0 45082:0.28688524590163933 31938:0.10587431693989072 32479:1.0 19384:1.0 23547:1.0 9146:0.15027322404371585 39050:1.0 5697:0.3096539162112933 26422:1.0 10931:0.3469945355191257 21905:0.37795992714025495 14710:0.4248633879781421 21101:1.0 28175:0.3825136612021858 33379:0.2322404371584699 14712:0.3214936247723132 21911:1.0 38364:0.18579234972677597 26433:0.157103825136612 36561:1.0 9857:0.9799635701275047 45382:0.08313817330210772 26035:0.3825136612021858 41226:1.0 31662:0.7786885245901639 39075:0.1947697111631538 14286:0.14845173041894352 22342:0.3333333333333333 42387:1.0 29207:0.1508901815617839 25234:0.5218579234972677 40560:0.37522768670309653 8120:0.4098360655737705 18020:0.11775956284153004 43285:1.0 12031:0.23224043715846995 21132:0.46448087431693996 33723:0.8866120218579235 24021:1.0 34430:1.0 
0.005673276728134041 0.0052344749689090765 0.004196897115405376 0.0055242850842769035 13001:0.30164888457807953 33732:0.08891044293566117 29544:1.0 25253:1.0 5429:0.4784998383446492 25255:0.0403844458160656 38748:1.0 18489:1.0 35229:0.7211445198836081 30833:1.0 28870:1.0 44484:0.050436469447138706 25282:1.0 23634:0.3658583899127061 18521:0.4900096993210475 36620:0.5567410281280311 28895:0.30164888457807953 37396:0.06692531522793403 16768:0.4539282250242483 1396:0.04587778855480116 36638:1.0 7197:0.3957322987390884 26923:1.0 29587:0.0706972734130833 38789:0.04073714839961203 30306:0.13579049466537343 25306:0.40446168768186225 17670:1.0 22003:0.054445522146783054 22011:0.5935984481086324 13909:0.3191076624636275 62:0.020562560620756547 64:1.0 4886:0.3782735208535402 32572:1.0 27635:0.5179437439379244 28277:1.0 15817:0.08535402521823472 42205:1.0 9944:0.30973165211768505 90:0.06320724215971549 31481:1.0 34529:1.0 16823:0.04733268671193017 23704:0.13320400905269966 26969:0.1891367604267701 23709:0.7694794697704496 6082:1.0 108:0.3016488845780796 25350:0.12609117361784675 15833:0.05625606207565471 28957:0.5004849660523764 7248:1.0 44552:1.0 1454:0.22017458777885543 19563:0.06967345619139993 44557:1.0 44558:0.06486420950533463 23724:1.0 18644:0.10523763336566438 29641:0.12350468800517299 29644:0.29260976941698114 25376:0.7002909796314258 28987:1.0 23737:1.0 33222:0.6214031684448755 26998:1.0 34581:1.0 22067:0.6401551891367604 6103:0.04122211445198837 38167:1.0 27010:0.16327190430003233 32063:1.0 8615:0.10669253152279341 20416:0.011154219204655674 41054:0.23976721629485934 11466:1.0 143:1.0 11473:0.042386032977691564 32072:1.0 9319:0.2706110572259942 823:1.0 39629:1.0 14951:0.04267701260911737 16919:0.06595538312318137 3721:1.0 25440:0.2060412913953166 166:1.0 19625:1.0 25445:1.0 14043:0.05164888457807953 34617:0.3094083414161009 45262:0.19980601357904948 24612:0.045877788554801166 8661:1.0 849:1.0 20451:0.06498545101842872 32662:0.029485935984481088 2320:0.09175557710960232 14983:0.06595538312318139 22138:0.12725509214354996 9358:0.029097963142580018 8677:0.10766246362754606 16966:1.0 13200:0.1066925315227934 10791:1.0 13201:1.0 2344:0.049709020368574205 41109:1.0 23831:1.0 12267:0.2623666343355965 16983:0.08971871968962172 4359:0.2851600387972842 6740:0.5354025218234724 8000:0.7681862269641124 23030:0.4228903976721629 14094:0.3918525703200776 36806:1.0 29754:0.0446168768186227 13211:1.0 11560:0.49272550921435493 15974:0.25169738118331725 889:0.6265761396702231 38251:0.22211445198836083 15984:0.161332040090527 19698:1.0 7359:1.0 9412:0.012609117361784675 15048:0.3840931134820562 23888:0.2521823472356935 27122:0.15518913676042675 2415:1.0 26334:0.15189136760426772 38979:0.07177497575169738 1622:1.0 35421:0.4801163918525703 16022:0.06595538312318139 22230:0.5455868089233753 9427:1.0 25534:0.07759456838021339 8737:0.054870444783150896 19732:0.22938894277400582 16031:0.09914861515249489 18861:0.18525703200775945 13268:1.0 17041:0.19980601357904945 923:1.0 21445:0.08671193016488846 2454:1.0 17046:0.5577109602327838 7378:0.07274490785645003 12350:1.0 41169:1.0 22247:1.0 16055:0.49369544131910775 24750:1.0 34002:0.08923375363724538 10125:1.0 14178:0.027535294751589615 10881:0.14403491755577108 16062:0.3576404197160744 23921:0.05698351115421921 43511:0.49757516973811844 22261:1.0 15102:0.2023278370514064 22263:0.5858389912706111 3175:1.0 3179:1.0 29157:0.2056256062075655 8761:1.0 4454:0.19398642095053348 14199:0.14742967992240544 35476:0.3860329776915616 10899:0.12104752667313291 6817:0.0302506360786629 41201:1.0 45353:0.07371483996120272 24788:0.2104752667313288 8773:0.2104752667313288 23157:0.3913676042677013 17970:0.014656751805151417 23962:0.38069835111542194 37659:0.017846750727449078 27189:0.09893307468477208 10176:0.01733753637245393 31642:1.0 41797:0.12770772712576786 22307:0.056304558680892326 13328:0.1498545101842871 42964:0.2198512770772713 8101:1.0 23180:0.4209505334626577 12411:1.0 43549:1.0 42968:1.0 3208:1.0 27214:0.18299385709666988 17991:0.2961526026511478 6256:1.0 37682:0.10200452634982217 45382:0.02951364833033116 2545:1.0 23203:0.09117361784675074 14284:1.0 39075:0.2765692115837606 11690:0.021661817006142906 29207:0.05356528268827634 28490:0.15227934044616878 44168:1.0 26456:0.6032977691561591 12442:0.15060400317432326 24009:1.0 28494:0.7274490785645004 20653:0.09456838021338507 22355:0.07015842224377626 24854:0.1294859359844811 20655:0.1183317167798254 24021:0.1774975751697381 11706:0.21855803427093437 330:0.053346265761396706 4518:1.0 4524:1.0 5734:0.09602327837051407 19029:0.14742967992240544 5133:1.0 12485:0.1480763013255739 14334:0.05063045586808924 13398:0.5722599418040739 4538:1.0 4540:1.0 22396:0.12609117361784675 22398:0.17070805043646947 11725:0.06576139670223086 18061:0.19980601357904948 12506:0.10971643749643407 1759:1.0 9558:1.0 10258:1.0 1049:0.4504364694471387 11733:0.30164888457807953 3269:1.0 39146:1.0 36291:1.0 44841:1.0 41288:0.29776915615906885 24067:1.0 12545:1.0 2610:0.03519467922959678 18093:0.07129000969932105 32861:1.0 24074:1.0 42447:1.0 6332:0.2677012609117362 17233:0.10921435499515035 12559:0.22405431619786614 14384:0.03472356935014549 12562:0.34578079534432593 29989:0.04767589345668881 8200:0.21338506304558683 19904:1.0 3295:0.556741028128031 1790:0.2104752667313288 15307:1.0 24959:0.6673132880698351 15314:0.11140363031730634 16294:0.43711606854186874 15317:0.020368574199806012 10302:0.1659415269502563 39200:0.4504364694471387 44881:0.9291949563530553 16302:0.08884578079534433 15331:1.0 3325:0.3062560620756547 5799:0.04131910766246363 25774:0.04995150339476238 11789:1.0 31170:1.0 44892:0.13828460579188032 19122:0.08438409311348206 25784:0.16585838991270616 39221:0.14859359844810865 30026:0.6188166828322018 13502:1.0 25787:1.0 31760:0.26160454482471945 32315:0.25818668883654333 31176:1.0 11809:0.2463627546071775 44277:0.6867119301648884 24136:0.06967345619139995 5225:0.04679922405431619 40682:1.0 31184:0.5121241513094082 34971:0.04679922405431619 22505:1.0 16365:0.1901066925315228 39980:1.0 28640:0.44422890397672166 24162:0.09093113482056259 3371:0.979631425800194 43703:0.1361138053669577 12689:0.07177497575169738 30059:0.11639185257032009 40711:1.0 18181:0.19301648884578082 28650:1.0 33522:0.11517943743937924 11121:1.0 44292:1.0 45508:1.0 28007:1.0 22532:1.0 465:1.0 11127:0.3094083414161009 14489:1.0 1156:1.0 6973:0.09921019814327282 28661:1.0 25043:0.12725509214354996 1872:0.5121241513094082 12751:0.1330192600803658 39302:0.2677012609117362 20028:0.021442427601496467 14521:1.0 21705:0.2017458777885548 8300:0.06692531522793405 35028:0.1183317167798254 28680:0.0649854510184287 19223:1.0 17408:0.050274814096346584 8314:1.0 31836:0.24539282250242483 17421:0.15020091450741305 4042:0.11606854186873584 12791:1.0 16486:0.04314258001939865 43775:1.0 17449:1.0 18272:0.09990300678952474 18275:0.09179084736795698 15522:0.3986420950533462 22630:1.0 40097:0.057710960232783715 2783:1.0 30136:1.0 3480:0.04203039120594892 13682:1.0 31288:0.3627546071774975 42016:1.0 5330:1.0 25928:1.0 21778:1.0 30150:0.07686711930164888 15550:1.0 26747:0.030585192369867443 16546:0.05198836081474298 20982:1.0 37938:1.0 20134:1.0 5915:0.21855803427093437 27492:0.0649854510184287 2813:1.0 9769:0.19204655674102813 20136:1.0 45598:0.12900096993210475 37949:0.3200775945683802 13705:0.518913676042677 34350:1.0 18329:0.008798669807399198 16578:0.7769156159068865 25974:0.12490570104537126 43212:0.042677012609117354 12884:1.0 21016:0.1357904946653734 5363:1.0 22709:1.0 25988:0.06595538312318137 11264:0.08094524292390443 39415:1.0 25174:0.04677228149585085 14670:1.0 5375:0.2521823472356935 31919:1.0 35149:1.0 16611:0.6479146459747818 21063:0.2677012609117362 42077:0.04623343032654381 15631:0.13773035887487875 14681:0.4306498545101842 21866:0.14258001939864212 11979:0.05916585838991271 40879:0.11445198836081473 31360:0.21855803427093437 31364:1.0 37294:1.0 19382:1.0 32481:0.25218234723569344 9146:0.34675072744907864 36552:1.0 640:1.0 31377:0.322664080181054 28803:1.0 16650:0.16973811833171676 42657:1.0 21114:0.9951503394762367 36562:1.0 9162:0.21823472356935017 5412:0.18137730358874882 38708:1.0 26035:0.06789524733268672 23572:0.5150339476236663 35191:1.0 34421:1.0 7804:0.9456838021338505 26046:0.09796314258001941 40921:0.04213816143981032 29525:0.1357904946653734 21938:0.15082444228903977 28201:0.3002909796314258 13815:0.9369544131910765 4170:0.5965082444228904 23598:0.029097963142580018 35208:0.09020368574199807 
0.0036904332384562807 0.0034068886666718434 0.002758874978271796 0.003579525263053485 15733:1.0 10574:0.1779891304347826 38052:0.3505434782608695 21145:0.10326086956521738 19457:0.5095108695652173 21150:1.0 32520:1.0 22824:0.2927989130434782 36605:0.12839673913043478 24448:0.15013586956521735 13:1.0 17631:0.47690217391304346 42157:1.0 39505:0.037364130434782615 26087:0.15013586956521738 17645:0.2951766304347826 7852:1.0 19482:0.20108695652173908 28872:0.11548913043478261 35237:0.34035326086956524 26096:0.389945652173913 43315:0.07133152173913042 40973:0.4789402173913043 12084:0.12466032608695651 9232:0.11073369565217392 33767:0.5099637681159419 1397:0.2873641304347826 38084:0.7798913043478259 31444:0.0906929347826087 1402:0.18274456521739132 36641:1.0 32556:1.0 13886:0.12092391304347824 27617:0.10846920289855072 30313:0.3804347826086956 13890:1.0 13892:0.07427536231884059 15793:0.10190217391304347 21219:0.2934782608695653 17685:1.0 7886:1.0 26147:1.0 76:0.497961956521739 13915:0.22010869565217392 42201:0.047961956521739124 15813:0.389945652173913 17692:1.0 42203:1.0 33808:0.017493206521739132 27640:1.0 26162:0.14741847826086957 17702:0.09714673913043478 43361:0.1453804347826087 22900:0.6127717391304347 4247:0.08491847826086955 44547:0.3824728260869565 15842:0.5720108695652174 17717:0.22214673913043478 15852:0.23097826086956524 38144:0.3457880434782609 13961:0.12681159420289856 15859:0.17119565217391305 43383:0.47690217391304346 21288:0.10360054347826086 12166:0.060235507246376815 26197:0.1277173913043478 22925:0.07835144927536233 1476:0.11209239130434782 32618:0.5251358695652173 9310:0.984375 38163:0.22350543478260868 44583:0.5312499999999999 30376:0.15715579710144928 35331:1.0 24572:0.1529891304347826 27686:0.11589673913043479 1506:0.34103260869565216 41058:1.0 7939:1.0 9319:0.1895380434782609 42252:1.0 36748:1.0 17784:0.29959239130434784 14023:0.06770833333333334 3072:0.20380434782608697 33897:0.053328804347826095 10747:0.2639266304347826 5567:1.0 32646:0.23573369565217395 17800:0.12839673913043478 38199:1.0 5575:0.11345108695652174 6719:0.07269021739130435 5583:1.0 29052:0.2085597826086956 17830:0.02581521739130435 26255:1.0 24627:0.36752717391304346 14068:0.21144701086956522 27732:0.10971467391304346 36784:1.0 15936:0.22418478260869568 42278:0.027173913043478257 23017:0.19497282608695649 1572:0.14741847826086957 33943:0.0733695652173913 32680:0.2798913043478261 39692:1.0 14094:0.06861413043478261 29070:1.0 15955:0.23573369565217395 41118:1.0 27751:0.4307065217391303 27753:0.3002717391304347 31567:0.32608695652173914 5615:1.0 26300:0.2269021739130435 29081:1.0 26303:0.18749999999999997 39711:0.07180183946488296 15980:0.04568614130434783 21404:0.311820652173913 12298:0.21059782608695649 35402:0.172554347826087 12300:0.35937499999999994 5626:0.3213315217391303 9397:0.08355978260869565 16000:0.4802989130434783 29104:0.21560801630434784 9412:0.008831521739130432 224:0.07404891304347824 5633:0.0889945652173913 12319:0.7955163043478259 1620:0.05801630434782608 23080:0.3505434782608696 43488:0.16304347826086954 35419:0.11209239130434781 21429:0.07822951505016723 35423:0.4307065217391305 241:1.0 3146:0.3688858695652174 1625:0.18376358695652176 39743:0.02332427536231884 27787:1.0 4418:0.07404891304347827 4419:1.0 29133:0.71875 16034:0.05027173913043477 21445:0.24293478260869564 16038:0.02637743628185907 16041:0.09746376811594201 6802:0.11345108695652173 36869:0.1779891304347826 14174:0.09329710144927535 8063:0.33899456521739135 24750:0.0875509510869565 21460:1.0 17934:0.03474378881987577 24751:1.0 16062:0.041749011857707505 14180:1.0 36882:1.0 3170:0.03451086956521739 24758:1.0 8073:0.35054347826086946 38309:0.017877574370709384 16076:0.10258152173913043 26375:1.0 24763:0.1379076086956522 23134:0.12245244565217389 36892:0.36752717391304346 19768:0.22214673913043476 5673:0.04755434782608695 14203:0.20674818840579712 29166:1.0 26398:0.15557065217391305 41201:0.35020380434782605 9473:0.08559782608695651 24786:0.4157608695652174 1674:0.23573369565217395 35484:0.17730978260869565 17970:0.010265700483091788 23159:0.19972826086956522 35492:0.07004830917874397 5684:0.22418478260869565 16113:0.48437499999999994 16115:0.952445652173913 26410:0.7275815217391303 17978:0.025475543478260868 9483:1.0 26418:0.420516304347826 5695:0.9592391304347825 16126:0.934782608695652 39816:0.40353260869565216 3206:1.0 24816:0.0607336956521739 17991:0.041485507246376806 17996:0.08919437340153452 19816:0.3128396739130434 23195:1.0 14281:0.043735311398354876 21521:0.19123641304347824 14286:0.14764492753623185 35522:0.845108695652174 29203:0.33152173913043476 34062:0.5597826086956521 29207:0.01875876577840112 10964:0.09943506864988559 12442:0.05274209486166008 21536:0.1576086956521739 36960:1.0 12443:0.030570652173913037 19834:0.36345108695652173 1711:0.026630434782608695 14301:0.3967391304347826 21541:1.0 3234:0.296875 16168:0.12257375776397517 24855:0.032608695652173905 10969:0.04110054347826087 8137:0.44021739130434784 29227:0.06725543478260869 24861:0.7744565217391304 18031:0.151268115942029 18034:0.3539402173913043 10976:0.38043478260869557 24869:1.0 14317:0.11548913043478261 10977:0.20176630434782608 34087:1.0 24884:0.1902173913043478 42408:0.12160326086956522 30555:1.0 21566:0.11684782608695653 12481:0.2044836956521739 8155:0.10190217391304347 16194:0.984375 16197:1.0 12485:0.8297101449275361 19862:0.1345108695652174 1742:0.2652853260869565 41259:0.1827445652173913 18054:1.0 44820:0.2817028985507246 35566:1.0 11008:0.20278532608695657 16216:0.21127717391304346 39875:0.21127717391304346 16226:0.1542119565217391 12524:0.129981884057971 9563:1.0 9564:1.0 14362:1.0 24919:1.0 6888:1.0 19889:0.11175271739130434 11027:0.10258152173913045 11029:0.3688858695652173 38449:0.03725090579710145 24933:0.032986111111111105 9588:0.1453804347826087 12559:0.11209239130434782 43648:0.07540760869565218 12561:0.9772418478260869 21608:0.05831939799331104 42457:0.03192934782608696 12570:0.5788043478260869 12569:0.3091032608695652 26550:0.9191576086956521 18110:0.33152173913043476 21616:0.08559782608695651 24963:0.9300271739130435 12602:0.02513586956521739 24974:0.0546389751552795 19925:0.06657608695652174 24983:0.035552536231884056 12618:0.03430706521739131 24984:0.09341032608695651 16316:0.04721467391304348 6920:0.09375 35633:0.03962862318840579 29312:0.17119565217391305 39939:0.06487771739130434 42484:1.0 21640:0.05027173913043478 44897:1.0 29318:0.5896739130434782 11079:0.36480978260869557 14427:0.11548913043478261 16331:0.013204823369565216 3342:1.0 37085:0.32336956521739124 18150:0.13994565217391305 3351:0.30095108695652173 3356:0.045176630434782615 23352:0.27989130434782616 16350:0.15625 12657:0.38994565217391297 39963:1.0 6943:1.0 29332:1.0 21668:0.10529891304347826 14461:0.7228260869565216 446:0.35054347826086957 3369:1.0 12690:1.0 19978:0.07019927536231885 39991:0.07540760869565218 8269:1.0 38528:0.19021739130434784 16392:0.5027173913043479 12702:0.05532329988851728 14486:0.41440217391304346 21687:0.11175271739130434 8282:0.08559782608695653 9670:1.0 23381:0.17011668797953963 469:0.23573369565217395 26650:1.0 31806:0.7873641304347825 34254:0.358695652173913 14506:0.03551136363636364 34255:0.17255434782608697 21698:1.0 34259:0.795516304347826 38552:0.023777173913043476 8297:0.17730978260869565 34260:0.08288043478260869 12752:0.028532608695652172 26666:0.28355978260869563 37145:0.2044836956521739 21705:0.07065217391304347 9690:0.07540760869565218 28040:0.11616847826086955 9691:1.0 12764:0.19021739130434784 20035:0.4354619565217391 38572:0.07472826086956523 28044:0.025543478260869563 492:0.17892323369565216 12770:0.021017323369565216 43753:0.3063858695652174 44976:1.0 499:0.17595108695652173 38588:0.1216032608695652 21731:0.5903532608695652 18246:0.05774456521739129 5866:0.4241394927536232 41428:0.046098602484472055 40057:1.0 14566:0.2554347826086957 14570:0.29891304347826086 18259:0.028271321070234116 16486:0.022663043478260866 5881:1.0 12803:0.33491847826086957 18265:0.358695652173913 16494:1.0 14587:0.1408514492753623 41449:0.17255434782608692 41453:0.3213315217391304 18275:0.021430335968379448 40087:0.3702445652173913 12819:0.24932065217391305 37192:1.0 14598:0.050271739130434784 35751:0.09578804347826086 32987:1.0 25112:0.09827898550724637 16510:0.2105978260869565 35762:0.044157608695652176 31878:0.04551630434782609 21773:0.05672554347826087 545:0.1246225845410628 16518:0.030182453416149065 20109:0.09918478260869566 31880:0.1467391304347826 18291:0.06725543478260869 34325:0.2860054347826087 37219:0.24932065217391305 43794:0.12771739130434784 42598:1.0 23457:1.0 43796:0.4538043478260868 11225:0.13994565217391305 21784:0.40624999999999994 26749:0.10190217391304346 555:0.017663043478260868 43804:0.09375 28107:0.3824728260869565 42611:1.0 18309:0.04930124223602485 28111:0.1766304347826087 28115:1.0 7070:1.0 569:0.1698369565217391 25144:0.952445652173913 579:0.20380434782608695 18329:0.012325310559006214 12875:0.7275815217391304 30742:1.0 21810:0.12771739130434784 21811:0.7010869565217389 26770:0.0638586956521739 31906:1.0 41504:1.0 30751:0.11548913043478261 14656:1.0 20177:0.10190217391304347 25167:0.17119565217391303 18352:0.21816770186335405 29473:0.05095108695652174 29476:0.40624999999999994 28140:0.10258152173913043 14670:0.17510190217391305 41516:0.33491847826086957 4766:0.32396399456521735 41519:0.6127717391304347 31925:1.0 30768:1.0 12921:0.5020380434782609 29481:1.0 29483:0.15760869565217392 33067:0.04402173913043479 14686:1.0 14690:0.03962862318840579 4777:1.0 3537:0.4578804347826086 25193:0.20538513795986624 31936:1.0 7114:0.06385869565217392 33070:0.3811141304347826 45083:0.4198369565217391 29498:0.3260869565217391 4781:0.9524456521739129 18401:1.0 20231:0.3118206521739129 41545:0.08016304347826088 38700:0.27156929347826086 28177:0.7608695652173911 20235:1.0 42659:0.3247282608695652 23563:0.3539402173913044 21913:0.3614130434782609 18415:1.0 18423:0.2044836956521739 3560:0.1154891304347826 33093:1.0 38709:1.0 14722:0.13552989130434784 37323:0.1827445652173913 8468:0.15013586956521738 7137:1.0 38716:0.984375 20256:0.20991847826086957 21926:0.19215838509316766 16692:0.13451086956521735 16693:0.10784646739130438 18456:0.29381793478260865 40214:0.11209239130434782 31961:1.0 23599:0.6603260869565216 2063:1.0 14755:0.07472826086956523 43894:0.360054347826087 14757:0.046025815217391304 29543:0.12907608695652176 30811:0.36548913043478254 14762:0.366508152173913 25255:0.11314229249011858 16715:0.03396739130434782 2085:0.19519927536231887 11350:0.10971467391304346 41594:1.0 18499:0.2989130434782608 4839:0.13994565217391308 20314:0.30638586956521735 2098:0.14741847826086954 16753:0.18138586956521735 34473:0.02846109839816934 45135:0.02169916879795396 33149:0.35461956521739124 18521:0.11440217391304347 29574:0.17730978260869565 14802:0.0934103260869565 21979:0.07019927536231883 18537:1.0 8532:0.09873188405797101 45147:0.14096467391304346 11376:0.15625 3613:0.1919157608695652 6047:1.0 35940:0.04585597826086956 34497:0.08559782608695653 40279:0.21127717391304351 2132:1.0 13051:0.09069293478260869 742:0.04755434782608696 26935:1.0 26937:0.1542119565217391 41621:1.0 13060:0.5815217391304347 3623:1.0 16794:0.07676630434782608 40285:0.2099184782608695 23682:1.0 16803:0.04279891304347827 22015:0.06657608695652173 37422:0.21127717391304346 33184:0.30366847826086957 28274:0.3213315217391303 40300:0.4361413043478261 4888:0.44021739130434784 41632:0.7873641304347825 22029:1.0 25332:1.0 29614:0.2819293478260869 25336:1.0 22033:0.297554347826087 18612:0.1650815217391304 25345:0.03226902173913043 18615:0.04539116132723113 20379:1.0 9950:0.23573369565217392 775:1.0 16836:1.0 25356:0.29823369565217395 33202:0.8111413043478259 9960:0.01670957284515637 8581:0.12341485507246376 14881:0.2172554347826087 30897:0.10224184782608696 30901:1.0 18643:1.0 9972:1.0 32045:0.2112771739130435 11434:0.37024456521739124 11435:0.07404891304347826 25376:0.025815217391304345 3677:0.6202445652173911 11445:0.36548913043478265 25388:0.0769927536231884 4919:0.0998641304347826 2233:1.0 18670:0.1436036789297659 27002:0.08084239130434784 2238:0.07812499999999999 14917:0.09035326086956522 28325:0.6453804347826086 23763:1.0 45236:0.44089673913043476 44008:1.0 2266:0.10190217391304346 32072:0.7004076086956521 28334:0.024999999999999998 22092:0.17051630434782608 25420:0.5855978260869564 16906:1.0 14947:0.09239130434782608 4946:1.0 11483:1.0 14953:1.0 6128:0.10733695652173911 18707:0.10139266304347827 7300:0.3804347826086956 20440:0.01917270531400966 13167:1.0 6132:0.057065217391304345 8652:0.21127717391304346 38904:0.8903985507246377 29710:0.129981884057971 30959:1.0 42828:0.15557065217391305 30968:0.04698822463768116 18739:0.026300465838509316 41708:0.049932065217391304 38916:0.4864130434782608 858:0.13994565217391305 42838:0.23980978260869562 45267:0.09578804347826085 20464:0.06929347826086955 3747:0.057065217391304345 27065:1.0 2331:0.11956521739130435 2333:1.0 7322:0.08797554347826085 13195:0.054347826086956506 29725:0.03985507246376812 4977:0.041440217391304345 23829:1.0 18754:1.0 11539:0.1480978260869565 34637:0.08016304347826086 18769:0.6222826086956522 40429:0.08310688405797102 10054:0.05250388198757764 18783:0.16304347826086957 7339:0.497961956521739 2365:0.1735733695652174 18788:0.08288043478260869 34658:0.03260869565217391 18801:1.0 891:1.0 7347:1.0 20503:1.0 18813:0.24293478260869564 17011:1.0 20512:0.09465579710144927 32124:0.4714673913043479 34673:0.28940217391304346 11573:0.32574728260869557 37584:0.1684782608695652 7359:0.35020380434782605 45306:0.15625 18827:0.17730978260869565 34678:0.08916440217391303 34679:0.041440217391304345 38961:1.0 11581:0.10529891304347827 22213:0.06373517786561265 38979:0.12567934782608692 20535:0.04449728260869565 5019:0.10326086956521738 18850:0.020914208074534164 11590:0.09782608695652173 28422:0.7010869565217389 13258:0.2798913043478261 8735:1.0 15070:0.375 41755:0.435461956521739 42913:0.2798913043478261 22253:0.245018115942029 27154:1.0 37631:0.07099184782608696 34721:0.46535326086956513 17062:1.0 18897:0.11956521739130434 31040:0.18274456521739132 39012:0.8199728260869564 948:1.0 11617:0.15421195652173908 22265:1.0 20577:0.1627038043478261 27168:0.359375 40517:0.5407608695652174 18919:1.0 40519:0.19123641304347827 25576:0.9843749999999999 15115:1.0 2491:1.0 964:0.18138586956521738 6240:0.1501358695652174 5066:1.0 28466:0.08355978260869565 23965:0.7798913043478259 11652:0.22214673913043476 2504:0.06222826086956521 23969:0.2432065217391304 25596:0.13654891304347827 27196:0.07370923913043478 23984:0.27332427536231885 6257:0.029891304347826084 2533:0.30095108695652173 18963:1.0 17128:0.7418478260869564 29910:0.482336956521739 32212:0.02836277173913043 13352:0.057744565217391304 2543:0.13892663043478257 20638:0.01728562801932367 15171:0.41779891304347827 10211:1.0 22342:0.16576086956521735 11693:1.0 17138:0.2989130434782608 22346:0.11888586956521739 33390:0.04438405797101449 19003:0.39368206521739124 40561:0.4959239130434782 20653:0.04415760869565216 22355:0.09827898550724637 6282:0.0638586956521739 25646:0.26902173913043476 10228:0.27853260869565216 37705:0.026019021739130437 43013:0.15013586956521735 17163:1.0 43016:0.43885869565217384 19033:0.1861413043478261 7485:1.0 1036:1.0 15231:0.053977272727272735 13406:0.5597826086956521 29949:0.1902173913043478 33420:0.14130434782608697 15234:1.0 25684:0.3702445652173912 3916:1.0 34855:0.13043478260869565 17186:0.09489966555183946 6313:0.4144021739130434 39150:1.0 27281:0.20380434782608692 6317:0.0767663043478261 5158:0.7377717391304348 40612:0.09239130434782608 45428:1.0 8869:0.12047101449275362 15268:0.10258152173913045 6328:0.10190217391304347 40623:1.0 15275:0.11616847826086957 43047:1.0 29982:0.358695652173913 15277:1.0 31141:0.27717391304347827 36308:0.09035326086956522 27311:0.18682065217391303 29989:0.0333925585284281 6335:1.0 22432:0.05978260869565218 1076:0.07710597826086955 13464:0.29959239130434784 40636:1.0 20741:0.24415760869565215 11764:0.47622282608695643 17246:0.27309782608695654 10296:0.04846014492753623 34907:0.3620923913043477 15310:0.3417119565217392 25745:0.06739130434782607 37785:1.0 19098:1.0 8900:1.0 11768:0.389945652173913 2637:0.2323369565217391 5194:0.6603260869565216 20759:1.0 40646:0.12839673913043478 7554:1.0 44248:0.9191576086956521 15334:1.0 43065:0.28940217391304346 8916:0.17730978260869565 44254:0.05536684782608695 27347:0.10326086956521738 15345:0.8199728260869564 20787:0.0889945652173913 25774:0.034986413043478264 17275:0.07065217391304347 13500:0.048913043478260865 43080:0.11480978260869565 33483:0.31589673913043476 20798:0.34584980237154156 25791:0.3360507246376811 3971:0.4157608695652174 32315:0.008410973084886126 36355:1.0 17295:0.31182065217391297 5214:1.0 28620:0.05597826086956521 15364:1.0 34961:0.0907608695652174 37822:1.0 17311:0.2778532608695652 19143:1.0 25809:0.953804347826087 8957:0.24932065217391305 44281:0.1297554347826087 11824:0.05638586956521739 34975:1.0 20828:1.0 11828:0.12092391304347827 32330:1.0 6392:1.0 43104:1.0 7602:0.453804347826087 25821:0.13043478260869565 31196:0.07269021739130435 31200:0.15489130434782608 25827:0.03777173913043479 34982:0.16032608695652173 13564:1.0 32345:0.022758152173913044 22523:1.0 28651:0.09069293478260869 43115:0.019021739130434784 13578:0.12160326086956522 11851:0.06340579710144928 15412:0.12907608695652173 4003:0.9524456521739129 40730:0.4789402173913043 20865:0.34307065217391297 28659:0.13654891304347827 19193:1.0 15423:0.08355978260869562 10383:0.7330163043478259 39293:0.19678442028985504 6431:1.0 2736:0.6807065217391304 9008:1.0 9012:0.19519927536231885 1185:0.2798913043478261 1194:0.029721467391304348 39319:0.12160326086956523 40761:0.358695652173913 2759:0.050951086956521736 30105:0.021739130434782608 9026:0.10054347826086955 2761:0.6807065217391305 13637:1.0 15470:1.0 15471:1.0 45543:0.47894021739130427 43158:1.0 35048:0.4504076086956521 15474:0.2717391304347826 15482:0.36548913043478254 15483:1.0 36453:0.1453804347826087 27451:1.0 22597:0.21127717391304343 32400:0.025475543478260868 13646:0.1392663043478261 17437:0.038043478260869575 39327:0.1345108695652174 45551:0.06793478260869565 39328:0.24932065217391303 6461:0.19361413043478262 44347:1.0 25907:0.03180946291560102 30126:0.11888586956521739 10453:1.0 30131:1.0 13674:0.18376358695652176 19268:0.32336956521739135 7699:1.0 24258:1.0 20952:0.04551630434782609 2785:0.05332880434782609 17476:1.0 6475:0.0951086956521739 30150:0.0538383152173913 11928:0.12771739130434784 36497:0.05978260869565217 24289:0.04408967391304348 36499:0.06861413043478261 32434:0.10190217391304346 37943:0.8274456521739131 45598:0.09035326086956523 11939:0.09137228260869566 20999:0.3831521739130435 17503:0.04710144927536231 42044:0.2527173913043478 24314:0.37907608695652173 10497:0.23097826086956522 15587:0.21705163043478257 43212:0.01494565217391304 17528:0.18512228260869562 22716:1.0 36523:1.0 42061:0.024456521739130436 22719:0.2221467391304348 30202:1.0 15615:0.018274456521739126 1290:0.2309782608695652 45619:0.19361413043478262 35143:0.3546195652173913 4111:0.028532608695652176 24341:0.20176630434782605 13745:0.26256793478260865 7772:0.16304347826086957 1297:0.0889945652173913 21068:0.01517210144927536 13749:0.4225543478260869 30221:0.10190217391304349 39444:0.33899456521739135 13767:0.8199728260869565 39445:0.057201086956521735 42093:0.06317934782608696 26023:1.0 33686:0.16745923913043478 11993:1.0 9146:0.018682065217391304 17569:0.02798913043478261 19389:0.8682065217391306 32487:0.03940217391304348 15667:1.0 40897:1.0 13780:0.0498641304347826 13784:1.0 15681:0.0630095108695652 32491:0.11616847826086958 19409:0.06721014492753623 40910:0.10869565217391301 13791:0.09918478260869565 1337:0.18749999999999997 43278:1.0 13799:0.04823369565217391 9177:0.13451086956521738 17608:0.4354619565217391 42133:1.0 15731:0.18749999999999997 
0.012075377635915945 0.01099385149073514 0.0085852263127427 0.011488494433958083 32807:1.0 37705:0.35299539170506916 23007:1.0 24879:0.5069124423963134 16715:0.2304147465437788 19033:0.631336405529954 13640:0.3317972350230415 33943:0.4976958525345623 28528:0.11191573403554972 14784:0.7926267281105991 12494:0.9631336405529953 33281:0.2534562211981567 39505:0.25345622119815675 42288:1.0 17437:0.12903225806451615 39327:0.45622119815668205 3597:0.25345622119815664 39134:0.9746543778801842 28868:0.6574500768049155 18781:1.0 18511:0.1205658557496517 17186:0.804679191775966 43608:0.7603686635944701 18521:0.1293394777265745 16490:0.6728110599078341 35912:0.6331797235023042 40449:0.511520737327189 8527:0.6574500768049154 45147:0.9562211981566818 1054:0.4423963133640554 14603:0.511520737327189 25112:1.0 20512:0.1605222734254992 26522:1.0 26734:1.0 16000:0.4654377880184333 6326:0.783410138248848 39723:1.0 23450:0.11782572266443235 9412:0.05990783410138248 8028:1.0 18291:0.456221198156682 1063:1.0 1064:1.0 43794:0.8663594470046084 18567:0.5069124423963134 20734:1.0 16016:1.0 43649:1.0 37418:1.0 1790:1.0 17243:0.23575066699005578 36853:1.0 41485:1.0 21000:1.0 8210:1.0 39383:0.9285714285714285 32019:1.0 16302:0.4221198156682028 26162:1.0 15821:0.3625192012288786 2177:0.9032258064516129 33465:1.0 23319:1.0 33340:0.14976958525345618 935:0.6574500768049155 20159:1.0 11067:0.695852534562212 43212:0.2027649769585253 34002:0.42396313364055294 35447:1.0 8404:0.5069124423963134 23921:0.9475806451612903 3170:0.4682027649769586 34547:1.0 9962:1.0 39409:0.40092165898617504 38137:0.1537494763301215 38663:0.9631336405529954 13731:1.0 18644:1.0 15615:0.6198156682027649 5673:0.3225806451612903 1290:0.7834101382488479 25376:0.3502304147465438 10519:0.26135615536537193 24559:0.28264208909370203 34742:0.6451612903225806 17089:1.0 18670:0.16235377525700107 33853:1.0 24788:1.0 26620:1.0 19360:0.6774193548387096 11456:1.0 44917:0.6774193548387097 38514:0.40092165898617504 7424:1.0 37837:0.9400921658986174 24162:0.8640552995391707 45080:0.7603686635944701 30056:0.228439763001975 14000:0.5806451612903226 22307:0.26751152073732715 14921:1.0 2699:0.511520737327189 35833:0.5483870967741936 16639:0.1576695194206715 12944:1.0 29354:0.7834101382488479 19987:0.8663594470046082 23180:1.0 11473:0.20138248847926268 6120:0.2672811059907834 16397:1.0 28808:0.495852534562212 18407:0.44470046082949305 22960:1.0 30659:1.0 2037:0.3978494623655913 16658:1.0 33897:0.36175115207373276 14722:0.3064516129032258 6973:0.3535220539828835 20638:0.11725550435227854 14281:0.14833727736953545 6269:0.8018433179723503 18005:0.27649769585253453 19195:0.29032258064516125 14286:0.250384024577573 21524:1.0 29207:0.508993607848967 32216:1.0 23210:1.0 18721:0.5990783410138248 17137:0.46124842899036456 21926:0.65174456879526 14733:1.0 21348:0.4976958525345622 45261:1.0 42264:0.6774193548387097 11145:1.0 20653:0.1497695852534562 39653:0.456221198156682 9177:0.45622119815668194 16435:0.23553507424475165 9690:0.511520737327189 6284:1.0 42835:0.22995391705069126 11156:1.0 32100:1.0 22810:0.3456221198156681 
0.006394855017810707 0.0059053788032966585 0.0048431344773019165 0.0062364376405065446 39483:0.07820646506777892 43894:0.2210636079249218 7826:1.0 6:0.15328467153284672 16715:0.15641293013555788 22819:0.15328467153284672 16722:0.07664233576642336 36605:0.06569343065693431 38744:0.0821689259645464 24453:1.0 16726:1.0 13015:1.0 16734:0.5610010427528676 8508:0.13503649635036497 40955:0.6991657977059437 6021:1.0 33141:0.6246089676746612 35229:0.2584289190128606 711:0.10288494960027804 25280:0.1793534932221064 43920:0.05474452554744526 20317:0.19916579770594367 18521:0.35119916579770594 36620:0.5985401459854015 4195:0.3096976016684046 25284:0.5307612095933264 5455:0.27320125130344114 13860:0.23149113660062565 2963:1.0 30840:1.0 21983:0.04935696906499827 11370:0.5130344108446299 16768:0.0813347236704901 1402:0.28050052137643383 19507:0.49635036496350377 17663:0.529718456725756 11376:0.23983315954118872 45151:0.04133093184188073 35257:0.09176225234619395 737:1.0 11381:0.4494264859228363 6048:1.0 12104:0.36287799791449427 13046:1.0 25306:0.14494264859228362 13888:0.30517900590893293 19521:0.06662032209477464 28263:1.0 16792:1.0 2997:0.11574556830031284 9256:0.4327424400417101 16803:0.06569343065693431 26139:0.15849843587069865 28931:0.278415015641293 754:1.0 10652:1.0 18583:0.24191866527632952 31471:0.07553441084462982 33802:0.14389989572471323 33808:0.02685088633993744 43352:1.0 17697:0.5578727841501563 1436:0.36809176225234624 19546:0.26277372262773724 23706:0.5662148070907195 42764:0.4066736183524505 18612:0.5067778936392074 12140:0.3524504692387905 28954:0.0364963503649635 20382:0.06569343065693431 25350:0.13555787278415016 4247:0.0651720542231491 1444:0.14989572471324294 15841:0.9984358706986444 26178:0.22523461939520337 117:0.5245046923879041 5514:0.1418143899895725 38137:0.034790027490757415 15850:0.07299270072992702 4908:0.5245046923879041 38844:1.0 9974:0.02659019812304484 11435:0.34098018769551613 25376:0.03962460896767466 34560:0.13373305526590198 19575:0.23149113660062565 34562:0.11366006256517207 11441:0.24504692387904062 41035:0.5992353145637817 26191:0.31178310740354537 22925:0.24052832811956906 4919:0.1532846715328467 45219:1.0 24559:0.19186652763295098 42788:0.8154327424400417 18670:0.036736985642095134 24562:1.0 24563:1.0 11454:0.40667361835245047 27002:0.062043795620437964 13981:0.11817865832464372 6105:1.0 6684:0.36183524504692394 30376:0.12061174834897462 42794:1.0 8615:0.028675703858185613 14000:0.26277372262773724 37485:0.4661105318039624 13141:0.17413972888425444 43396:0.3326381647549531 11473:0.04556830031282586 35342:1.0 32074:0.11932072098912558 28336:0.28015293708724365 36746:0.03545359749739312 11478:1.0 33250:0.178310740354536 14020:0.02450469238790407 44019:1.0 14023:0.10392770246784847 30946:0.07664233576642338 8642:0.7987486965589154 10747:0.13503649635036494 25429:0.05995828988529718 23793:0.538060479666319 18707:0.15563086548488012 38893:1.0 831:0.3420229405630865 26231:0.1772679874869656 12224:0.07299270072992702 5575:0.1741397288842544 21348:0.11261730969760167 30403:1.0 44631:0.09280500521376434 7313:0.5662148070907195 6719:0.11157455683003131 30968:0.2884949600278068 27061:0.23931178310740356 4965:0.14963503649635035 32669:1.0 26252:0.19603753910323254 30976:1.0 23006:0.40771637122002086 20471:1.0 13194:0.029197080291970805 31555:0.14624608967674663 23009:0.42857142857142855 11532:0.1965589155370177 14073:1.0 42278:0.08342022940563086 4977:0.12721584984358705 42848:1.0 45276:0.8884254431699687 21371:1.0 41108:0.16032325338894682 8686:0.45464025026068816 38232:0.27111574556830026 6739:0.11313868613138685 29064:1.0 33943:0.337851929092805 15949:0.13555787278415016 10804:0.21167883211678834 25489:0.5140771637122002 23841:0.09662843239485576 7999:0.18091762252346194 39694:0.1856100104275287 32683:1.0 23848:0.4598540145985402 41120:0.09801876955161629 29073:0.0964546402502607 14100:0.38373305526590207 11560:0.26485922836287795 3780:1.0 15028:1.0 1596:0.4661105318039625 35394:0.34827945776850877 15984:0.17344456030587416 18812:0.49009384775808135 35402:0.26485922836287806 20512:0.14529023288147377 36126:1.0 17012:0.2116788321167883 11573:1.0 44080:0.36183524504692394 45306:0.23983315954118875 9412:0.027111574556830033 17886:0.1470281543274244 36834:1.0 19706:0.34827945776850877 32129:0.10201598887730275 25519:1.0 39728:0.6277372262773723 40470:0.5130344108446299 5633:0.13660062565172054 25523:0.2432221063607925 38969:0.15615224191866525 31588:0.1140076468543622 23082:0.21480709071949947 38979:0.03858185610010428 19721:1.0 41151:0.23774765380604798 37610:0.057351407716371226 16027:0.17205422314911367 41156:1.0 20542:0.26173096976016685 6791:1.0 33330:0.8988529718456726 43496:1.0 44702:0.1261730969760167 22241:0.8654848800834202 25546:1.0 7380:0.5662148070907195 6802:0.3482794577685088 31603:0.05735140771637122 41168:1.0 33340:0.033889468196037525 36869:0.13660062565172057 16055:0.06634515119916581 9448:0.28206465067778935 20561:0.2884949600278068 29148:0.17935349322210636 29822:0.2533889468196037 14178:0.029602595296025956 39770:0.05370177267987488 37631:0.10896767466110534 10885:0.8925964546402504 29839:0.07820646506777895 3170:0.0529718456725756 39775:0.07820646506777894 36172:1.0 19767:0.4775808133472368 23134:0.18795620437956204 18907:0.1193952033368092 18908:0.07090719499478623 29157:0.044212721584984356 5673:0.145985401459854 11633:1.0 36182:0.29197080291970806 9468:0.17726798748696562 32755:0.40041710114702816 5055:1.0 3184:1.0 32757:0.03156065345846368 23145:0.09558567952728536 17964:0.0170316301703163 37648:1.0 20598:0.19603753910323257 11644:1.0 36195:0.7320125130344107 10911:0.07924921793534934 39029:0.18873826903023982 27183:0.26329509906152243 35484:0.2721584984358707 16106:0.6819603753910324 17970:0.03151430888657166 5684:0.11470281543274245 11651:0.47862356621480706 16112:0.09662843239485575 4474:1.0 39046:1.0 5697:0.11817865832464373 36933:0.12304483837330553 5698:0.3472367049009385 40538:0.5245046923879041 23984:0.8390684741049703 11666:0.09228362877997916 25614:0.11261730969760167 39815:0.34098018769551625 26429:0.22627737226277375 17991:0.3820646506777893 2533:0.46193952033368096 1696:1.0 28482:1.0 24825:1.0 36229:0.04927007299270073 26444:1.0 18003:0.09037191518943344 5097:1.0 23203:0.04900938477580814 41820:0.429614181438999 39075:0.0743333829882318 11689:0.5870698644421273 31077:0.7054223149113661 22342:0.06360792492179354 22341:0.662148070907195 26452:0.11574556830031282 32788:1.0 17137:0.052185041236136126 1711:0.04087591240875913 13363:0.20151199165797704 33395:0.27841501564129306 39089:0.28550573514077165 6282:0.09801876955161627 39090:0.36079249217935355 36965:0.14702815432742442 8818:0.3044838373305527 29227:0.13764337851929093 15193:0.1492295214922952 35539:0.11470281543274244 34078:0.6120959332638164 35543:0.36809176225234613 27253:0.3090024330900243 19848:1.0 29937:0.03580908142951939 43013:0.9217935349322209 13383:0.2721584984358707 22383:0.4984358706986444 38413:0.22523461939520337 21574:0.12825860271115744 28527:1.0 39131:0.4264859228362877 13406:0.8592283628779981 33420:0.05422314911366006 2586:1.0 11007:0.5662148070907195 17186:0.291329108847357 17189:0.4462982273201252 1045:0.4389989572471324 19058:0.07490441432047273 4556:0.20646506777893636 11016:0.19708029197080293 8863:0.0475495307612096 7514:0.10844629822732013 40612:0.1418143899895725 24916:0.10740354535974975 44842:0.3545359749739312 27923:0.12672705943691345 11744:0.11470281543274244 382:1.0 16244:0.044391479219425004 29973:0.9405630865484882 40619:0.34723670490093844 3283:1.0 9574:0.034038432891404735 26525:0.20437956204379565 3933:1.0 17226:0.5130344108446299 18092:1.0 45437:0.0910670837678137 27934:0.6360792492179353 24933:0.3037886687521724 12559:0.06882168925964548 9588:0.2231491136600626 37036:1.0 29989:0.2221063607924922 12569:0.14598540145985403 23308:1.0 34899:1.0 37781:0.1574556830031283 21616:0.2627737226277373 16286:0.7137643378519292 39197:0.64859228362878 17257:0.07632950990615224 35619:0.028226597425123116 16302:0.28654848800834204 13481:0.18039624608967678 15324:0.7679874869655892 12602:0.03858185610010427 31153:1.0 15332:0.21272158498435872 18128:0.3128258602711157 3325:0.1097497393117831 5199:0.31386861313868614 3329:0.11574556830031284 6920:0.14389989572471326 6919:0.6277372262773723 35633:0.0608272506082725 8926:1.0 22468:0.5255474452554745 33480:0.6522419186652764 425:0.40041710114702816 21638:0.0667361835245047 27357:0.23044838373305523 44894:0.16585258767356348 44262:0.264859228362878 13500:0.07507820646506778 4607:0.08063955509210984 25784:0.059436913451511995 31760:0.14062267242663493 44901:0.3096976016684046 37084:0.12304483837330556 29323:0.21603385879899403 17294:0.26277372262773724 40669:0.46923879040667366 11807:0.17553006604101495 34197:0.09019812304483837 42497:0.15849843587069867 3356:0.06934306569343067 30626:0.23826903023983317 16350:0.23983315954118872 44276:0.24817518248175188 24136:0.07490441432047272 15369:0.29405630865484883 3362:0.49635036496350377 45490:0.32429614181439004 44279:0.44942648592283624 17319:0.09051094890510948 17321:0.5213764337851929 11824:0.2596454640250261 27382:0.5203336809176227 38514:0.09071949947862355 32921:1.0 14466:0.17726798748696557 41945:1.0 1130:1.0 31200:0.23774765380604795 12689:0.07716371220020855 43703:0.3219325686478971 29352:1.0 27396:0.6225234619395202 26632:1.0 7607:1.0 26634:0.23149113660062562 39991:0.11574556830031282 13562:0.08342022940563085 29354:0.17726798748696562 33519:0.27841501564129306 24166:1.0 19989:0.06100104275286756 1852:0.3879040667361835 12702:0.05307344723403117 24169:0.14911366006256518 11125:0.15258950295446644 29362:1.0 461:0.06882168925964546 13578:0.37330552659019817 22532:0.21501564129301354 40001:0.7142857142857143 1155:0.09746263468891209 38539:1.0 20865:0.21063607924921793 44938:0.13555787278415013 28017:0.64859228362878 21696:0.11226972540841156 14506:0.16352260877808325 19195:0.0656934306569343 40008:0.11574556830031282 44944:0.2627737226277373 20874:0.6120959332638165 17381:1.0 32940:0.1762252346193952 38552:0.03649635036496351 6982:1.0 12751:0.6435274839862953 39297:1.0 12752:0.1313868613138686 19205:0.22940563086548493 15437:1.0 30086:0.6788321167883212 14522:1.0 5287:0.31178310740354537 491:0.13660062565172054 25869:0.10288494960027807 42553:0.5140771637122002 1194:0.09124087591240876 13630:1.0 22577:0.59436913451512 14550:1.0 26687:0.07161816285903876 35730:0.6360792492179352 32400:0.15641293013555788 17437:0.08759124087591244 9047:0.09280500521376435 16478:1.0 12794:0.07716371220020855 43168:0.9155370177267987 3457:0.053180396246089674 17446:0.27111574556830026 10443:0.05610010427528676 16486:0.09276329509906153 16490:0.15224191866527634 13661:1.0 40077:0.10948905109489049 30700:0.3990267639902676 31866:1.0 24247:0.09593326381647549 20096:0.19551616266944732 13674:0.4432444510650975 20099:0.2862356621480709 4062:0.29718456725756 18283:0.23149113660062562 25112:0.07542579075425791 30136:0.2150156412930135 6470:0.0602479434596223 40800:0.12825860271115747 21775:0.30865484880083416 40804:0.03441084462982273 31288:0.11470281543274244 43788:1.0 23450:0.0266612949094701 35081:0.26277372262773724 2794:0.3096976016684046 44373:0.4462982273201252 16534:1.0 22655:0.06986444212721585 16544:0.4327424400417101 13696:0.5224191866527633 40120:0.2120264164059784 43195:0.10462287104622871 18309:0.028377774467451215 12860:0.5662148070907195 15570:0.06187000347584289 12863:0.14911366006256516 30164:1.0 20999:0.14702815432742442 4087:1.0 39384:1.0 17503:0.18074383037886682 8393:0.59436913451512 18329:0.018918516311634145 28126:0.1438998957247133 10496:1.0 31315:0.14624608967674663 37961:0.32429614181439 1993:0.04155563279650871 9100:0.4900938477580813 37249:0.12825860271115747 4093:0.291970802919708 21018:0.03962460896767466 13718:0.19186652763295098 37966:0.59436913451512 26779:0.932221063607925 17523:0.09124087591240876 22704:0.3096976016684046 35806:0.2586027111574557 22706:0.08863399374348281 25167:0.2627737226277372 21832:0.15745568300312823 22713:0.49635036496350365 30199:1.0 23507:0.26120959332638166 31337:0.2424400417101147 29473:0.07820646506777894 13731:0.22627737226277372 41516:0.5140771637122002 10519:0.05913898406077759 20195:0.5578727841501564 4113:0.20333680917622524 4119:0.3962460896767466 34383:0.18143899895724713 30215:0.23983315954118875 43846:0.06569343065693431 42078:0.11835245046923876 9812:0.4077163712200208 21863:0.06934306569343066 21866:0.051094890510948905 11979:0.03180396246089677 21867:0.36183524504692394 36536:0.42961418143899893 13752:0.17726798748696562 13756:0.0818561001042753 18381:0.11470281543274247 29487:0.04629822732012513 33067:0.15766423357664236 5386:0.64859228362878 15643:0.23305526590198128 24360:0.05474452554744525 42093:0.09697601668404589 21891:0.09468196037539102 16636:0.3326381647549531 21083:0.16440736878693085 9146:0.08602711157455684 43257:0.6788321167883212 33076:0.6120959332638164 15667:0.13953929282396438 31377:0.17344456030587416 19394:0.13321167883211682 22761:0.4932221063607925 11297:0.2064650677789364 6547:0.19499478623566213 15676:0.11313868613138686 37311:0.3607924921793535 12960:0.05735140771637122 26030:0.5265901981230449 8462:0.0740354535974974 25219:0.19708029197080293 12963:0.2562565172054223 44444:1.0 23566:0.18561001042752864 14722:0.2773722627737226 29511:0.22210636079249216 43272:0.13868613138686134 37327:0.43274244004171003 8470:0.3998957247132429 43879:0.1418143899895725 31397:0.12252346193952032 23581:0.11574556830031282 8479:1.0 20262:1.0 40926:0.87851929092805 16690:0.03515566810665872 40929:0.13660062565172054 33718:0.26277372262773724 26869:0.5224191866527633 44455:0.07820646506777892 674:0.8988529718456726 17610:1.0 13815:0.14389989572471323 44459:0.22523461939520337 30260:1.0 
0.012052815474648764 0.01080027374952782 0.00867077137939198 0.011401327027931998 27253:0.6294919454770755 45272:1.0 37705:0.14237918215613382 9704:0.7026022304832714 31688:1.0 41854:0.387360594795539 29550:0.6431226765799257 19464:0.18835192069392812 14329:1.0 10797:1.0 15473:1.0 1201:0.8736059479553903 39862:0.32899628252788105 31973:0.24535315985130113 4040:1.0 41259:1.0 33943:0.40148698884758366 10804:0.37732342007434944 15949:0.7249070631970259 17179:1.0 32400:0.13940520446096652 1578:1.0 31261:1.0 17437:0.10408921933085503 34851:0.7026022304832714 20311:0.5695167286245354 44484:0.09665427509293681 18259:0.15470403202745212 11359:1.0 21173:0.10408921933085503 38074:0.3029739776951672 16486:0.08267657992565056 15503:0.4721189591078067 4997:0.34386617100371747 4193:1.0 39335:1.0 18531:0.18848960484648214 1767:0.6617100371747211 6317:0.4200743494423792 15980:0.25 14598:0.137546468401487 37013:1.0 13674:0.28730748805098244 29768:0.8996282527881039 35587:0.37918215613382894 8022:0.6579925650557621 25111:0.4832713754646839 19273:0.6319702602230484 20512:0.3884758364312268 35762:0.241635687732342 33774:1.0 38259:1.0 20109:0.5427509293680297 9246:1.0 10461:0.11565468814539448 41747:1.0 30306:0.26022304832713755 15047:0.12081784386617098 1416:1.0 22653:0.9228624535315985 7714:1.0 24933:0.18050392399834778 38968:0.2788104089219331 21421:0.7249070631970261 29792:1.0 45027:1.0 12323:1.0 17683:0.3828996282527881 29989:0.06090935087217616 43944:0.2630111524163569 38979:0.13754646840148696 43804:0.5130111524163569 22876:0.08178438661710037 22432:0.3271375464684015 4081:1.0 44523:1.0 40824:0.8252788104089219 18309:0.03372278279341476 13699:1.0 9268:0.24163568773234204 12863:0.5315985130111524 36321:1.0 26559:1.0 10299:0.23420074349442377 35787:0.3643122676579926 12596:1.0 13480:0.10126394052044611 17503:0.2577447335811648 15332:0.758364312267658 18329:0.1011683483802443 6802:0.6208178438661709 8395:1.0 4437:0.483271375464684 43212:0.16356877323420072 30609:1.0 7386:0.6716232961586122 17275:0.3866171003717472 19561:0.38289962825278817 25778:1.0 10139:0.6840148698884758 21638:0.2379182156133829 32896:1.0 12631:0.3438661710037174 5367:0.8438661710037174 45614:1.0 40512:1.0 15615:1.0 40157:0.4423791821561338 32315:0.023012922641175427 605:1.0 29644:0.11214894879885037 22056:0.6505576208178439 18650:0.3308550185873606 34560:0.4767657992565056 10899:0.3092936802973978 3356:0.2472118959107807 4113:0.24163568773234198 44568:1.0 16610:0.6821561338289964 39599:0.12668001143837576 30045:0.7397769516728624 30630:1.0 41524:0.7410161090458487 43238:1.0 43094:0.7063197026022304 4920:0.23951141795007966 14223:1.0 17970:0.11235026848409746 24352:0.8066914498141264 26014:0.2825278810408922 13984:0.2639405204460966 7777:0.2342007434944238 9313:1.0 21673:0.8011152416356877 37111:0.5058417419012214 30376:0.21499380421313508 4129:1.0 29670:0.7100371747211895 9838:1.0 13562:0.2973977695167285 44010:0.241635687732342 12410:1.0 43863:0.483271375464684 8981:0.24163568773234192 44429:0.853159851301115 6120:0.21561338289962825 16396:0.3873605947955391 38531:0.7249070631970259 28334:0.20520446096654274 43115:0.20817843866171004 18404:1.0 14941:0.26022304832713755 8623:1.0 43406:0.8029739776951673 12712:0.14898484415213042 17778:0.5055762081784386 40902:0.11710037174721188 8800:0.7713754646840147 25844:0.9386617100371748 37316:0.6988847583643122 12963:0.9135687732342007 36066:0.17573504562352144 45382:0.11311736590546999 8641:1.0 36229:0.17565055762081785 14722:0.4944237918215613 36567:0.7360594795539033 30077:1.0 6128:0.29368029739776946 9861:1.0 12010:1.0 40559:0.3420074349442379 25851:0.7410161090458488 14286:0.20198265179677816 26451:0.4052044609665427 10018:0.275092936802974 17137:0.31007096992227107 21348:0.4014869888475836 4663:0.9925650557620816 16425:0.2366790582403966 43140:1.0 14047:0.6133828996282528 20447:1.0 40407:0.24349442379182157 36247:0.3252788104089219 20891:0.18866171003717475 1354:0.4089219330855019 2056:1.0 35036:0.7026022304832714 17822:0.724907063197026 
0.012181529996334158 0.011093149136391657 0.008781924931117556 0.011620383178019734 8142:0.26763990267639903 1724:0.2457420924574209 4826:0.089213300892133 27253:0.7210056772100567 37705:0.27956204379562044 29940:0.2968369829683698 28509:0.2761557177615572 31690:0.7153284671532848 35549:1.0 29244:1.0 39862:0.21532846715328469 38413:0.5255474452554745 34467:0.5279805352798054 44823:1.0 4192:0.6131386861313869 17186:0.08497099008047912 43608:0.40145985401459855 18521:0.13657745336577454 14343:1.0 35912:0.22287104622871054 42708:0.5571776155717763 32535:0.4574209245742093 19497:0.25304136253041365 8176:0.41362530413625304 4198:0.45742092457420924 19881:0.38321167883211676 27281:0.36496350364963503 12524:0.23276561232765614 11016:0.9197080291970805 15249:1.0 45425:1.0 7514:0.25304136253041365 27285:0.24087591240875908 45147:0.5048661800486618 19062:0.23236009732360097 35929:1.0 15266:0.4257907542579076 3615:0.3430656934306569 40279:0.75669099756691 17229:0.1477549214775492 12559:0.24087591240875914 43648:0.27007299270073 21217:0.14385644768856445 12561:1.0 26539:0.2761557177615572 29989:0.11959573273441888 6896:1.0 12569:0.34063260340632606 14393:0.5547445255474452 10293:0.17153284671532848 15315:0.11173498034811905 43348:0.34063260340632606 12594:0.3990267639902677 33806:0.18491484184914844 35976:0.6326034063260342 16302:0.22287104622871046 26162:0.5279805352798055 13923:1.0 23319:0.5279805352798054 26969:0.316301703163017 39934:1.0 5799:0.10364963503649635 28295:0.27007299270072993 4607:0.3763179237631793 31174:0.1224655312246553 28975:0.08407677750743443 5521:1.0 6935:0.2761557177615571 33836:0.39902676399026765 29644:0.07340162342309187 25376:0.09245742092457421 21279:1.0 33841:0.2554744525547445 34198:0.18004866180048662 37465:0.26196269261962696 41038:0.3430656934306569 17739:0.367396593673966 30909:1.0 25388:0.27575020275750206 19953:0.3649635036496351 18670:0.08571963316488863 3690:0.5985401459854015 27002:0.14476885644768858 27382:0.6070559610705597 28637:1.0 38862:0.316301703163017 38514:0.21167883211678828 17754:0.3600973236009733 18168:0.24330900243309006 25821:0.4671532846715329 23762:0.7153284671532848 12689:0.1800486618004866 33876:0.4574209245742093 26628:0.2785888077858881 15389:1.0 2699:0.2700729927007299 1134:1.0 26635:0.18572587185725875 32070:0.17153284671532845 30063:0.1591936044490789 12702:0.12383804354607277 32632:0.2128953771289538 22090:1.0 43115:0.0681265206812652 12208:1.0 12712:0.09751076174433838 11851:0.22708840227088406 39630:0.35948905109489054 3072:0.7299270072992701 7296:1.0 13589:0.6690997566909975 24597:0.5717761557177615 12219:0.7153284671532847 6128:0.19221411192214113 15423:0.29927007299270064 14034:0.23844282238442824 16925:1.0 479:0.170316301703163 164:0.9294403892944038 28350:0.5012165450121655 2729:0.17274939172749396 38552:0.17031630170316303 12751:0.08342022940563086 12752:0.20437956204379562 33264:0.8953771289537712 12248:0.24087591240875908 19222:0.46472019464720193 491:0.31873479318734793 28044:0.09148418491484184 25869:0.24006488240064883 12252:0.21411192214111924 29724:0.5571776155717763 36783:0.30656934306569344 39319:0.4355231143552311 23009:1.0 30104:1.0 45540:1.0 9030:0.15328467153284672 13636:0.31630170316301703 13640:0.5255474452554745 32400:0.18248175182481755 32111:1.0 42288:0.5279805352798054 39327:0.2408759124087591 17437:0.20437956204379565 20924:0.1581508515815085 32686:1.0 3457:0.24817518248175185 17861:0.18491484184914841 26711:0.5547445255474454 34661:0.3600973236009733 12290:1.0 20091:0.32278994322789945 35394:0.4063260340632603 36470:0.7980535279805352 43176:0.4136253041362531 15522:1.0 13674:0.09402155022592977 18813:0.4350364963503649 3118:0.06390916463909165 14603:0.2700729927007299 36126:0.12962962962962962 20512:0.08475263584752638 10078:0.16545012165450124 9412:0.0632603406326034 32129:0.9521492295214923 34322:0.13929440389294404 28736:0.05693430656934306 21421:0.15815085158150854 38969:0.7287104622871045 11225:0.25060827250608275 45591:0.613138686131387 23082:0.5012165450121655 4406:1.0 20535:0.15936739659367397 18309:0.022071602363573167 39743:0.08353609083536091 39744:0.35360908353609083 3501:1.0 21803:0.978102189781022 16034:0.3600973236009732 17503:0.16869424168694241 21445:0.43503649635036495 16038:0.1889420253376961 12872:0.41746209994385175 34702:0.22276290889429573 18329:0.04414320472714634 35111:0.754257907542579 13712:0.734793187347932 4432:1.0 10875:1.0 18337:0.15571776155717765 26773:1.0 4437:0.07907542579075427 34002:0.1119221411192214 9103:0.6934306569343066 27155:0.2299270072992701 22254:0.5279805352798054 13718:0.1492295214922952 3170:0.12360097323600974 37260:0.34144363341443634 12896:0.3965936739659367 21832:0.3673965936739659 30198:0.17599351175993508 45054:0.7980535279805353 24763:0.49391727493917276 29850:0.41362530413625304 44121:0.6350364963503651 21049:1.0 5673:0.170316301703163 23945:1.0 10519:0.13799096280848103 10899:0.25304136253041365 5948:0.31630170316301703 14675:0.15571776155717762 37648:0.12962962962962962 43846:0.1532846715328467 17965:0.4136253041362531 21863:0.1618004866180049 14681:0.13503649635036497 21866:0.05961070559610706 21487:0.4209245742092458 10911:0.18491484184914841 42354:0.2737226277372263 25585:1.0 25587:0.3309002433090025 17970:0.036766693701000275 44748:0.6520681265206814 24358:0.35523114355231156 25191:1.0 18389:0.3698296836982968 42093:0.22627737226277372 18390:0.23236009732360094 13771:0.16707218167072183 31938:0.0942822384428224 41536:0.3600973236009732 9146:0.2007299270072993 34040:0.308191403081914 28165:0.23357664233576644 43863:0.6853203568532036 41220:1.0 34408:1.0 5705:0.6119221411192215 28808:0.13090024330900246 11671:0.3467153284671533 23189:0.5145985401459854 12960:0.13381995133819952 18410:1.0 11681:0.6145985401459855 45382:0.07403545359749739 16665:1.0 14721:0.47758081334723673 651:0.26520681265206814 44783:0.2871046228710462 32214:1.0 7797:1.0 20638:0.06190862395241958 6269:0.4233576642335767 14281:0.15663839021503256 39075:0.1734445603058742 12431:1.0 14286:0.2643957826439578 22342:0.1484184914841849 28829:1.0 15704:1.0 42673:0.0802919708029197 17137:0.32470692324706923 21926:0.3441084462982273 16157:1.0 22789:0.2761557177615571 16681:1.0 11321:0.19829683698296835 24849:0.24006488240064877 23222:0.3236009732360098 9177:0.24087591240875908 5112:0.15571776155717762 28197:0.6253041362530415 21132:0.4136253041362531 22806:0.2944038929440389 20284:0.5571776155717761 
0.01526808692678451 0.014316017149982414 0.011293125253113125 0.014891834486412535 44323:1.0 22572:0.4893617021276595 27253:0.22517730496453897 4526:1.0 24639:1.0 34636:1.0 31418:1.0 13640:0.3829787234042553 6739:0.577127659574468 38755:0.5130023640661938 33281:0.2925531914893617 17437:0.14893617021276598 18781:0.38475177304964536 12794:0.39361702127659576 14790:0.39527380537146845 31566:1.0 17186:0.37152209492635024 8851:1.0 35747:1.0 18521:0.14929078014184397 22404:0.5771276595744681 28234:1.0 29758:0.952127659574468 11908:0.276595744680851 17005:0.5425531914893618 18275:0.16779497098646035 22623:0.5212765957446809 41286:0.9095744680851062 33602:1.0 7039:1.0 20512:0.1852836879432624 40270:1.0 15785:1.0 13884:0.4687499999999999 17479:1.0 28089:0.13164893617021273 7525:1.0 21413:1.0 3488:0.07978723404255318 33177:1.0 10472:0.226063829787234 43944:0.3763297872340426 21220:1.0 38979:0.19680851063829785 3943:0.7872340425531913 32139:1.0 25534:0.28368794326241137 3804:0.6345184770436729 12865:0.39095744680851063 37429:0.5771276595744681 2442:0.9234042553191489 13918:0.5130023640661938 4420:0.5135396518375241 17503:0.3687943262411347 15079:1.0 31601:1.0 11772:1.0 18329:0.09650455927051672 14410:0.3577127659574468 6917:0.40425531914893614 29310:1.0 13941:1.0 17271:0.3178191489361703 45193:1.0 21018:0.10106382978723405 37073:1.0 5041:1.0 3170:0.27021276595744687 12895:1.0 18141:0.2304964539007092 3341:1.0 14194:1.0 2484:0.34574468085106375 25174:0.5130023640661939 32315:0.03292806484295846 24127:0.19015957446808507 34562:0.5797872340425532 10899:0.22127659574468087 6817:0.1658957755164971 26197:1.0 11977:0.9234042553191489 20598:1.0 21866:0.13031914893617022 38859:1.0 18670:0.18739770867430441 17970:0.24113475177304963 14224:0.29521276595744683 2238:0.6117021276595743 438:1.0 4287:0.9414893617021277 38514:0.4627659574468085 15638:0.6872340425531914 23165:0.12898936170212766 16631:1.0 32625:1.0 18389:0.4042553191489362 23173:0.551418439716312 3197:0.33439716312056744 27196:0.5771276595744681 24580:1.0 14926:0.4109042553191489 38007:0.24308510638297873 16896:1.0 27025:1.0 29012:0.2965425531914893 35344:1.0 43406:0.5744680851063829 13578:0.952127659574468 17991:0.16241134751773045 31944:1.0 7793:0.230174081237911 15418:1.0 33384:1.0 38368:1.0 18984:0.14627659574468085 6269:0.9255319148936172 9166:1.0 22342:0.324468085106383 20875:0.601063829787234 45386:1.0 6278:0.634518477043673 12443:0.23936170212765956 43138:0.4893617021276595 27565:0.4521276595744681 20269:1.0 16435:0.1359338061465721 39310:0.4601063829787234 5114:1.0 15193:0.5437352245862884 42835:0.2654255319148936 
0.008155602602740175 0.007532692518155943 0.005942814844732695 0.007831678374524928 24429:1.0 27253:0.2040160642570281 2069:1.0 37705:0.09228915662650604 20665:0.2024096385542169 24886:1.0 19033:0.3301204819277109 21153:1.0 40589:1.0 14334:0.6289156626506025 1742:0.9409638554216869 8164:0.39759036144578325 25271:0.4626506024096386 45127:0.6763052208835342 9216:0.05963855421686746 34102:1.0 27597:0.21084337349397597 18060:1.0 28872:0.4096385542168675 17186:0.42075996292863765 15241:1.0 16758:0.27510040160642574 34478:0.37831325301204827 27919:1.0 9234:1.0 19059:0.6618473895582331 12526:0.30120481927710846 24066:1.0 45147:1.0 14813:1.0 1054:0.11566265060240966 12532:0.5373493975903615 39164:0.45301204819277113 40265:1.0 34491:0.7277108433734941 34884:0.7253012048192773 2990:0.5855421686746988 22003:0.13526104417670684 16265:0.32048192771084333 25309:0.11445783132530123 8879:0.9409638554216867 9256:1.0 13451:0.4963855421686748 9933:0.8433734939759036 12559:0.3180722891566265 43648:0.26746987951807233 12561:0.4951807228915662 43944:0.17048192771084342 29989:0.15792400370713625 5178:0.44337349397590375 15296:0.23614457831325306 3943:0.3566265060240964 12569:0.08433734939759038 5777:0.5204819277108435 20741:0.8660240963855421 37783:0.6289156626506025 22023:0.5662650602409638 26560:0.7253012048192772 16287:0.061941885187810075 12592:1.0 29614:1.0 33806:0.18313253012048195 20369:1.0 14860:1.0 41010:0.7204819277108435 15332:0.49156626506024104 37794:1.0 15338:0.26867469879518074 17702:0.3445783132530121 3329:0.5349397590361447 24983:0.12610441767068273 19927:0.2695352839931153 44887:1.0 6359:1.0 18622:1.0 2655:0.4120481927710844 1444:0.3463855421686747 39939:0.23012048192771087 19122:0.83855421686747 25784:0.1373493975903615 22477:1.0 25793:1.0 17294:0.6072289156626507 32315:0.01491681009753299 34560:0.6180722891566266 13521:0.3156626506024096 12659:0.26867469879518074 9644:1.0 24559:0.14779116465863457 43387:0.35361445783132534 22069:1.0 11824:1.0 13544:0.13373493975903616 13981:0.8192771084337349 11105:0.6626506024096386 17754:0.1783132530120482 6391:1.0 19970:0.9156626506024097 12190:0.6867469879518072 41054:0.5956626506024096 36048:0.6409638554216869 39991:0.2674698795180723 35673:0.5228915662650604 19176:1.0 41953:0.6120481927710844 12702:0.04905776953969725 32632:0.21084337349397594 10367:0.14790928419560598 16396:0.2510843373493976 24169:0.3445783132530121 36746:0.040963855421686755 33891:1.0 44013:1.0 23377:0.31566265060240967 14488:0.14056224899598396 10747:0.6240963855421686 24597:0.5662650602409639 32646:0.8361445783132533 6128:0.19036144578313255 14506:0.755750273822563 45515:0.4253012048192772 40008:0.26746987951807233 18720:1.0 18721:0.9397590361445782 38552:0.08433734939759037 1533:0.20963855421686747 15434:1.0 8297:0.6289156626506025 12751:0.3304647160068847 12752:0.20240963855421687 13603:1.0 17392:1.0 15446:0.12608573830204542 6719:0.2578313253012049 29714:0.12650602409638553 18739:0.09328743545611017 30408:0.18313253012048195 33923:0.2759036144578314 44034:0.4096385542168675 45267:0.3397590361445783 45533:1.0 33926:0.29156626506024097 17830:0.4578313253012048 26252:0.4530120481927712 44638:1.0 14068:1.0 33568:0.3939759036144578 13194:0.0674698795180723 38587:0.7132530120481928 36443:1.0 26270:1.0 17421:0.9328743545611016 16978:1.0 36105:1.0 30423:0.042302543507362796 13640:0.34698795180722897 1576:0.4457831325301204 8331:1.0 17437:0.0674698795180723 7999:0.20903614457831332 18259:0.10027803521779428 2367:0.2060240963855422 16486:0.026795180722891568 23854:0.8289156626506027 4054:1.0 15027:0.5204819277108433 44656:0.36385542168674706 5618:0.11171084337349398 42304:0.5879518072289156 39346:0.5156626506024097 43178:1.0 40793:1.0 13674:0.18623063683304647 18813:0.21542168674698794 25112:0.17429718875502007 17012:0.48915662650602415 36832:1.0 28722:0.4289156626506025 17886:0.16987951807228915 9412:0.03132530120481928 18291:0.2385542168674699 30145:0.4180722891566266 29782:1.0 224:0.26265060240963856 25934:0.3333333333333333 36492:1.0 16544:1.0 26334:0.6289156626506025 43804:0.33253012048192776 33004:1.0 32138:0.4168674698795181 18847:1.0 37602:0.3397590361445783 43192:0.8759036144578315 6485:1.0 16022:0.16385542168674702 18309:0.021858864027538727 16027:0.19879518072289157 38990:1.0 12863:0.3445783132530121 4086:0.8253012048192772 33329:1.0 37949:0.39759036144578314 25962:1.0 21804:0.6289156626506025 21445:0.21542168674698794 579:0.3614457831325301 18324:0.5759036144578314 22241:1.0 18329:0.02185886402753873 6802:0.40240963855421685 40493:1.0 36869:0.3156626506024097 29148:0.41445783132530134 16059:0.15421686746987953 42338:0.8361445783132532 26357:0.10602409638554218 27155:0.22771084337349404 35451:1.0 15600:0.10189328743545613 13718:0.1477911646586345 3170:0.4896385542168676 15617:0.5301204819277111 20191:1.0 12382:0.12595837897042717 29862:1.0 20195:0.8594377510040162 31048:1.0 20597:1.0 4464:1.0 37280:1.0 17970:0.03641231593038822 18381:0.13253012048192772 31362:1.0 42093:0.2240963855421687 39045:1.0 41536:0.17831325301204815 9146:0.13253012048192772 29189:1.0 5697:0.819277108433735 5698:0.26746987951807233 12945:1.0 15667:0.10748448338809787 21905:1.0 35178:0.6650602409638554 42969:0.42168674698795183 8800:1.0 36228:1.0 993:0.3722891566265061 37327:1.0 14281:0.07756431129925107 8470:0.9240963855421689 31394:1.0 26853:1.0 22342:0.1469879518072289 29207:0.33268558103381274 17137:0.040197152245345015 23213:1.0 22785:0.3120481927710843 21926:0.34079173838209975 42987:0.16546184738955824 23581:0.26746987951807233 33391:0.7493975903614458 12443:0.21686746987951805 21929:1.0 25644:0.04899598393574298 20653:0.5481927710843374 18020:0.9346987951807229 16690:0.08123924268502582 22797:0.572690763052209 29227:0.07951807228915664 41837:0.39759036144578325 15193:0.09852744310575637 27881:1.0 
0.008581244170761637 0.007832409411058262 0.006406877510592999 0.008319568771882524 39483:0.2218934911242603 16705:1.0 13001:0.4600591715976331 26885:0.32692307692307687 31970:0.852810650887574 36605:0.09319526627218935 43909:0.3047337278106509 42150:0.16420118343195264 703:0.661242603550296 19476:0.15236686390532544 9216:0.0732248520710059 28229:1.0 21173:0.04142011834319527 11360:1.0 23634:0.13949704142011832 35912:0.27100591715976335 12070:0.20857988165680472 19496:0.47386587771203165 28247:1.0 24484:0.3764792899408284 21993:1.0 30301:0.8831360946745561 40268:0.2894029047875202 14819:0.06656804733727809 2986:0.8298816568047337 8549:0.1923076923076923 31997:1.0 22003:0.08303747534516764 27621:0.05719921104536489 4219:1.0 22006:0.3372781065088758 43944:0.10465976331360947 22876:0.03254437869822485 2154:0.08136094674556214 5494:0.41124260355029585 63:0.4452662721893491 30327:1.0 39555:0.7810650887573963 25331:0.12552831783601018 33806:0.11242603550295859 13927:0.2892011834319526 22036:1.0 34532:1.0 11408:1.0 12140:1.0 2187:0.5029585798816567 35993:1.0 35305:0.30177514792899407 28294:0.7810650887573964 9959:0.14201183431952666 8594:0.14792899408284022 9974:0.03772189349112426 25376:0.8431952662721892 44570:0.11348267117497887 37464:0.7100591715976332 3040:1.0 13126:1.0 36718:1.0 36030:0.5769230769230769 18669:0.27455621301775146 18670:0.26058261265361854 41664:1.0 11456:0.10700197238658776 6109:0.22485207100591717 4295:0.06771860618014465 27014:0.7009558488848429 3058:0.514792899408284 45236:0.9600591715976331 14930:0.08066481030281936 2262:0.11168639053254438 27693:0.09108199492814877 16899:0.06863905325443787 8627:0.1331360946745562 36746:0.025147928994082844 15903:1.0 20428:0.31952662721893493 37507:0.6464497041420119 824:0.3128698224852071 39633:0.03335126412049488 10747:0.19156804733727809 44616:1.0 42812:0.21893491124260353 23792:0.20118343195266272 4325:1.0 17795:0.14201183431952663 30397:1.0 24608:0.22189349112426035 6719:0.15828402366863906 15920:0.8284023668639054 16941:0.8372781065088758 38211:0.07218934911242604 14984:0.437130177514793 42835:0.14763313609467457 22131:0.09530853761622991 17830:0.05621301775147929 10780:1.0 31555:0.20747041420118342 18751:1.0 25479:0.36982248520710054 13199:1.0 42278:0.0591715976331361 34638:0.26479289940828404 1572:0.3210059171597633 33281:0.16272189349112426 18781:0.05350098619329388 33285:1.0 3771:0.11637080867850097 36117:0.3727810650887574 36825:1.0 44659:0.9201183431952661 29768:0.17899408284023666 10072:0.42973372781065083 3118:0.038856015779092694 41740:0.1804733727810651 7356:0.15384615384615383 33969:0.11715976331360944 17012:0.6005917159763313 13233:0.8920118343195267 16009:0.027928994082840237 41141:0.04987320371935757 6776:0.11168639053254437 23082:0.3047337278106509 41750:0.6168639053254438 38979:0.10946745562130177 17033:0.1900887573964497 25534:0.1183431952662722 27786:0.4245562130177515 39743:0.10157790927021697 29800:0.1098372781065089 5652:1.0 6802:0.24704142011834315 33340:0.048076923076923066 34002:0.13609467455621302 39770:0.07618343195266272 10881:0.0732248520710059 26357:0.0650887573964497 16062:1.0 37631:0.15458579881656806 10135:0.4452662721893491 18896:0.6301775147928994 26367:0.1937869822485207 29850:0.2514792899408284 32752:1.0 10899:0.18461538461538465 27172:0.27958579881656803 27176:0.11094674556213018 34740:1.0 44736:1.0 38339:1.0 12392:1.0 27182:0.22682445759368836 15123:0.2714497041420118 14224:0.08210059171597633 17970:0.022353714661406968 43534:0.6568047337278106 5684:0.16272189349112426 17977:0.7071005917159765 5689:0.2529585798816569 17103:1.0 14256:0.15384615384615385 11671:0.21079881656804733 24816:0.13224852071005916 37680:0.21153846153846154 19813:1.0 16140:1.0 38364:0.10059171597633138 32205:0.31656804733727817 13352:0.1257396449704142 3868:0.2218934911242603 14281:0.047617143770989925 14283:0.13332100591715976 40559:0.13609467455621305 31664:1.0 29917:0.47781065088757385 22342:0.18047337278106504 40560:0.2031558185404339 8119:1.0 9516:0.07248520710059171 28494:0.7396449704142011 20653:0.04807692307692307 23229:1.0 24863:0.21745562130177512 11706:1.0 27884:0.2741617357001972 32805:0.3816568047337278 37705:0.11331360946745563 26479:0.3727810650887574 21562:0.7810650887573964 29940:0.27071005917159763 41249:0.5283178360101436 42407:0.5458579881656804 31692:1.0 29943:0.2958579881656805 33409:1.0 12480:0.4548816568047337 21568:1.0 8167:0.2248520710059172 16212:0.23224852071005916 3915:0.25739644970414205 25688:1.0 17186:0.9815657715066 12524:0.2830374753451676 7514:0.15384615384615383 35587:0.15088757396449703 26520:0.22337278106508873 11021:0.3483727810650888 24918:0.39940828402366857 31716:1.0 13433:0.27613412228796846 42438:0.8572485207100592 9574:0.04828825021132714 27928:0.10059171597633133 19067:0.5680473372781064 11027:0.22337278106508876 13442:0.14842209072978305 43643:0.024091293322062553 28564:0.29142011834319526 24933:0.35913872452333984 27304:0.1294378698224852 12559:0.24408284023668636 43648:0.32840236686390534 24948:0.09615384615384615 12569:0.4659763313609468 13459:1.0 32874:1.0 34898:0.09467455621301775 20741:0.17721893491124258 11046:0.3520710059171598 17246:0.29733727810650895 19910:1.0 22445:1.0 16294:1.0 5785:1.0 13478:0.5133136094674555 12602:0.05473372781065088 6908:0.36982248520710054 41911:1.0 34163:0.6331360946745562 6917:0.22485207100591717 12617:0.17652859960552267 6919:0.44526627218934905 3961:0.35305719921104534 11785:1.0 44891:0.44970414201183434 25774:0.07618343195266274 14422:0.14423076923076922 21638:0.09467455621301774 12631:0.1368343195266272 4605:1.0 19125:0.13905325443786984 30029:0.7692307692307692 38501:0.06094674556213017 1823:0.33579881656804733 24128:0.16272189349112426 42497:0.22485207100591717 20816:0.21301775147928997 19953:0.22189349112426032 32912:0.3964497041420118 8953:0.3816568047337278 34968:0.2633136094674556 38512:0.1390532544378698 11824:0.12278106508875739 27989:1.0 27387:0.37278106508875736 14465:0.0695266272189349 6961:0.7559171597633136 17345:0.2414201183431953 39991:0.16420118343195264 1142:0.3195266272189349 36394:0.1257396449704142 19998:0.3550295857988166 15411:1.0 17365:1.0 23378:0.34911242603550297 40003:0.2864891518737672 42529:1.0 20005:0.3698224852071006 39286:0.2869822485207101 15423:0.18195266272189345 18204:1.0 36408:0.13246369015599782 14506:0.30930607853684783 6422:0.7633136094674556 40008:0.16420118343195267 2729:0.10502958579881658 38552:0.051775147928994084 12752:0.18639053254437868 31820:0.3668639053254438 12762:1.0 9012:0.4250493096646943 16442:0.06032215647600263 20037:0.1923076923076923 38575:0.09714003944773175 15461:0.19058185404339248 2756:0.4881656804733728 1194:0.19415680473372782 43150:0.12031558185404338 9028:0.2047337278106509 9030:0.09319526627218934 12778:0.2958579881656805 9711:0.31656804733727817 27445:0.3165680473372781 15476:0.017128620367486764 13640:0.10650887573964497 17437:0.08284023668639054 12790:0.2056213017751479 18256:0.16420118343195267 12794:0.10946745562130178 21746:1.0 10443:0.3183431952662722 4050:0.8431952662721893 16489:0.4467455621301775 41991:0.385178923640462 6461:0.4215976331360947 42576:0.14644970414201183 11194:0.073541842772612 39346:0.6331360946745562 32984:1.0 14598:0.21893491124260356 35073:0.1309171597633136 13674:0.057163989856297545 25110:0.7928994082840237 35757:0.1305473372781065 30135:1.0 30706:0.1257396449704142 4062:0.42159763313609466 20103:1.0 15533:0.6789940828402367 32420:0.8372781065088758 6475:0.10355029585798817 2797:0.2795857988165681 11225:0.3047337278106509 10472:0.0628698224852071 1956:1.0 16543:1.0 31887:0.24186390532544377 32431:0.4245562130177514 12853:0.576923076923077 1961:0.8357988165680474 40822:0.07766272189349112 5915:1.0 18309:0.013419273034657649 16565:1.0 43202:1.0 8393:0.8431952662721892 18327:0.1464497041420118 23483:0.22041420118343194 18329:0.01341927303465765 30176:0.5680473372781066 25974:0.09524983563445101 22691:0.11242603550295859 12881:1.0 9100:0.6952662721893491 35126:0.27071005917159763 4095:1.0 37966:0.8431952662721892 13718:0.272189349112426 27511:0.2914201183431953 42059:1.0 22708:0.16161242603550294 25986:0.2869822485207101 597:0.43491124260355024 31337:0.3439349112426036 8417:0.6139053254437868 20188:0.12573964497041418 15615:0.039792899408284024 39419:0.8017751479289942 40158:0.29585798816568043 6523:0.44526627218934917 23517:0.11637080867850098 22735:0.46005917159763315 34383:0.514792899408284 37277:0.28261482107635943 15629:0.2011834319526627 14681:0.16420118343195264 11982:0.20118343195266275 31360:1.0 36543:0.11242603550295859 42093:0.1375739644970414 33681:0.29437869822485213 32481:0.3846153846153845 28798:1.0 17569:0.12189349112426036 26024:0.09738658777120315 38007:0.06760355029585798 33077:1.0 7120:0.3165680473372781 2897:0.08234714003944774 13780:0.07238658777120315 41545:0.17455621301775148 36555:0.15621301775147928 6558:0.19896449704142014 34416:1.0 16670:0.08136094674556213 15699:0.9156804733727812 42673:0.09763313609467453 34423:0.7041420118343197 16678:0.5177514792899408 25236:0.09171597633136094 11321:0.1205621301775148 1354:0.3254437869822485 
0.007457617852917818 0.0067441423008216 0.005422333157530257 0.007128967809609084 28842:0.2942097026604069 3:1.0 21145:0.7136150234741785 33116:0.6619718309859156 24440:0.26604068857589985 16715:0.31298904538341155 13832:1.0 4829:0.5164319248826292 42150:0.17370892018779344 2082:1.0 10596:1.0 40950:0.7496087636932709 7170:0.3395931142410016 1379:1.0 13023:0.8043818466353678 9216:0.2323943661971831 30832:0.6165884194053209 44484:0.04068857589984351 3600:1.0 23634:0.14757433489827856 9219:0.2347417840375587 21181:1.0 40971:0.7496087636932709 22847:0.295774647887324 32535:0.29420970266040686 25288:0.15492957746478875 38078:0.24178403755868547 14804:0.14032342201356288 24481:1.0 26912:0.33489827856025045 38780:0.21387584767866458 37396:0.107981220657277 4854:0.2816901408450705 8532:0.2274387063119457 38786:0.8482003129890454 29587:0.05703355938097721 9251:0.15492957746478872 23671:0.4298382889932186 40988:0.041892379920548936 35274:0.3552425665101721 30323:1.0 22877:1.0 37422:0.48669796557120504 3633:0.9342723004694836 40298:0.3974960876369328 42201:0.11048513302034428 15813:0.8982785602503913 33806:0.11893583724569642 10674:0.2871674491392801 25345:0.6690140845070424 18612:0.380281690140845 7899:0.48669796557120504 28954:0.05477308294209702 1441:1.0 6649:0.19248826291079812 12146:1.0 40318:0.48043818466353677 3023:1.0 4247:0.0978090766823161 17718:0.48669796557120504 22904:1.0 8593:1.0 31506:0.5320813771517997 38153:0.33333333333333326 31511:1.0 18670:0.22053689659323458 13981:0.1773604590505999 25398:0.03286384976525822 10714:0.9671361502347418 25402:0.14606155451225872 30376:0.3620239958268127 14004:0.26604068857589985 38875:1.0 30926:0.41784037558685444 32074:0.17907444668008046 21324:1.0 36746:0.026604068857589987 38884:1.0 21325:0.7949921752738653 38187:1.0 1520:0.4068857589984351 14023:0.15597287428273343 3072:0.2347417840375587 15906:0.7511737089201879 824:0.3309859154929578 26229:0.378716744913928 24597:0.36776212832550853 23792:0.2128325508607199 26231:0.2660406885758999 45253:0.4835680751173709 12224:0.10954616588419407 19629:0.7449139280125197 38903:0.31611893583724565 14043:1.0 28360:1.0 33923:0.17918622848200316 44034:0.26604068857589985 17830:0.11893583724569641 20468:0.07762128325508606 12259:0.33333333333333337 29725:0.18362023995826815 11538:0.17370892018779346 34637:0.1846635367762128 26276:1.0 33943:0.1690140845070423 42289:0.5320813771517997 18781:0.05659885237350026 8698:1.0 34658:0.07511737089201877 44653:0.644757433489828 4378:0.9687010954616588 44655:0.3735002608242045 32118:0.3849765258215962 19688:0.22065727699530518 18813:0.13990610328638495 8022:0.27699530516431925 26319:0.33959311424100164 41740:0.09546165884194054 18817:0.2707355242566511 27772:0.23395931142410017 13233:0.3145539906103286 23066:0.9702660406885759 221:1.0 21409:0.4162754303599374 17886:0.11032863849765258 34679:0.09546165884194054 22211:0.6447574334898278 39728:0.4710485133020344 20524:0.27621283255086065 18832:0.2153755868544601 32719:1.0 25525:0.46478873239436613 16015:1.0 28413:0.13810641627543035 28414:0.5727699530516431 23091:1.0 16022:0.2128325508607199 242:1.0 39743:0.05372978612415233 249:1.0 19740:0.2206572769953052 21445:0.13990610328638498 16038:0.24305218282877342 40491:0.1408450704225352 44702:0.18935837245696402 23108:1.0 1641:0.27856025039123633 36869:0.20500782472613455 32735:0.27386541471048514 6803:1.0 34712:1.0 34002:0.2879499217527386 10129:0.9546165884194052 27155:0.147887323943662 26360:1.0 3170:0.1589984350547731 9455:0.1510172143974961 18908:0.5320813771517998 27168:0.8278560250391237 10903:1.0 16099:0.5524256651017214 7412:0.6619718309859156 1674:0.5430359937402192 23163:0.8763693270735525 32184:0.322378716744914 17978:0.058685446009389665 7427:1.0 18942:1.0 3197:0.19676577986437144 5074:1.0 17981:0.6384976525821596 17108:1.0 5697:0.17736045905059988 26426:0.15336463223787167 39815:0.511737089201878 3205:1.0 17991:0.047782994261867495 8800:0.3247261345852895 38364:0.31924882629107987 29909:0.7214397496087637 45382:0.7619047619047619 42978:0.8779342723004695 35518:1.0 14286:0.08502869066249347 12443:0.07042253521126761 44170:0.5524256651017214 19006:0.14397496087636935 19009:0.6181533646322379 32221:1.0 29929:1.0 33403:0.8763693270735524 12465:0.1971830985915493 27253:0.06624934793948878 29940:0.19092331768388104 42407:0.19248826291079815 9533:0.5446009389671362 10243:0.2717788210745957 28528:0.03800581265369998 22394:0.5320813771517997 22398:0.13771517996870108 36999:0.9921752738654147 17186:0.16395810762007942 25693:0.21283255086071987 27281:0.2347417840375587 19881:0.08215962441314553 19059:0.2149191444966093 44839:0.699530516431925 19061:0.17762128325508605 5158:0.8497652582159625 36292:0.1048513302034429 16237:0.4405320813771518 18077:0.21205007824726135 18086:0.05790297339593114 35597:1.0 41300:1.0 19896:0.4303599374021909 25721:0.5553319919517101 37761:1.0 17229:0.19006971119647179 25725:0.8153364632237872 29282:0.4600938967136151 24933:0.30394713962789077 9588:0.3348982785602504 12559:0.10328638497652583 24936:0.0704225352112676 21608:0.2686890574214518 393:0.6885758998435055 24945:0.17527386541471052 29989:0.38461538461538464 43649:0.3395931142410016 12569:0.10954616588419407 29291:0.6697965571205009 12586:1.0 10296:0.11163275952008347 17257:0.3436619718309859 12602:0.05790297339593113 15332:0.31924882629107987 8916:0.4084507042253522 5201:1.0 24983:0.16379760041731872 3329:0.1737089201877934 37065:0.13136845765953745 12618:0.07902973395931143 5799:1.0 22468:0.3943661971830986 44894:0.12445432830903552 21638:0.10015649452269171 13500:0.11267605633802817 21640:0.05790297339593114 11078:0.6588419405320814 25784:0.17840375586854465 30027:1.0 19125:0.14710485133020348 34189:0.6124152321335421 17287:0.15788558511563208 25800:0.32942097026604067 24127:0.11189358372456963 5213:0.6224010731052985 6939:0.23474178403755866 15370:0.04600938967136149 42504:1.0 11824:0.1298904538341158 13544:0.08685446009389673 43100:0.4319248826291079 9657:0.4694835680751173 34980:0.8982785602503912 30056:0.07757657053431702 30643:1.0 23368:1.0 13564:0.14397496087636935 27400:1.0 12702:0.0318606797480037 3389:1.0 43115:0.04381846635367762 24169:0.22378716744913926 41389:0.8779342723004696 11125:0.2290036515388628 39277:1.0 43118:0.11737089201877936 19186:1.0 45510:1.0 15412:0.29733959311424096 20865:0.15805946791862283 7628:0.3474178403755869 41395:0.8998435054773083 45515:0.2762128325508607 14506:0.08180395504339168 35695:0.44600938967136156 38552:0.10954616588419407 8297:0.4084507042253521 12752:0.06572769953051642 23398:0.7699530516431925 31229:1.0 28034:1.0 17392:0.649452269170579 37145:0.2355242566510172 8300:0.107981220657277 16435:0.07998608937576075 35030:0.23787167449139282 20891:0.0794209702660407 12764:0.4381846635367763 28042:0.9233176838810644 32950:0.3333333333333333 36428:0.1510172143974961 12770:0.01613849765258216 21719:0.4381846635367762 2757:0.26134585289514867 21732:1.0 13633:0.25039123630672927 37894:0.20383411580594682 9031:0.7453051643192489 27445:0.6697965571205008 21739:0.6932707355242568 13640:0.11267605633802816 22594:0.07042253521126761 510:0.03626990702384241 16470:0.2433489827856025 13646:0.3208137715179969 20074:0.5446009389671362 17437:0.21909233176838816 18256:0.17370892018779344 12794:0.1158059467918623 15503:0.39749608763693267 35065:0.29420970266040686 40077:0.16431924882629106 41996:0.40219092331768386 26718:1.0 9733:1.0 24247:0.14397496087636932 35751:0.44131455399061026 13674:0.12094790968030404 11204:0.28951486697965567 35757:0.13810641627543035 19271:0.10380803338549818 1233:1.0 37927:0.1431924882629108 9746:0.1377151799687011 35081:0.3943661971830986 30145:0.2715179968701096 35765:0.3333333333333333 45021:1.0 25939:0.33513903936439143 43794:0.29420970266040697 11226:0.9546165884194053 555:0.0406885758998435 36497:0.13771517996870108 16547:0.32537819509650495 23463:1.0 43804:0.647887323943662 33005:0.41627543035993747 19300:0.24569640062597808 18309:0.08517773306505699 12863:0.2237871674491393 18314:0.22906885758998438 22682:1.0 18326:0.4053208137715179 5924:0.3943661971830986 34354:0.46657724122512867 42042:0.5524256651017215 5928:0.23474178403755872 15587:1.0 43212:0.03442879499217527 13718:0.09598330725091286 15600:0.09926224010731054 17523:0.06846635367762127 30191:1.0 45612:0.24726134585289516 25167:0.3943661971830986 14661:0.6838810641627544 25989:1.0 19337:1.0 21850:1.0 20195:0.2790818988002087 18364:0.2347417840375587 19345:0.30203442879499215 14681:0.1737089201877934 3532:0.8779342723004695 18381:0.08607198748043819 25188:0.837245696400626 24360:0.08215962441314555 8442:0.23474178403755866 13774:0.36932707355242567 9146:0.043035993740219096 19389:1.0 30234:0.7402190923317684 39447:1.0 12952:0.9546165884194056 41545:0.18466353677621283 28808:0.16838810641627544 37310:0.4231042822592118 35178:0.14397496087636935 43865:1.0 12960:0.08607198748043819 6558:0.2104851330203443 29511:1.0 40200:1.0 18438:0.4256651017214397 22785:0.20266040688575895 37336:0.48356807511737093 13799:0.11111111111111112 15713:1.0 28195:1.0 9177:0.15492957746478872 7817:1.0 40218:0.649452269170579 30804:0.16118935837245696 15731:0.431924882629108 
