svm_type c_svc
kernel_type linear
nr_class 5
total_sv 445
rho 0.014313580672685053 0.04283162878654274 -0.08104744264657585 -0.19907727435015274 0.04093537488335794 -0.1082192053366634 -0.23271863767912424 -0.15006478446382815 -0.2651613147730304 -0.1555890611813544
label 0 1 2 3 4
nr_sv 89 87 95 97 77
SV
0.04183135487965233 0.046372524909188854 0.045384901368976355 0.03862033563378738 2419:0.08708938120702826 2453:1.0 2910:0.18716577540106952 5541:1.0 6067:0.2230710466004584 8079:0.10026737967914437 9924:1.0 11359:0.1141783494724671 14254:0.4224598930481283 14613:0.12032085561497326 16128:1.0 19564:0.427807486631016 20696:1.0 21668:0.40508021390374327 22170:0.7326203208556149 22899:1.0 24777:1.0 25098:0.11688311688311687 36830:1.0 
0.08588827570781989 0.09031938023100633 0.09038910420190634 0.06706937451255213 54:1.0 792:1.0 1068:0.4551282051282052 1070:0.13675213675213677 1083:0.09279609279609281 1192:0.16605616605616608 2419:0.03976975405546834 3033:0.1662087912087912 3063:0.5946275946275945 8573:0.09157509157509156 8868:1.0 9498:0.06868131868131869 10169:0.03028083028083028 10865:0.28571428571428564 13496:0.02747252747252747 13623:0.060236060236060235 13685:0.17106227106227107 14105:0.32234432234432236 15268:0.06904206904206904 18490:0.24297924297924298 21282:0.1678876678876679 21344:0.14652014652014653 22467:0.012291412291412292 22750:0.06959706959706961 23483:0.5091575091575091 24203:0.1398046398046398 24414:0.0879120879120879 26202:0.8498168498168499 27054:0.12646084074655503 27380:0.01575091575091575 29631:0.3545787545787546 31732:0.15384615384615385 34338:0.9145299145299145 36479:0.0666854513008359 
0.024355089638306245 0.029111715571468893 0.05499884189624429 0.029524915772434757 2099:1.0 2362:0.1484848484848485 2531:0.8505050505050504 2910:0.03535353535353535 3586:1.0 4589:0.6353535353535353 5547:0.10252525252525252 5605:1.0 7055:0.298989898989899 7540:0.12861952861952863 9559:0.11010101010101009 9563:0.38484848484848483 9565:0.2191919191919192 9608:0.39090909090909093 9650:0.40909090909090906 10653:0.6393939393939394 10943:0.5525252525252525 11260:0.5696969696969697 11774:0.46262626262626266 13298:0.21717171717171718 13685:0.04717171717171718 14613:0.09090909090909091 14922:0.0301010101010101 15268:0.05711662075298439 17605:0.595959595959596 19890:0.6353535353535353 20180:0.24848484848484845 20486:0.7424242424242425 21303:1.0 21358:0.1616161616161616 21509:1.0 21561:0.36060606060606065 21767:0.034759358288770054 22058:1.0 22171:0.15707070707070706 23613:0.8101010101010101 23689:0.4131313131313131 24696:0.38686868686868686 24777:0.1888888888888889 24885:0.06565656565656566 25098:0.04415584415584415 25237:0.5393939393939394 26831:0.30303030303030304 27122:0.028925619834710745 27792:0.29393939393939394 28878:0.031100478468899517 29220:0.36902356902356903 29707:0.9252525252525253 30046:0.047979797979797977 31293:0.43434343434343436 32148:0.03164983164983165 32207:0.5525252525252525 32526:0.9831649831649831 32832:0.6070707070707071 33823:0.296969696969697 34338:0.7565656565656566 35587:0.6393939393939394 37657:0.14696969696969697 
0.013918991200245064 0.013951526975797431 0.013153139782400026 0.006398845199393105 901:0.6438356164383561 1049:1.0 1051:1.0 2910:0.4794520547945206 9709:1.0 9958:1.0 10626:0.9178082191780822 13958:1.0 14613:0.7705479452054794 22456:1.0 26878:1.0 29080:0.6523972602739726 35742:0.2089041095890411 37657:0.9965753424657534 
0.003169440401145221 0.0033148362876546595 0.007500062082208253 0.006715317254651673 724:1.0 2727:1.0 3033:0.14950576606260296 3525:1.0 3677:0.313838550247117 3695:0.38714991762767714 4394:0.3014827018121911 8114:0.4794069192751236 9589:0.6375617792421746 9819:0.12355848434925865 10092:1.0 11359:0.035175208157086246 12980:0.18707669778509978 13623:0.16254805052169138 14613:0.29654036243822074 14663:0.08533772652388798 16073:0.26029654036243827 16272:0.3731466227347611 16515:0.06644700713893464 18490:0.16392092257001648 19411:0.48105436573311366 19529:0.10323997803404725 21282:0.1812191103789127 21358:0.13179571663920922 21874:0.5485996705107085 22199:0.2487644151565074 22848:0.33635365183964855 23570:0.14827018121911037 24347:0.24876441515650743 24405:0.24382207578253706 24414:0.04744645799011532 24564:0.2482798720806279 26202:0.7166392092257002 26447:0.11202635914332786 27122:0.18870750336977685 27993:0.28995057660626034 28338:0.157331136738056 29881:0.7232289950576607 30969:1.0 33207:0.08649093904448103 33466:0.3607907742998353 34856:0.4514003294892916 36059:0.12081274025260848 36479:0.39589405652008614 
0.04562380545380219 0.021462481044176612 0.02822734332105529 0.01825020144349627 1535:1.0 3703:1.0 3951:0.4941176470588235 6494:0.7117647058823529 8104:1.0 11731:1.0 12025:1.0 22848:0.6862745098039215 25658:1.0 27122:0.16844919786096257 31024:0.12735294117647059 31191:0.7117647058823529 37790:1.0 38080:1.0 
0.0068327950509660005 0.001448882233897247 0.0 0.001049775833430347 543:1.0 3163:1.0 3951:0.07191780821917808 6067:1.0 10126:0.5835616438356164 10648:1.0 14613:0.07705479452054795 18490:0.3407534246575342 19411:1.0 21358:0.273972602739726 21516:1.0 22435:0.6301369863013699 22485:1.0 22771:0.20376712328767121 22848:0.6992009132420091 25194:1.0 27122:0.19613947696139478 27243:0.4554794520547945 30499:0.6986301369863013 34363:1.0 36830:0.6404109589041096 37657:0.4982876712328767 
0.056689007607212065 0.05148712454564737 0.041072274272757954 0.03553576027244836 3412:0.5312346286276438 3940:0.886682242990654 8036:1.0 10334:1.0 14613:0.42056074766355134 20741:1.0 22677:1.0 22848:0.2725856697819314 29895:1.0 34417:1.0 35742:0.2850467289719626 37567:1.0 
0.06274194008412459 0.06391728578466557 0.05566386923208789 0.049880017344602255 1202:1.0 2206:0.2706185567010309 2910:0.12027491408934708 8079:0.06443298969072164 8114:1.0 10718:0.1134020618556701 11359:0.07337234141357853 12980:0.11149293623520429 14254:0.2714776632302406 14613:0.38659793814432997 18624:0.12886597938144329 21668:0.2603092783505155 22550:1.0 22771:0.20446735395189003 22848:0.20045819014891178 24405:0.5085910652920962 27657:1.0 28426:0.25601374570446733 31732:0.4329896907216495 32251:0.6288659793814433 37657:1.0 
0.07820007210173273 0.06843590329095729 0.06312608938864708 0.06767744264607072 1862:0.8479657387580299 2544:0.26980728051391867 2747:0.9871520342612419 3505:0.27194860813704497 8079:0.08029978586723768 9418:1.0 9498:0.0802997858672377 10793:0.46145610278372595 13685:1.0 13748:1.0 14613:0.9154175588865097 14922:0.12762312633832978 19155:0.42184154175588867 20719:0.23768736616702354 20995:0.2705210563882941 21425:0.3554603854389722 22669:0.06605172129797397 25134:0.7558886509635975 25363:0.7987152034261241 27134:0.8329764453961457 35742:0.13062098501070665 
0.044335466333172334 0.0406068123897363 0.06530174749362375 0.031317292518481504 250:1.0 2543:0.30697674418604654 2910:0.08139534883720931 6107:0.12906976744186047 6517:0.7209302325581395 8079:0.26162790697674415 9271:1.0 11817:0.12790697674418605 13298:1.0 14613:0.1569767441860465 14663:0.3613953488372093 15268:0.06575052854122622 15805:1.0 16351:0.23488372093023255 18751:0.6372093023255814 19269:0.27674418604651163 19296:1.0 20620:1.0 20992:0.17441860465116277 21358:0.18604651162790697 21668:0.35232558139534886 22771:0.13837209302325582 22848:0.06782945736434107 25034:0.8465116279069766 27243:0.30930232558139537 28426:0.17325581395348835 31293:1.0 33602:0.4069767441860465 
0.024239102608566068 0.037885620734500795 0.014458404000969245 0.016950819777217584 1068:0.9244791666666667 1567:0.5572916666666666 1770:0.10286458333333333 2910:0.06076388888888889 3239:1.0 5258:0.12673611111111108 5408:0.15104166666666666 6494:0.10503472222222221 7055:0.5138888888888888 7631:0.3177083333333333 8079:0.39062499999999994 9712:0.05652006172839507 9924:0.7575231481481481 10098:0.6284722222222222 11062:0.32378472222222215 11758:1.0 12762:0.06481481481481481 12980:0.028163580246913577 13544:0.38715277777777773 13565:0.6614583333333333 13958:0.2534722222222222 14613:0.07812499999999999 17396:0.17447916666666669 19269:0.20659722222222224 20992:0.13020833333333331 21282:0.2864583333333333 22170:0.2378472222222222 22848:0.05063657407407406 24564:0.3052491830065359 25098:0.18973214285714288 26202:0.15104166666666666 26538:0.34201388888888884 26849:0.4444444444444444 27122:0.19886363636363635 27784:0.31076388888888884 27920:0.13368055555555552 29372:1.0 33207:0.09114583333333331 33755:0.3802083333333333 35742:0.05295138888888889 35851:0.22743055555555555 37657:0.25260416666666663 
0.009260967672893802 0.011619637177806407 0.009385483939711899 0.01882304557413669 1366:1.0 1650:1.0 2206:0.1661392405063291 2913:1.0 3042:1.0 3661:0.4683544303797467 6067:0.08800482218203738 6107:0.4683544303797468 8079:0.2373417721518987 9712:0.0686826066572902 10391:0.330168776371308 10718:0.5569620253164557 11594:0.8734177215189874 12980:0.136896390060947 14254:1.0 14613:0.5221518987341773 14663:0.21856540084388187 15788:1.0 20502:0.22468354430379744 21282:0.2320675105485232 21358:0.16877637130801687 21668:0.47943037974683544 21882:0.8544303797468353 22170:0.5780590717299579 22848:0.06153305203938114 24564:0.05299081657979647 27122:0.06041426927502876 27139:0.1933895921237693 27180:0.0455093429776974 28912:1.0 29080:0.20094936708860758 29379:0.46413502109704635 29861:0.5928270042194093 30832:0.24978902953586496 33207:0.11075949367088604 33602:0.3691983122362869 35368:0.5084388185654007 36007:0.08649789029535863 36042:1.0 37301:0.17179023508137428 
0.036498403122178044 0.04543484668488871 0.03521688935082626 0.039459194630280456 2857:0.383480825958702 5317:1.0 6481:1.0 9498:0.11061946902654868 10706:1.0 11260:0.831858407079646 11731:0.5014749262536873 12025:0.5014749262536873 12962:0.7138643067846606 16272:0.33407079646017696 16515:0.11897738446411013 16602:1.0 17196:1.0 17265:0.35693215339233036 18019:0.9144542772861357 20337:0.336283185840708 20756:1.0 21997:0.20353982300884954 24198:1.0 25028:0.4837758112094395 25874:1.0 26296:1.0 27054:0.024441635061104087 27062:1.0 27380:0.22831858407079647 29294:0.32595870206489674 30038:1.0 31011:1.0 31077:1.0 
0.3162626849031923 0.4500627730029037 0.28046715328404725 0.22197153742834616 1801:0.6785714285714286 5257:1.0 6562:0.17410714285714285 14871:1.0 35675:0.5416666666666666 
0.40141926543633016 0.4595356258381858 0.3760811850014584 0.31346145093874084 20501:1.0 27054:0.15343915343915343 32434:1.0 35742:0.5648148148148148 
0.2552941438718559 0.26270722476188485 0.23043897116728557 0.2068871558521438 2415:1.0 27054:0.32282003710575136 27920:1.0 34474:1.0 36479:0.5674325674325674 
0.023799477980450064 0.02357167596720366 0.01916697336966654 0.05553836091699636 463:1.0 2910:0.1111111111111111 4349:0.10793650793650796 8079:0.17857142857142858 11153:1.0 12646:0.08253968253968254 12980:0.051499118165784834 14613:0.07142857142857144 16515:0.12804232804232804 17298:0.06944444444444445 20696:0.5936507936507938 21112:1.0 22848:0.7407407407407406 23003:0.25396825396825395 24564:0.23921568627450981 25098:0.06938775510204082 27122:1.0 27725:0.5650793650793651 33207:1.0 34772:1.0 35742:0.09682539682539681 
0.004990786013218749 3.5517338804598507E-4 0.008577257402423278 0.0024423164731585626 188:0.6131386861313869 2206:0.8622262773722628 5408:0.9525547445255476 6107:0.20255474452554745 6825:1.0 9712:0.11881589618815896 9933:0.21259124087591239 10126:0.20729927007299268 10575:1.0 10612:1.0 10718:0.12043795620437958 12980:0.1184103811841038 14000:0.6532846715328466 14254:0.28832116788321166 14613:0.7390510948905109 18751:1.0 19008:0.3722627737226277 21668:0.2764598540145985 22170:1.0 22848:0.21289537712895376 22899:0.6824817518248175 23306:0.40510948905109484 27054:0.030239833159541187 34856:1.0 34972:0.30656934306569344 36007:0.14963503649635032 36059:0.26763990267639903 36746:1.0 36963:1.0 
0.06922449428330606 0.054835125363288315 0.057060697885949294 0.0476529303499197 944:0.30050505050505055 1044:1.0 1537:0.2790404040404041 1855:1.0 2206:0.19886363636363635 2536:1.0 2567:0.9772727272727273 2595:1.0 6107:0.14015151515151517 7224:1.0 8079:0.04734848484848485 8166:1.0 14613:0.3409090909090909 17605:0.595959595959596 20992:0.0946969696969697 21242:0.07853535353535354 22203:0.28409090909090906 22221:0.28030303030303033 22456:0.36868686868686873 24588:0.7853535353535354 29631:0.36666666666666664 30197:0.4242424242424243 33839:0.7853535353535354 34111:1.0 
0.02969566795635967 0.003661486554300647 0.0017718733715946136 0.004257620496139074 1627:1.0 2206:0.43994413407821237 3284:1.0 8079:0.10474860335195531 9924:0.696461824953445 9958:0.27188081936685293 12980:0.09062693978895096 14000:1.0 14254:0.44134078212290506 14613:0.6284916201117319 14663:0.2893854748603352 16272:0.63268156424581 18331:0.16924088070982582 20992:0.20949720670391062 21083:0.3519553072625699 21358:0.446927374301676 22203:0.20949720670391062 22771:0.3324022346368715 22848:0.16294227188081933 27784:1.0 28338:0.5335195530726257 
0.33156430156318645 0.3489506419403691 0.2992712440532604 0.26219969890995265 3951:1.0 8578:1.0 22848:0.6944444444444443 
7.158780761060603E-5 0.0024657718583748745 0.0082431202063157 0.0 665:0.5434083601286174 1475:1.0 2344:1.0 2415:0.990353697749196 2544:0.4051446945337621 10349:0.7073954983922831 14613:0.4340836012861737 15268:1.0 17605:0.7588424437299035 18998:0.6977491961414791 21242:1.0 22171:1.0 24588:1.0 29631:0.23344051446945335 29930:0.16237942122186494 31881:0.6864951768488746 33839:1.0 36479:0.0702448676725204 37967:1.0 
0.02993182009021615 0.05902190135441413 0.052030988908616425 0.022560298049016814 98:0.15307305759567064 146:0.28797835330498645 167:0.4619250096637031 474:0.05257054503285659 528:0.17317356010823348 661:0.1082334750676459 801:0.04252029377657518 831:0.10514109006571318 1192:0.10514109006571318 1475:0.12021646695013528 1715:0.20641669887901043 2023:0.04793196752995748 2028:1.0 2030:0.18245071511403166 2044:0.09161190568225744 2094:0.11132586006957866 2196:0.14186316196366444 2316:0.3393892539621183 2502:0.06977193660610745 2525:0.03247004252029378 2688:0.09161190568225744 2885:0.4847313490529571 2910:0.013529184383455739 3021:0.14031696946269806 3055:0.15655199072284495 3213:0.04561267877850792 3241:0.027831465017394665 3289:0.14186316196366447 3297:0.48163896405102435 3332:0.3989176652493235 3416:0.5229996134518746 3579:0.3030537301894086 3697:0.15268650947042903 3859:0.08658678005411673 3951:0.008117510630073444 3957:0.0144182450715114 4769:0.0715114031696946 4876:0.08996029096531609 5541:0.07228449942017781 6067:0.04837373681594787 6107:0.06436026285272516 7443:0.31310398144568996 7568:0.11828372632392732 8036:0.04136064940085041 8061:0.28875144955546966 8079:0.00724777734827986 8781:0.1039814456899884 8908:0.016186702744491688 9498:0.04348666408967916 10126:0.021955933513722457 10419:0.1395438732122149 11359:0.016506649672478817 12980:0.043894687110767515 13009:0.07653652879783533 14390:0.3478933127174333 14613:0.09567066099729415 14850:0.0823347506764592 15268:0.021857539445479145 15468:0.008504058755315035 16010:0.025898724391186703 16124:0.14688828759180517 16272:0.043776575183610354 16515:0.12472619507795385 17547:0.10900657131812912 17600:0.45651333591032073 18336:0.014431130009019457 18490:1.0 18855:0.04271356783919597 19118:0.22922303826826437 20245:0.17742558948589093 20337:0.396598376497874 20351:0.03904136064940084 20476:0.3502126014688829 20696:0.21685349826053346 20857:0.18496327792810208 20992:0.01449555469655972 21242:0.012021646695013528 21306:0.16235021260146884 21423:0.025125628140703512 21594:0.17587939698492458 22058:0.19134132199458828 22203:0.014495554696559719 22750:0.08813297255508311 22848:0.1352918438345574 24095:0.16814843448009278 24405:0.0572091225357557 24564:0.13592851133495532 24596:0.2431387707769617 24696:0.14804793196752994 24722:0.11596443757247776 24940:0.04268595725882158 25034:0.14070351758793967 25093:0.18477000386548123 25098:0.21966977745872218 25849:0.16428295322767683 26836:0.03813941502383713 26878:0.11287205257054501 27054:0.022419791264012372 27122:0.011069332677372878 27380:0.0997294163123309 27443:0.10552763819095477 27688:0.21144182450715113 28324:0.3989176652493235 28445:0.007653652879783532 28912:0.18322381136451488 29117:0.12562814070351758 29145:0.1387707769617317 29220:0.1412189150882618 29294:0.04271356783919598 29372:0.22265172013915732 29591:0.4078082721298801 29779:0.1186702744491689 29842:0.04793196752995747 30315:0.1399304213374565 30415:0.06494008504058756 30477:0.2682643989176653 30878:0.08658678005411673 31586:0.036445966094207305 31709:0.02396598376497874 32251:0.07073830691921143 32965:0.20970235794356398 33207:0.12176265945110164 33671:0.072091225357557 33755:0.9311944337069965 34818:0.2574410514109007 35076:0.16969462698105914 35403:0.16776188635485115 35478:0.15539234634712024 35675:0.02345058626465661 35742:0.023579435639737144 35767:0.02802473908001546 36497:0.054116737533822956 36589:0.06700167504187604 36668:0.02512562814070352 37566:0.13606494008504058 37583:0.25280247390800153 37944:0.11277541553923465 
0.12159111444826855 0.12490894709738151 0.12108730645289748 0.10606632034813684 1537:0.3658940397350994 3235:1.0 3268:0.22043519394512773 3284:0.5927152317880794 3336:1.0 8079:0.18625827814569537 9712:0.10779985283296543 9840:0.3162251655629139 11359:0.07069983891175945 14898:0.43708609271523174 16387:0.28807947019867547 18039:0.6490066225165563 20696:0.6192052980132451 22467:1.0 23859:1.0 24564:0.08317101675107129 27289:0.20596026490066227 
0.02142999705530321 0.02413625280743378 0.020926133631245143 0.020570797654701503 1890:1.0 2589:1.0 2885:1.0 3713:0.9736842105263156 10029:1.0 14613:0.5921052631578947 15268:0.24800637958532695 18490:0.8728070175438596 19836:1.0 20337:1.0 25098:0.3834586466165413 27054:0.07268170426065163 31988:1.0 35742:0.2675438596491228 
0.040044110159530424 0.03251424785738521 0.03509936623741832 0.029872452189596513 491:1.0 2911:0.16125954198473283 12980:0.49533502968617477 16515:0.30788804071246817 25098:0.1668484187568157 27380:0.984732824427481 27495:0.9847328244274809 31469:0.5572519083969466 32329:0.9847328244274809 35851:1.0 
0.031696124247717616 0.039903446952186006 0.034757284694550875 0.03880176358030981 2544:0.33070866141732286 3083:1.0 3677:1.0 5041:0.6509186351706037 6107:0.14566929133858267 9563:1.0 11067:0.7309711286089238 13565:1.0 13685:0.2451443569553806 14613:0.11811023622047244 14663:0.13595800524934382 17605:0.9291338582677164 21161:0.6719160104986877 21218:0.46719160104986873 23498:1.0 24500:0.02887139107611548 25098:0.11473565804274466 25658:0.4461942257217848 25828:1.0 27054:0.0869891263592051 29080:1.0 29255:1.0 29842:0.32545931758530183 30606:0.6325459317585302 33466:0.5748031496062993 34762:0.9553805774278215 35876:0.31083614548181476 
0.113213297089007 0.09991666421524704 0.07917616766790016 0.07810600813920272 2911:0.1467013888888889 12980:0.6759259259259259 16515:0.28009259259259256 21669:1.0 25098:0.15178571428571427 27380:0.8958333333333334 27495:0.8958333333333334 31469:0.5069444444444444 32329:0.8958333333333333 
0.0 0.0 0.001443472734852582 0.0 1026:0.3556338028169014 1436:1.0 2415:0.27112676056338025 2910:0.12323943661971833 3033:0.6390845070422535 3362:0.6514084507042254 9498:0.26408450704225356 9819:0.2640845070422535 10126:1.0 12980:0.05712050078247262 13958:0.5140845070422535 14613:0.8714788732394365 16248:1.0 16750:0.5 19519:0.98943661971831 24564:0.08844241922120961 27122:0.10083226632522407 34474:0.2711267605633803 36479:1.0 36634:0.20774647887323947 36746:0.4823943661971831 
0.23643324056551285 0.3095680485624976 0.23626988199458435 0.245679807027164 1070:0.1461187214611872 2419:0.07436399217221136 6354:1.0 6577:0.4185692541856925 12195:1.0 12980:0.07407407407407407 19675:0.23401826484018265 23252:0.41856925418569246 29930:0.46118721461187207 32008:0.12146118721461187 32329:0.589041095890411 
0.17829455329590815 0.15623356293564547 0.1538256205789024 0.12123867403402905 1727:1.0 9559:0.8257575757575757 10385:0.20833333333333337 12802:0.6606060606060605 17945:0.8863636363636364 22204:0.6647727272727273 32996:0.8257575757575757 
0.006357983191227792 0.026819189315656113 0.04018079195108386 0.022871208881124733 9559:1.0 10385:0.7568807339449543 12802:1.0 22204:0.536697247706422 32996:1.0 
0.1556059025470928 0.154149554192879 0.12778242005764226 0.12099564649846396 9559:0.9909090909090909 10385:1.0 12802:0.9909090909090909 16250:1.0 22204:0.2659090909090909 
0.23444541046485565 0.2917569020162158 0.20717822230194738 0.17509532698683314 448:1.0 1068:0.700657894736842 1070:0.21052631578947367 1083:1.0 29080:0.6266447368421052 32208:0.21052631578947367 37057:1.0 
0.4979693003904886 0.46180331913724704 0.40676634123473876 0.36433703395124617 2419:1.0 3369:0.6710526315789473 14441:0.16557017543859648 15511:0.5675438596491228 22467:0.08830409356725147 
0.001647887824120473 0.006245213906677756 0.025094265012155174 0.0023765645424772114 2911:0.1446917808219178 3015:0.6506849315068493 12980:1.0 16515:0.2762557077625571 24564:0.17203867848509263 25098:0.149706457925636 27380:0.5301369863013699 27495:0.8835616438356165 29254:1.0 31218:1.0 31469:1.0 32329:0.8835616438356164 
0.04134487184056802 0.07105034855027056 0.05265938349472446 0.04227718005237548 1627:0.4114942528735632 2419:0.6551724137931034 3369:0.8793103448275862 11020:1.0 18624:0.21551724137931033 27054:1.0 
0.03008183664452251 0.03166305219057088 0.036862961258496536 0.022850344495342047 1289:0.2554980595084088 1537:0.14294954721862874 2168:0.2546356188012075 2720:0.40750323415265205 3189:0.09767141009055627 3336:0.1953428201811126 3502:0.5278137128072445 3747:0.36481241914618373 4769:0.9573091849935316 7777:0.7917205692108669 10126:0.22043984476067266 11260:0.7296248382923676 11359:0.3314569420649628 11559:0.6222509702457957 11886:0.22466580422595947 12980:0.08394422883426765 14613:0.14553686934023286 14663:0.06701164294954723 15427:0.8893919793014231 15800:1.0 16088:0.8615782664941787 18855:0.1429495472186287 19529:0.08106942647692973 20696:0.48382923673997424 20857:0.10316946959896507 21358:0.1034928848641656 23508:0.11254851228978009 23914:0.08150064683053042 24564:0.3899246632676356 24940:1.0 24962:0.4294954721862872 25098:0.05655146922934763 25347:0.06080206985769729 27380:0.26701164294954727 27495:0.33376455368693403 28283:0.2858990944372575 29294:0.14294954721862874 29779:0.3971539456662354 33207:0.06791720569210867 33755:0.28331177231565335 33935:0.09702457956015524 34293:0.5821474773609315 34397:0.19016817593790428 35620:0.11254851228978009 
0.05688796829142679 0.05053753435267184 0.0659377042611448 0.038898518793075786 801:0.2010968921389397 880:1.0 1192:0.4972577696526509 1527:0.8281535648994515 2419:0.0297727866283625 2492:0.8628884826325411 2544:0.2303473491773309 3766:1.0 6107:0.10146252285191956 10943:1.0 12980:0.1482835669307333 14663:0.09469835466179159 15268:0.05168688715306631 18331:0.11076459834390795 18490:0.18190127970749545 19349:1.0 21242:0.17056672760511882 21358:0.14625228519195613 21668:0.13848263254113344 22467:0.1840341255332115 25098:0.039958213632802296 26202:0.1590493601462523 26215:0.5106642291285801 26849:0.4680073126142596 27688:1.0 29651:1.0 29861:0.513711151736746 30499:0.37294332723948814 32207:1.0 32612:0.16719295329898617 32692:1.0 36059:0.13406459475929314 36479:0.03993812403318801 
0.027106280467639084 0.026975669124583 0.010671701180656391 0.007883067591309224 1083:0.59375 2206:0.3076171875 6107:0.6503906250000001 11359:0.16680743243243243 12646:0.1015625 12980:0.1267361111111111 14613:0.439453125 14663:0.20234375000000002 16515:0.15755208333333331 18331:0.11833639705882353 21161:1.0 21242:0.24296875 21668:0.2958984375 22458:1.0 22467:0.7078125 26849:1.0 29631:0.28359375 31709:0.12109375000000001 35851:0.51171875 37301:0.15904017857142858 
0.050074027608417025 0.054827790461858296 0.05502084640602852 0.05726071468635048 2853:1.0 2910:0.26184538653366585 3254:0.034756857855361596 3951:0.05236907730673317 5868:1.0 9260:1.0 9290:1.0 9963:0.9052369077306733 13009:0.16458852867830426 14169:0.14027431421446385 14301:1.0 14900:0.4688279301745636 14922:0.1486284289276808 14963:1.0 15358:0.14713216957605985 15931:0.24937655860349126 16576:0.0971183153228041 17860:1.0 18019:0.773067331670823 18123:0.3017456359102244 18164:0.1571072319201995 18879:0.9276807980049875 20502:0.2655860349127182 20749:0.4887780548628429 22669:1.0 23218:0.8204488778054863 23613:1.0 24103:1.0 29170:1.0 33757:0.5311720698254364 33839:0.7755610972568578 36911:1.0 
0.0 0.004880486391219739 0.0 0.0 1768:1.0 2415:0.37745098039215685 6107:0.5441176470588235 12980:0.23856209150326796 14613:0.4411764705882353 14914:1.0 20351:0.49509803921568624 20857:0.3909313725490196 21242:0.3049019607843137 22848:0.28594771241830064 26447:1.0 27122:0.5614973262032086 30499:1.0 36830:0.9166666666666666 37657:0.7132352941176471 
0.03263797697455889 0.03502901611577379 0.020571506801666164 0.026186371701487264 2419:0.1292517006802721 6107:0.8809523809523809 9498:0.2976190476190476 11359:0.16945516945516945 12980:0.3862433862433862 14663:0.41111111111111115 15749:1.0 18971:1.0 22203:0.29761904761904756 25098:0.17346938775510204 27380:0.20476190476190476 29631:0.5761904761904761 30664:1.0 31732:1.0 
0.06149490072457819 0.052160508170694925 0.04082137699456388 0.0427340205383783 1324:0.6595744680851063 2419:0.08662613981762919 4876:0.990328820116054 5354:1.0 6107:0.2952127659574468 12025:0.9042553191489361 12980:0.25886524822695034 15499:1.0 18490:0.5292553191489361 19529:1.0 25098:0.23252279635258358 25347:1.0 27380:0.274468085106383 29631:0.3861702127659574 31499:1.0 
0.021499922590751053 0.01071196758741246 0.026285452041141452 0.011163886135220324 6107:0.74 8079:1.0 8573:1.0 9498:1.0 9819:1.0 11521:1.0 18624:1.0 21282:0.7333333333333335 24564:0.3349019607843137 33935:1.0 
0.03525608268032178 0.03126208276074992 0.019044689653114805 0.03109019678593491 3268:0.38259441707717573 5408:1.0 8079:0.2155172413793103 9498:0.4310344827586207 12980:0.18646232439335889 14613:0.2586206896551724 16387:1.0 22467:0.2314176245210728 23508:1.0 26202:1.0 33311:1.0 36479:0.7533156498673739 
0.12853082375182973 0.1101762142721399 0.10624556982653544 0.08853842333081803 357:1.0 10190:0.5269607843137255 11956:1.0 12980:0.11928104575163398 15140:0.5588235294117647 18064:1.0 18490:0.7316176470588236 26202:0.6397058823529412 33847:1.0 33935:0.5514705882352942 
0.06380270130234927 0.06505944540501185 0.058930733363063086 0.06038961780864605 317:1.0 6230:1.0 12962:1.0 13271:1.0 14513:1.0 17265:1.0 18123:1.0 18627:0.11294765840220387 22848:0.48209366391184566 27122:0.236664162283997 31191:1.0 33180:0.17079889807162535 
0.015307360955824668 0.0014731746840873326 0.0014099392450250142 0.008479626910733803 1120:1.0 1192:0.53125 1261:0.49609375 1268:1.0 1270:0.65625 1354:0.615234375 4876:1.0 6107:0.1083984375 7527:0.8593750000000001 8868:0.21328124999999998 9712:0.06358506944444445 10419:0.705078125 11721:0.341796875 14513:0.23632812499999997 14613:0.0439453125 15511:0.7582031250000001 15644:1.0 17335:0.490234375 18490:0.1943359375 19291:0.8632812499999999 20099:0.5439453125 20696:0.36523437500000006 23914:0.36914062500000006 24347:0.294921875 24696:0.748046875 25365:0.29296875 26063:0.21582031249999997 27054:0.016183035714285716 27380:0.050390625 29430:1.0 30832:0.11562499999999999 34972:0.49218750000000006 
0.17419652561922103 0.15207237683538455 0.18017512324071838 0.23827878313214293 2544:0.4315068493150685 5257:0.767123287671233 7095:1.0 12233:0.3767123287671233 15760:0.6369863013698629 16055:1.0 22771:0.40753424657534243 27054:0.11350293542074365 
0.24003601552799855 0.26321282255769163 0.26834778447884117 0.2269258152582429 996:1.0 1070:0.052545155993431854 1094:0.1444991789819376 1196:0.37274220032840716 1210:0.37274220032840716 1261:0.625615763546798 1270:0.8275862068965517 2419:0.026741731175228715 3190:1.0 4876:0.07642931780862815 12980:0.02663747491333698 13426:0.29474548440065684 15511:0.21247947454844007 15644:0.2802408319649699 24564:0.08248816768086545 34814:0.24876847290640394 36059:0.24083196496989603 
0.014563120304480141 0.019456560746263202 0.013959315080043293 0.010665288122791945 2158:1.0 2762:0.5750394944707741 2910:0.24881516587677724 3577:0.34786729857819904 3951:0.03317535545023697 4185:1.0 5317:0.2677725118483412 6107:0.0438388625592417 6441:0.050770823119246064 7443:0.6398104265402844 8079:0.014810426540284359 8166:0.3127962085308057 9418:0.3688783570300158 10703:0.5766192733017378 11359:0.05059561931599847 11446:0.47314375987361773 11533:0.09794628751974724 11683:0.2424960505529226 12980:0.10251009303142006 13688:0.8443917851500791 13748:0.07377567140600316 14474:0.8657187993680885 14613:0.017772511848341232 15749:0.0995260663507109 15988:0.2456556082148499 16088:0.26303317535545023 16515:0.03185887309110058 17547:0.11137440758293839 18490:0.15718799368088468 19296:0.16982622432859398 19622:0.03923117430226435 20210:0.09399684044233807 20857:0.06299368088467615 21282:0.04344391785150079 21303:0.15639810426540285 21516:0.23064770932069512 22721:0.18957345971563982 22848:0.3455766192733017 23508:0.2061611374407583 23762:0.8151658767772513 24564:0.19840163553573084 24696:0.30252764612954186 25098:0.06905890318212593 25493:0.2835703001579779 26366:0.2338072669826224 26447:0.16113744075829387 27054:0.03926878808395396 27122:0.5881085738905645 27230:0.8949447077409163 27243:0.10505529225908374 27380:0.04075829383886256 28305:0.16666666666666666 29294:0.7855450236966824 29372:0.4549763033175355 30477:0.5481832543443919 30619:1.0 31751:0.22195892575039497 32526:0.3844128488678252 33207:0.24881516587677724 33755:0.5189573459715641 37445:0.17693522906793052 37969:0.7077409162717221 
0.027627876652744503 0.01864199506964918 0.03466441373408427 0.013893061568653066 944:0.08122866894197953 1690:0.5187713310580205 2415:0.05255972696245734 2857:0.0887372013651877 2869:0.15358361774744028 2910:0.023890784982935155 3229:1.0 3412:0.019400035925992456 3951:0.043003412969283276 5317:0.4627986348122867 5434:0.04436860068259386 6481:0.23139931740614336 7443:0.552901023890785 8061:0.5098976109215018 9498:0.025597269624573378 9924:0.08509670079635949 10126:0.038771331058020476 10575:0.1870307167235495 10706:0.23139931740614333 11260:0.1924914675767918 11359:0.014574301263721058 11521:0.017064846416382253 11533:0.08464163822525599 11731:0.11604095563139932 12962:0.1651877133105802 12980:0.08858551384148654 13271:0.08259385665529011 13688:0.7296928327645051 13958:0.09965870307167235 14032:0.11467576791808876 14613:0.030716723549488054 14963:0.2737201365187713 15399:0.13447098976109217 15800:0.5276450511945392 16088:0.22730375426621163 16094:0.07918088737201365 16272:0.1546075085324232 16515:0.13765642775881684 16602:0.9255972696245734 17196:0.23139931740614336 17265:0.12389078498293514 17361:0.1522184300341297 18019:0.21160409556313994 18490:0.06791808873720137 19890:0.42935153583617747 20210:0.08122866894197953 20337:0.07781569965870308 20696:0.12764505119453926 20756:0.23139931740614336 20857:0.21774744027303752 21303:0.4054607508532423 21717:0.07918088737201365 21997:0.04709897610921502 22011:0.7201365187713311 23762:0.7044368600682595 24192:0.30580204778156994 24198:0.23139931740614336 24564:0.3257578799437864 25028:0.11194539249146758 25874:0.4627986348122867 26164:0.2477815699658703 26296:0.23139931740614336 27054:0.016967333008288638 27062:0.11569965870307168 27122:0.8014272417002792 27311:0.1757679180887372 27380:0.15849829351535835 28275:0.748122866894198 28762:0.21774744027303758 29294:0.22627986348122867 29961:0.15836177474402732 30038:0.23139931740614336 30229:0.03686006825938567 30275:0.42935153583617747 30619:0.43208191126279866 30648:0.011467576791808874 31011:0.23139931740614336 31022:0.32901023890784986 31077:0.23139931740614336 31354:0.21160409556313994 32563:1.0 32833:0.3969283276450512 33207:0.1433447098976109 33602:0.11945392491467577 33755:0.2989761092150171 34797:0.32832764505119455 
0.12747080213705514 0.09759292483932124 0.1435966923570956 0.09291459032536582 3297:0.6075085324232081 4457:0.7372013651877133 4952:1.0 5078:1.0 6703:1.0 9637:0.5187713310580204 9701:0.39931740614334466 9712:1.0 11201:0.19027303754266212 14613:0.15358361774744028 15002:1.0 16453:0.07918088737201365 18490:0.3395904436860068 24551:0.17064846416382254 25657:0.8020477815699658 27054:0.028278888347147733 36479:0.4473615122079285 
0.0 0.00529908921682244 0.0 0.0 2015:1.0 5828:0.09669669669669669 6107:0.16666666666666666 7777:0.9189189189189189 8079:0.2815315315315315 9958:0.14614614614614616 10718:0.0990990990990991 12980:0.04871538204871538 14254:0.47447447447447455 14613:0.47297297297297297 16088:1.0 16515:0.12112112112112111 18490:0.29879879879879884 21874:1.0 22848:0.08758758758758757 23859:0.9069069069069069 24564:0.1508567390920332 25098:0.06563706563706564 26202:0.26126126126126126 28426:0.6711711711711712 31191:0.36336336336336333 33122:0.37237237237237236 33602:0.5255255255255254 35368:0.7237237237237237 
0.02830233304102065 0.03713790116151754 0.02217540483364357 0.04290636204783668 1881:1.0 4394:0.6039603960396039 5679:1.0 8077:0.6633663366336634 8079:0.2475247524752475 9498:0.12376237623762376 14613:0.9653465346534653 21282:0.36303630363036304 21668:1.0 24564:0.2486895748398369 27359:1.0 28051:1.0 29714:0.6039603960396039 31709:0.4092409240924093 
0.027718681483120136 0.02595156810370122 0.023065186534783913 0.015590848560781086 682:1.0 1356:1.0 1537:1.0 2062:1.0 2206:0.3563348416289593 5274:0.8823529411764707 9958:0.220211161387632 11533:0.5610859728506788 14427:0.6742081447963802 14581:1.0 14613:0.3054298642533937 18855:1.0 19291:1.0 23914:0.28506787330316746 24564:0.568272557891935 26063:1.0 27380:0.3502262443438914 28283:1.0 29294:1.0 30832:0.2678733031674208 33602:0.7918552036199095 
0.0549632877249085 0.0629309714102962 0.052950881169602004 0.044338908538002285 2910:0.1912568306010929 4394:1.0 7631:1.0 8079:0.20491803278688522 12980:0.08864602307225258 14613:0.6147540983606558 18490:0.5437158469945355 19291:0.6038251366120218 21282:0.3005464480874317 21668:0.4139344262295082 28338:0.5218579234972677 29714:1.0 30381:1.0 
0.02165231666112228 0.029398514689791357 0.040502253972251344 0.021666686974371827 1174:0.37163375224416517 1256:0.6732495511669659 1268:0.45960502692998206 1289:0.7091561938958708 1290:0.3141831238779174 1356:0.3967684021543985 1640:1.0 1768:0.36624775583482944 2453:0.16786355475763018 2720:0.2827648114901257 4363:0.31597845601436264 6067:0.07489099769171584 6107:0.1992818671454219 9498:0.13464991023339318 11067:1.0 11359:0.03833276723761463 11721:0.31418312387791747 11959:0.39353680430879723 12025:0.3052064631956912 12980:0.029124276880111714 14513:0.21723518850987433 14613:0.3635547576301616 14920:0.8330341113105925 16272:0.4066427289048474 16839:0.10592459605026931 16931:0.36624775583482944 18933:0.5062836624775584 18998:0.3895870736086176 19291:0.39676840215439846 20099:1.0 20992:0.06732495511669659 22203:0.06732495511669659 23830:0.4003590664272891 23914:0.5655296229802514 25098:0.6670941266991537 25347:0.16876122082585282 26062:0.4961101137043687 26836:0.3542788749251945 28639:0.6696588868940755 29080:0.17100538599640935 29961:0.41651705565529623 30832:0.21256732495511668 31709:0.16696588868940757 32207:0.9820466786355475 34293:0.8078994614003591 36059:0.13165769000598446 36746:0.7378815080789947 38095:0.3231597845601436 
0.0 0.0 0.0 0.008057126425049643 188:1.0 3369:0.9107142857142856 5274:0.5803571428571428 8079:0.22321428571428567 9924:0.37103174603174593 11359:0.38127413127413123 12980:0.09656084656084656 14613:0.13392857142857142 14663:0.3083333333333333 15268:0.1682900432900433 16090:0.24702380952380948 20729:0.5238095238095237 22467:0.11984126984126983 27084:1.0 29631:0.43214285714285705 33923:1.0 33935:0.44642857142857134 34972:1.0 35767:0.2157738095238095 36748:1.0 
0.04662637212560287 0.05539572280113447 0.07208320842947874 0.04028001903153757 1782:1.0 4299:0.8192267502612329 5078:0.3061650992685475 8079:0.05877742946708463 8402:1.0 8861:1.0 9712:0.2041100661790317 10995:1.0 13416:0.15218010829296094 15511:0.40564263322884014 16515:0.1264367816091954 17621:1.0 18933:0.8840125391849529 18998:0.6802507836990596 20857:1.0 21805:0.11940723852949559 24153:1.0 27054:0.07792207792207793 27252:0.1974921630094044 28762:1.0 31988:0.35736677115987464 33802:1.0 33935:0.23510971786833854 34945:0.2084639498432602 35472:0.7544409613375129 37131:0.7628004179728318 37315:0.17241379310344826 
0.06518043175828729 0.05276179222779313 0.0692108562776514 0.05287256451549515 212:0.35080058224163024 801:0.4803493449781659 1767:0.7248908296943231 2419:0.2133499688084841 5453:0.5 6067:0.182158452900811 7817:1.0 10283:0.24235807860262004 11774:1.0 13610:0.10480349344978165 13685:0.1019650655021834 13958:0.3187772925764192 14613:0.04912663755458515 14663:0.22620087336244543 14922:0.06506550218340611 15268:0.12346169114728066 16774:0.05922489082969432 18191:0.9148471615720523 19120:0.1853711790393013 20696:0.4082969432314411 20707:0.5502183406113538 20715:0.7925764192139737 21242:0.06790393013100438 21668:0.33078602620087333 22585:0.3668122270742358 24203:1.0 25098:0.33406113537117904 27139:0.40029112081513823 29707:1.0 30499:0.44541484716157204 30832:0.12925764192139738 31732:0.2751091703056769 33772:1.0 37058:0.33187772925764186 37241:0.4803493449781659 37870:0.12008733624454149 
0.02839224693801227 0.01869169276618194 0.017935150996050007 0.03592439550713354 188:0.46796657381615603 432:1.0 1303:1.0 1537:0.3077994428969359 2062:0.6155988857938718 2301:1.0 5453:0.637883008356546 8079:0.052228412256267405 9712:0.0906839987619932 10126:0.15821727019498608 14613:0.3760445682451254 14734:1.0 16272:0.31545961002785516 16515:0.3370473537604457 16750:0.7910863509749304 18490:0.27715877437325903 21242:0.08662952646239554 23003:0.22284122562674094 24405:0.8245125348189415 24493:0.6443825441039925 24564:0.1399311813862035 26836:0.5496750232126276 29145:1.0 30840:0.8356545961002785 31709:0.08635097493036212 31749:0.41782729805013924 33694:0.852367688022284 35403:0.6044568245125348 36390:0.8523676880222842 
0.0 0.0 0.0034535618786915617 0.0 901:1.0 1537:0.39184397163120566 1841:1.0 3284:0.6347517730496454 3747:1.0 4213:0.599290780141844 5408:0.30851063829787234 7359:0.3120567375886525 9712:0.23089046493301815 11260:1.0 11533:0.4397163120567376 11828:1.0 14613:0.2393617021276596 16515:0.42907801418439717 17547:1.0 18933:1.0 20696:0.6631205673758866 23508:0.6170212765957447 23914:0.22340425531914895 24564:0.35627868168544014 24894:0.34219858156028365 25098:0.07750759878419453 27054:0.029381965552178316 27380:0.1829787234042553 27495:0.9148936170212766 27808:1.0 28283:0.7836879432624112 29080:0.3377659574468085 30862:1.0 33207:0.1861702127659574 34346:1.0 
0.0 0.0 0.006767640073435559 0.0 467:1.0 665:0.8848167539267017 2206:0.412303664921466 6107:0.2905759162303665 9924:0.6527050610820244 12980:0.08493310063990693 14613:0.7068062827225131 14663:0.8136125654450261 21358:0.837696335078534 23914:0.32984293193717285 24564:0.7890360332614721 26447:0.356020942408377 27122:0.14992860542598763 28338:1.0 33207:0.27486910994764396 
0.03192924208742957 0.030440866739826725 0.05756267381997623 0.025592511485176217 45:1.0 1770:0.21085409252669038 2334:1.0 2401:1.0 8079:0.13345195729537365 9924:0.22182680901542107 10251:0.8434163701067616 10310:0.04559608540925267 12980:0.17319098457888493 14254:0.28113879003558717 14613:0.0800711743772242 14791:1.0 16053:1.0 16515:0.14353499406880188 17816:1.0 19519:1.0 20497:0.6761565836298933 21358:0.2846975088967971 21668:0.2695729537366548 23003:0.2846975088967971 25098:0.15556685307574986 29080:0.3389679715302491 29861:1.0 31751:1.0 32526:0.8659549228944248 32965:0.5516014234875445 33122:0.8825622775800711 33923:0.597864768683274 35135:1.0 36059:0.2609727164887307 36134:0.9217081850533808 37657:0.5177935943060498 
0.0380350115984978 0.04209382482646402 0.04716446245511077 0.055082851765109395 2003:0.3140495867768595 3021:1.0 3033:1.0 5748:0.162534435261708 6703:0.26905417814508725 9963:1.0 10718:1.0 11359:0.05881914972824064 13790:0.19834710743801656 14613:0.1859504132231405 16515:1.0 17577:1.0 18490:0.2741046831955923 23394:1.0 24875:0.5234159779614326 24940:0.608421881149154 26164:1.0 27095:0.162534435261708 29573:1.0 29631:1.0 31931:0.48484848484848486 34476:1.0 36450:0.5578512396694215 36479:0.06018224200042382 
0.05022874503620763 0.0530254837098078 0.04363012822943571 0.03720745902511003 3661:1.0 3713:1.0 5547:0.9144144144144144 6107:1.0 8079:0.1689189189189189 10283:1.0 14613:0.20270270270270271 20719:1.0 22221:1.0 22848:0.5255255255255254 23306:1.0 25098:0.1969111969111969 
0.08688221094729119 0.09400929170771659 0.07774109080104932 0.058540771923485974 2544:1.0 2910:0.5555555555555556 9498:0.5952380952380952 11405:1.0 21083:1.0 22771:0.9444444444444443 27252:1.0 28719:1.0 
0.3112368852546808 0.3029765644985036 0.26447082855982496 0.22639285554066674 16351:1.0 20351:1.0 29930:1.0 
0.0020270582967585535 0.0 0.0 0.0 801:1.0 1627:0.8136363636363637 2093:1.0 3369:0.6954545454545454 5737:1.0 8079:0.2556818181818181 9933:0.26477272727272727 10078:0.6863636363636364 10349:1.0 12980:0.07373737373737374 14613:0.20454545454545456 14663:0.47090909090909094 16515:0.18333333333333332 17114:1.0 17236:1.0 20992:0.17045454545454541 21282:0.25 22159:1.0 22203:0.3409090909090909 22221:0.5045454545454545 22280:0.12121212121212122 23136:1.0 24564:0.22834224598930478 26202:0.39545454545454545 29080:0.4329545454545455 29379:1.0 36059:1.0 37241:1.0 
0.05284210705347511 0.04315686244680622 0.03825163754463058 0.03203719517344772 111:1.0 2910:0.3225806451612903 3502:0.4700460829493087 4204:1.0 9924:0.5745007680491551 12980:0.14951356886840758 14613:0.4147465437788019 16272:0.521889400921659 18490:0.45852534562211983 18998:1.0 19197:1.0 22170:0.631336405529954 24564:0.11574952561669828 27122:0.26392961876832843 27605:1.0 35306:1.0 35403:1.0 
0.10300797986191018 0.16110959409731074 0.09344198814719885 0.07850194510839432 4363:1.0 5408:0.4943181818181819 7359:1.0 10975:1.0 11359:0.12131449631449631 12980:0.09217171717171718 14613:0.38352272727272724 14663:0.29431818181818187 20729:1.0 22467:0.11439393939393941 24564:0.285427807486631 27084:0.9545454545454547 33935:0.42613636363636365 
0.13921737430592418 0.13929419766573325 0.14539299899476565 0.12894510990043884 236:1.0 4769:0.6208053691275167 6107:0.37248322147651003 9819:0.5033557046979865 10648:0.4899328859060402 16305:0.6241610738255033 19622:1.0 22681:1.0 24564:0.5057244374259771 28426:1.0 
0.06815453790366684 0.06544232218276867 0.08511964131777286 0.05581382371391225 2206:0.525 9712:0.4340740740740741 11359:0.9963963963963964 12980:0.10814814814814816 15016:1.0 15749:0.8400000000000001 16530:0.7866666666666667 20992:1.0 22203:1.0 23570:1.0 27054:0.055238095238095246 27380:0.516 
0.015163188164202536 0.016345495686603328 0.04251856270163817 0.02397606950242119 459:0.1298449612403101 528:0.43410852713178294 901:0.09108527131782947 1145:0.46608527131782945 1202:0.2819767441860465 1546:0.19476744186046513 1590:0.5625 2206:0.07630813953488372 2910:0.03391472868217054 3131:1.0 3217:0.4060077519379845 3239:0.558139534883721 3332:1.0 5605:0.4796511627906977 5791:0.4806201550387597 6107:0.10755813953488373 6439:0.316860465116279 6487:1.0 7777:0.29651162790697677 8079:0.07267441860465115 8166:0.3837209302325581 9498:0.036337209302325583 9958:0.047157622739018086 10197:0.2781007751937985 10995:0.309108527131783 13496:0.21802325581395346 13504:0.28488372093023256 13685:0.36201550387596904 14613:0.15261627906976744 16018:0.21511627906976746 16060:0.8992248062015503 16839:0.05717054263565892 17438:0.04505813953488372 17547:0.1366279069767442 17631:0.1453488372093023 18751:0.2655038759689922 18884:0.09253875968992248 19118:0.5746124031007752 19529:0.060723514211886306 19598:0.2715116279069768 20599:0.01744186046511628 20857:0.07727713178294573 20958:0.803294573643411 21242:0.06027131782945737 21344:0.8527131782945737 21450:0.7141472868217056 21515:0.12015503875968993 21668:0.14680232558139536 22390:0.8895348837209301 23762:1.0 23914:0.12209302325581398 24405:0.28682170542635654 24500:0.010658914728682169 24588:0.3013565891472868 24696:0.7422480620155039 25049:0.34108527131782945 25754:1.0 27054:0.008028792912513842 27341:0.022009966777408636 27688:0.5300387596899224 27784:0.17344961240310075 28324:1.0 29707:0.8875968992248062 29858:0.14244186046511628 30832:0.05736434108527132 32251:0.17732558139534882 34476:0.35174418604651164 34762:0.3527131782945736 35742:0.29554263565891475 35852:0.5668604651162791 36918:0.8032945736434108 37107:0.3614341085271318 37967:0.3013565891472868 
0.12709918776562226 0.12978209775505592 0.10939930523514609 0.11856142174105673 8079:0.234375 11541:1.0 12980:0.2027777777777778 19564:1.0 21344:1.0 22280:1.0 23003:1.0 25186:1.0 
0.08355250513691222 0.09343903230243779 0.09528298955892554 0.07214635072227069 1537:0.49330357142857145 3859:1.0 8079:0.16741071428571425 9502:1.0 12980:0.21726190476190474 16515:0.1800595238095238 16530:0.5267857142857143 24405:0.6607142857142857 24564:0.22426470588235292 26202:0.3883928571428572 30832:0.26428571428571423 30878:1.0 33466:0.9776785714285714 37445:1.0 
0.07257514448069009 0.07468731831065206 0.06897865916240782 0.04875111526796625 676:1.0 1712:1.0 8079:0.24429967426710097 8531:0.697068403908795 9498:0.12214983713355049 9502:0.729641693811075 11359:0.2781935029492033 11683:1.0 11817:0.1791530944625407 12980:0.1056822294607311 14613:0.1465798045602606 16530:0.3843648208469056 21282:0.1791530944625407 24219:0.9934853420195441 24564:0.16363287986204253 24746:0.38110749185667747 26366:0.9641693811074918 29080:0.31026058631921827 29779:1.0 33935:0.488599348534202 
0.027477932239744707 0.038049744495548356 0.03472309609790361 0.009092669449211678 188:0.8527918781725888 1068:0.5406091370558375 4349:0.17258883248730963 15399:1.0 20696:0.949238578680203 22771:0.6040609137055837 23003:0.40609137055837563 24564:0.5100029859659598 26538:1.0 27122:0.5814490078449469 33207:0.532994923857868 36479:0.22178836392034357 
0.06899254717438921 0.06955923585291757 0.05830060153656983 0.07936958158609166 944:1.0 3951:0.5294117647058824 9377:0.9915966386554621 9958:0.8179271708683473 19269:1.0 20210:1.0 22771:1.0 22848:0.24509803921568624 27252:0.5294117647058824 
0.21967961238945882 0.23799950308787696 0.1953051417725149 0.17165504665995443 6067:0.31364124597207305 18971:0.3157894736842105 22033:1.0 27243:1.0 31191:0.9097744360902255 34945:1.0 
0.03633461720096002 0.021022420876123618 0.03157188588438453 0.01744542803626773 2910:0.09943181818181819 3951:0.23863636363636365 4394:0.5198863636363636 6067:0.35551948051948057 6494:0.5156249999999999 8578:0.11931818181818184 12646:0.07386363636363635 18490:0.28267045454545453 22485:0.8295454545454546 22681:0.4232954545454546 22848:0.6628787878787878 24564:0.285427807486631 25049:1.0 25194:0.41477272727272735 25658:0.48295454545454547 25989:0.8409090909090908 27243:0.37784090909090917 31024:0.12301136363636361 32438:1.0 33923:0.47727272727272735 37566:1.0 
0.011892012822623444 0.004265823536876788 5.210559583988403E-4 0.003601005008399195 533:1.0 2454:1.0 2836:1.0 7631:0.7379032258064516 8079:0.45362903225806445 9498:0.907258064516129 12980:0.13082437275985664 14613:0.5443548387096774 20729:0.7096774193548386 21282:0.44354838709677424 21668:0.6108870967741935 24564:0.202561669829222 31709:1.0 33122:1.0 34417:0.8629032258064517 
0.05263340080255746 0.08517571117751793 0.051427676898405716 0.04524796092187519 1324:1.0 4225:1.0 7810:1.0 8036:0.8629032258064517 11533:1.0 20741:0.575268817204301 21515:1.0 22203:0.30241935483870963 22677:0.8629032258064517 29895:0.4314516129032258 34417:0.8629032258064517 35742:0.7379032258064516 37567:0.8629032258064516 
0.07578212898081695 0.12206129890661727 0.058278354879284094 0.07230017451104837 2396:1.0 8079:0.15624999999999997 9271:0.4479166666666667 9559:0.45416666666666655 9712:0.2712962962962963 11359:0.26689189189189194 11404:1.0 12980:0.27037037037037037 13958:0.6083333333333334 15016:0.20833333333333334 21358:1.0 22721:1.0 24564:0.20931372549019606 25098:0.09107142857142857 27054:0.03452380952380952 27380:0.21500000000000002 32796:0.7583333333333333 
0.0 0.03745772501706699 0.0 0.0 2206:0.5163934426229508 2544:0.20655737704918034 6107:0.36393442622950817 7055:0.9704918032786884 9712:0.21347905282331514 9732:0.08918032786885245 11067:0.9131147540983606 13623:0.9704918032786884 13685:0.30622950819672135 14488:0.9672131147540984 14613:0.6639344262295083 14850:0.6983606557377049 14916:0.6983606557377049 19202:1.0 19529:0.20546448087431696 20773:0.9704918032786883 21344:0.26229508196721313 22771:0.19508196721311477 23392:0.9704918032786886 23914:0.619672131147541 25194:0.957377049180328 25326:0.9704918032786886 26836:0.9704918032786884 27054:0.027166276346604217 30832:0.5822950819672131 31513:0.3295081967213115 35742:1.0 
0.11016216580973458 0.09941068515316874 0.09666148311583563 0.07541463720260456 8079:0.125 11359:0.14234234234234236 14613:0.15 17631:1.0 23003:0.5333333333333333 24564:0.16745098039215686 25053:1.0 25365:1.0 30840:1.0 31749:1.0 33207:0.7 36479:0.4369230769230769 
-0.8 0.8 0.8 0.8 24551:1.0 
-0.06074919564067572 0.056610432328997956 0.0644829856114556 0.03618658956210092 3268:0.5839598997493735 6447:0.43201754385964913 13227:1.0 13981:1.0 15125:0.9894736842105263 18561:0.32748538011695905 22750:1.0 29783:0.7894736842105263 33152:1.0 37007:0.5497076023391814 
-0.0 0.0 0.02304542677630682 0.005658758032119087 80:0.033203125 441:0.10807291666666667 801:0.07161458333333333 1097:0.5992187500000001 1770:0.07714843749999999 2720:0.205078125 3119:0.19270833333333331 3412:0.09251644736842106 4456:1.0 4510:0.21614583333333331 4842:0.6299479166666667 4902:0.1015625 5026:0.0859375 5434:0.042317708333333336 6067:0.0271577380952381 6447:0.11222330729166669 6542:0.353515625 7727:0.0859375 9377:0.15364583333333334 9933:0.2275390625 11647:0.9700520833333333 12089:0.0234375 12173:0.07682291666666667 12197:0.05121527777777777 12646:0.15234375 13982:0.27864583333333337 14001:0.34375 15837:0.27669270833333337 15869:0.140625 16665:0.126953125 17566:0.08668154761904762 17916:0.5279947916666666 18024:0.6855468749999999 18331:0.05916819852941176 18489:0.0465988005050505 18938:0.38444010416666663 20199:0.08203125 20715:0.23632812499999997 21154:0.17187499999999997 21161:0.5 21660:0.06315104166666666 21841:0.0491943359375 22953:0.13867187499999997 23248:1.0 23358:0.18554687499999997 24283:0.06184895833333334 25158:0.024934895833333335 25254:0.07877604166666666 25529:0.24934895833333334 28528:0.007664535984848485 28610:1.0 28786:0.014322916666666664 30415:0.6562500000000001 31060:0.010440779320987654 31586:0.012276785714285714 31657:0.025607638888888888 31992:0.33528645833333337 32020:0.10807291666666667 32608:0.017903645833333336 33152:0.03710937499999999 33304:0.06076388888888889 34336:0.14453125 34424:0.24934895833333331 34540:0.15364583333333334 34553:0.017795138888888888 35268:0.050564236111111105 36763:0.08854166666666666 36848:0.44531250000000006 37007:0.06119791666666667 37544:0.703125 38066:0.19791666666666666 
-0.0 0.0 0.011344023599873706 0.0 74:1.0 576:0.10240963855421686 985:0.9432013769363168 1097:0.26402753872633394 1181:0.13855421686746988 1228:0.19965576592082612 1505:0.1678141135972461 1770:0.2549483648881239 2073:0.20395869191049917 3362:0.15920826161790017 3412:0.4157985324757677 4349:0.014629948364888125 4675:0.08605851979345955 4701:0.33304647160068845 4842:0.06092943201376938 5078:0.08405048766494551 5434:0.3076592082616179 6067:0.0717973936562577 6447:0.02119191049913942 8050:0.8846815834767643 8187:0.07056798623063683 9907:1.0 9933:0.0501290877796902 11193:0.7900172117039586 11362:1.0 12010:1.0 12089:0.03098106712564544 12173:0.30464716006884685 12197:0.01692484222604704 12646:0.9173838209982788 12762:0.1606425702811245 13875:0.08089500860585198 16665:0.41953528399311524 16705:0.41394148020654037 17442:0.4423407917383821 17605:0.5077452667814113 18331:0.1824946846208363 18443:0.44750430292598964 18800:0.12392426850258176 19039:0.24956970740103268 19100:0.20395869191049915 19299:0.10843373493975904 19706:0.2581755593803786 20181:0.3321858864027538 20199:0.05421686746987952 21450:0.634251290877797 21632:0.3037865748709122 21841:0.021675989672977625 22171:0.1338209982788296 23178:0.4956970740103271 24746:0.10068846815834767 25060:0.6531841652323579 25114:0.2822719449225473 25571:0.3489672977624785 25657:0.20223752151462993 27993:0.1514629948364888 28610:0.5287435456110154 28786:0.0189328743545611 30477:0.5972461273666093 31024:0.018631669535283994 31586:0.01622817801819523 31657:0.03384968445209409 31830:0.697934595524957 32608:0.02366609294320138 33304:0.08032128514056225 33564:0.6944922547332185 34525:0.13356282271944922 35075:0.3898450946643718 36216:0.1135972461273666 36763:0.40963855421686746 36848:0.06540447504302926 37252:0.21686746987951808 37870:0.047332185886402756 
-0.028453257148350026 0.04069730618478055 0.03018172143320393 0.020138312446224167 717:0.5427509293680298 1191:0.07600165220983064 1535:0.21065675340768278 1591:0.23977695167286245 2195:0.9789343246592317 2197:0.281908302354399 2206:0.19516728624535315 2676:0.8197026022304832 2712:1.0 3524:0.7317224287484511 3914:1.0 4902:0.0644361833952912 5434:0.120817843866171 6562:0.024163568773234202 7094:0.3841387856257745 7527:0.5452292441140025 10811:0.23543990086741018 10941:1.0 11521:0.030978934324659233 12575:0.4745972738537794 12646:0.0322180916976456 12908:0.29244114002478316 13905:0.054522924411400255 14000:0.2218091697645601 14530:0.661090458488228 15623:0.15954151177199505 16643:0.5204460966542751 18331:0.15015671696187768 18336:0.046261875258157795 18561:0.2544403139198678 19120:0.21040892193308552 19140:0.0761049153242462 19384:0.1449814126394052 19575:0.640644361833953 19812:0.35315985130111527 20351:0.1251548946716233 20937:0.3482032218091698 21152:0.8141263940520446 21430:0.0681536555142503 21603:0.2788104089219331 21671:0.2127220156959934 22066:0.03097893432465923 22698:0.07765386204047915 24419:0.473358116480793 24783:0.0683085501858736 25657:0.29120198265179675 27146:0.17967781908302355 27206:0.13011152416356878 27252:0.07806691449814127 27911:0.654275092936803 29304:0.5464684014869888 30415:0.8327137546468402 30648:0.06245353159851301 31191:0.14993804213135067 31670:0.9281288723667906 33564:1.0 34417:0.13258983890954154 34525:0.09615861214374224 34972:0.10408921933085503 36317:0.03971499380421314 37229:0.17534076827757125 37301:0.20180562931492296 37566:0.43618339529120204 37960:1.0 38066:0.2825278810408922 
-0.12049918932233683 0.11779639667937455 0.14885159897760641 0.1042727392648883 2206:0.306420233463035 2987:1.0 3820:0.2358190839967158 5138:1.0 7245:0.23735408560311283 8050:1.0 10363:1.0 16305:0.36186770428015563 26409:0.21400778210116733 26829:0.3978599221789883 28528:0.04580827732578706 29224:0.4338521400778211 31330:1.0 34689:1.0 35051:1.0 
-0.13105457276606616 0.1136319864554231 0.1190642626519235 0.09322786569508272 3502:0.9272727272727271 6447:0.22386363636363638 8751:0.8386363636363636 19140:0.5583333333333335 24283:0.17272727272727273 33198:1.0 33669:1.0 37870:1.0 
-0.39473745778963193 0.40715161055968146 0.3758604821826878 0.3325773372199487 4842:0.12102564102564103 8012:0.36752136752136755 8187:0.42051282051282046 13201:0.5384615384615383 22750:0.2923076923076923 31024:0.22205128205128202 31112:0.8153846153846153 36649:0.7205128205128205 
-0.04212420708695111 0.0 0.024800530751446594 0.039019236169567074 3258:0.23936170212765956 4032:0.29255319148936176 4349:0.18085106382978725 6644:0.29255319148936165 7214:0.9893617021276594 12818:0.9893617021276595 15125:0.09999999999999999 16299:0.549645390070922 18331:0.3222778473091364 18522:0.9893617021276594 18561:0.19858156028368792 21430:0.2925531914893617 24068:0.5425531914893617 26409:0.29255319148936176 31024:0.1151595744680851 31586:0.10030395136778116 32608:0.5851063829787234 
-0.07237741127996909 0.08665710730782938 0.09120680704226315 0.0562538609060958 1228:0.8957528957528957 3136:1.0 3236:1.0 8207:1.0 10813:1.0 11720:0.8050193050193051 12646:0.1003861003861004 12818:0.7181467181467182 12908:0.45559845559845563 18765:0.11531531531531532 24551:0.09652509652509653 26240:0.5598455598455598 26277:1.0 28528:1.0 32208:0.12355212355212356 33451:1.0 37870:0.21235521235521237 
-0.06816552223982517 0.06519675719675934 0.05563720548197805 0.06391836317230948 2041:0.9909909909909911 4142:0.8648648648648649 7886:0.9909909909909911 13320:0.9909909909909911 13373:0.9909909909909911 15125:0.08468468468468468 17203:0.24774774774774777 17782:0.9909909909909911 21282:0.9909909909909911 24068:0.8423423423423423 24146:0.9909909909909911 26409:0.7432432432432434 27718:0.08683683683683684 30610:0.7387387387387387 32924:0.8018018018018018 36530:0.9909909909909911 
-0.018837334636317815 0.009137586247039507 0.020784118041214134 0.01365568828806869 392:0.36213592233009706 485:0.8834951456310679 559:1.0 1191:0.11909385113268608 2962:0.445631067961165 3686:1.0 3938:0.32233009708737864 4701:0.7514563106796116 5434:0.06310679611650485 6067:0.16199722607489597 6431:1.0 6441:0.12480749916303983 6447:0.09563106796116505 6870:0.2728155339805825 9933:0.3393203883495146 13689:0.5941747572815533 14242:1.0 14530:0.0941747572815534 14900:0.1825242718446602 15108:0.3262135922330097 15623:1.0 15844:1.0 15931:0.1941747572815534 15933:0.5922330097087378 16082:0.8135922330097086 18331:1.0 18552:0.24660194174757283 20763:1.0 21671:1.0 21841:0.04890776699029126 22171:0.3019417475728155 22435:0.3572815533980583 22830:1.0 24103:0.7786407766990291 25098:0.1273231622746186 25365:0.2912621359223301 25657:0.45631067961165045 27146:0.2815533980582524 27206:0.20388349514563106 27311:1.0 27993:0.341747572815534 28497:0.570873786407767 29149:0.8815533980582523 30415:0.1087378640776699 31992:1.0 32408:0.545631067961165 32909:1.0 33025:0.18187702265372166 33152:0.05533980582524271 33304:0.18122977346278316 33568:0.33841886269070737 33879:0.03398058252427185 33896:0.5922330097087378 34525:0.15067961165048543 36059:0.1423948220064725 37229:0.13737864077669903 37870:0.21359223300970873 
-0.3270323009348711 0.37571082519879334 0.3176340319986905 0.2549749945175309 3258:0.1859504132231405 3320:1.0 12646:0.10743801652892562 16800:0.7830578512396695 25934:1.0 
-0.057325198240672746 0.06551050145342348 0.03742207534937565 0.04957911752589821 1097:0.8939393939393941 2543:1.0 3258:0.34090909090909094 9933:0.44128787878787884 12197:0.14898989898989898 12646:0.3939393939393939 15241:1.0 36763:0.5151515151515151 
-0.05540937286315375 0.028229408762879844 0.008417702296080855 0.012243301515351043 205:1.0 1191:0.40350877192982454 3258:0.29605263157894735 4349:0.2236842105263158 9637:1.0 12089:0.23684210526315788 13201:0.6907894736842104 14407:0.638157894736842 15140:1.0 15220:1.0 20351:0.6644736842105262 35311:1.0 36848:1.0 38066:1.0 
-0.08090119606130669 0.08100939647520414 0.07853569858292961 0.05476190681418262 4032:1.0 4349:0.3090909090909091 6644:1.0 21430:1.0 24068:0.6181818181818182 26409:1.0 32608:1.0 
-0.029284489351867116 0.08340203487843673 0.028134047386302763 0.005896592943296139 748:1.0 3183:0.45131086142322097 4032:0.2059925093632959 4142:0.7191011235955057 4349:0.19101123595505617 6644:0.20599250936329588 7214:0.696629213483146 12818:0.6966292134831461 15125:0.07041198501872659 16299:0.38701622971285893 18331:0.2269222295659837 18522:0.696629213483146 18561:0.06991260923845193 21430:0.20599250936329586 24068:0.5730337078651685 26409:0.4119850187265918 31024:0.08108614232209736 31586:0.07062600321027288 32608:0.5149812734082397 33198:0.41198501872659177 38066:0.28464419475655434 
-0.018891756466501704 0.03899485404355821 0.025084530363140217 0.039115705470070615 106:1.0 748:0.5235294117647059 2041:0.43137254901960786 3183:0.23627450980392153 3258:0.08823529411764706 4032:0.21568627450980393 4142:0.3764705882352941 4349:0.13333333333333336 6644:0.21568627450980393 7214:0.3647058823529411 12818:0.36470588235294116 15125:0.07372549019607844 15220:0.8941176470588235 16299:0.20261437908496732 18331:0.11880046136101499 18522:0.3647058823529411 18561:0.07320261437908497 21430:0.2156862745098039 21727:1.0 24068:1.0 26409:0.43137254901960786 29737:0.13308823529411765 31024:0.042450980392156855 31586:0.03697478991596639 32608:0.3774509803921569 33198:0.21568627450980393 38066:0.14901960784313728 
-0.044074944279845964 0.04817460427969932 0.03168256604706212 0.03075718250843616 80:1.0 1263:1.0 3502:1.0 3938:0.8137254901960784 5968:1.0 6447:0.1207107843137255 11251:0.24598930481283418 12197:0.2892156862745097 16931:1.0 17546:0.48599439775910364 18331:0.14850057670126873 20199:0.30882352941176466 27718:0.1889978213507625 28518:1.0 33025:0.45915032679738554 33879:0.1715686274509804 35508:0.6887254901960784 36848:0.37254901960784315 
-0.02497613845750732 0.05983312336358427 0.021564792710234666 0.028819052497524006 5434:0.11206896551724138 6840:0.1586206896551724 8751:0.31810344827586207 9182:0.4896551724137931 9933:0.4017241379310345 12197:0.06781609195402298 13875:0.6482758620689656 15133:0.4034482758620689 15147:0.08017241379310344 15220:0.5241379310344828 18331:0.20892494929006084 18800:0.4965517241379311 19039:1.0 21154:0.2275862068965517 24283:0.19655172413793104 25858:0.5344827586206897 27718:0.0664750957854406 30331:1.0 32608:0.09482758620689655 33152:0.09827586206896552 33669:0.3793103448275862 35767:1.0 
-0.024412666230962454 0.04025556511294558 0.02324848799497229 0.022532378292802486 80:0.4214876033057852 448:0.3140495867768595 2769:1.0 3183:0.4979338842975207 3963:1.0 5434:0.13429752066115702 8751:0.7623966942148761 9182:0.5867768595041323 11967:0.9628099173553718 13875:0.38842975206611574 18561:0.07713498622589532 18833:0.40082644628099173 21154:0.2727272727272727 25018:1.0 25114:0.6776859504132231 25254:1.0 27506:0.4037780401416765 27690:1.0 29461:1.0 33615:1.0 
-0.019415526078629435 0.014199254362810993 0.019790838556705007 0.01991706346457622 1191:0.4646464646464647 5434:0.9848484848484849 6447:0.18655303030303033 9933:0.8825757575757577 13009:1.0 18331:0.4590017825311943 21154:1.0 31586:1.0 32608:0.20833333333333337 34525:0.5878787878787879 34553:0.20707070707070707 36216:1.0 
-0.02548563625377742 0.009732440607851245 0.002007272938726276 0.008131846409752421 6840:0.2190476190476191 8187:0.780952380952381 21841:0.2398809523809524 27122:0.27272727272727276 27807:1.0 28528:0.22424242424242427 33879:1.0 34164:0.780952380952381 36763:0.6476190476190476 
-0.03141275178952228 0.03678444489825554 0.03544709611689653 0.02189587301253621 2460:1.0 3258:0.11421319796954314 3938:0.42131979695431465 3958:0.6852791878172588 4270:1.0 4842:0.11979695431472082 7235:1.0 8187:0.2081218274111675 8269:0.4974619289340101 11333:1.0 16897:0.5913705583756345 17344:0.9352791878172589 18331:0.07688862346969244 19100:0.6015228426395938 19155:1.0 19401:0.6939811457577953 21660:0.2461928934010152 21841:0.19178299492385786 22645:0.33502538071065985 24283:0.048223350253807105 26787:1.0 28528:0.05976003691739732 28638:0.30879864636209814 29823:1.0 30415:0.14213197969543148 32080:0.3358063256540414 32795:1.0 33304:0.23688663282571912 34991:0.45685279187817257 
-0.1324935229402615 0.1065920814965579 0.08533230728839326 0.10179737540063322 447:0.5510204081632654 448:0.3619047619047619 800:1.0 3258:0.2142857142857143 4349:0.08095238095238097 5280:0.8 5434:0.15476190476190477 11730:1.0 11796:0.08351648351648353 18331:0.1442577030812325 22848:0.2777777777777778 23337:1.0 29461:0.23047619047619047 31586:0.08979591836734696 35197:0.4380952380952382 36589:0.8253968253968254 36848:0.36190476190476195 36970:0.6976190476190476 
-0.05790668769980502 0.06634317379059068 0.05183644964173085 0.044297960834014695 391:1.0 1324:0.30769230769230765 1770:0.14702233250620347 2857:0.32258064516129026 3412:0.28209481520177615 4876:0.11549740581998647 5026:0.3275434243176179 5434:0.24193548387096775 9377:0.29280397022332505 10181:0.5533498759305211 11758:0.7146401985111663 12646:0.25806451612903225 15894:0.4590570719602977 16740:0.367054781446841 21358:0.19851116625310172 21841:1.0 25158:0.2851116625310174 25515:0.3242349048800661 27180:0.05352711804324707 28087:1.0 28528:0.02921272276110986 30415:0.27791563275434245 32020:0.8238213399503722 33298:1.0 34540:0.29280397022332505 34747:0.08053237085495149 35268:0.19272125723738626 37000:1.0 37007:0.15550041356492972 37222:0.2531017369727047 
-0.8 0.8 0.8 0.7129258402741626 12197:1.0 
-0.03923803497603346 0.04364144153694915 0.07020116171307025 0.03723270539062903 3282:0.5736160188457007 3559:1.0 5198:0.408716136631331 5434:0.03828032979976443 8976:0.3992932862190813 9019:0.06825957709349935 9215:0.9093050647820965 9939:0.44994110718492336 12213:0.3197879858657244 12762:0.17589320769532785 12908:0.13898704358068317 13875:0.9964664310954066 13981:0.06713780918727916 14530:0.028563015312131915 14922:0.03510011778563015 18561:0.04397330192383196 19120:1.0 19412:0.6136631330977621 20857:0.09393404004711425 21083:0.07420494699646643 22363:0.16725559481743227 22400:0.13250883392226148 24283:0.06713780918727916 24364:0.7656065959952886 25019:1.0 25227:1.0 25339:0.7750294464075382 25724:0.28857479387514723 26548:0.4593639575971731 27146:0.1707891637220259 27318:0.8657243816254417 27718:0.34059678052610914 29461:0.05700824499411072 30331:0.5123674911660777 30415:0.06595995288574794 30648:0.039575971731448764 32103:0.10836277974087162 32608:0.032391048292108364 32909:0.6065959952885748 33216:0.22143698468786807 33896:0.35924617196702 34916:0.14840989399293286 35005:0.8162544169611308 35449:0.08480565371024734 35851:0.30859835100117783 36317:0.9060070671378092 36484:0.357773851590106 37229:1.0 37579:0.6454652532391049 37687:0.14840989399293286 38066:0.0895170789163722 
-0.03830831124496865 0.05692261915093988 0.057452665890821715 0.025813703592685398 1097:0.2525993883792049 2044:0.3623853211009175 2688:0.724770642201835 6644:0.08409785932721713 8187:0.25076452599388377 10507:0.6345565749235473 11145:0.11416921508664628 12457:0.2018348623853211 12646:0.3180428134556575 12762:0.057084607543323146 15621:0.5076452599388379 16665:0.5963302752293578 17415:1.0 18489:0.05472152719859141 18561:0.057084607543323146 18714:0.3440366972477064 18938:0.9029051987767583 19384:0.17889908256880732 19812:0.43577981651376146 21152:0.33486238532110096 21841:0.4621559633027523 23057:0.25 24192:0.6850152905198776 24283:0.0871559633027523 29783:0.13761467889908255 30648:0.025688073394495414 31024:0.033103975535168195 31992:0.7874617737003059 32608:0.04204892966360857 33658:0.7691131498470949 37252:0.3853211009174312 37583:1.0 
-0.0832997717625208 0.0861430633326008 0.07861402053451091 0.06681795406149908 2543:0.3062645011600928 3119:0.6867749419953596 3199:1.0 4842:0.6570765661252901 5815:0.13312064965197212 10687:0.14810518174787315 10793:1.0 11567:0.6218097447795824 14530:0.05626450116009281 15125:0.043619489559164726 18331:0.0702879759792548 18809:0.46635730858468677 19039:0.6728538283062645 21834:1.0 21841:0.05843967517401392 22199:0.35034802784222735 25158:0.0888631090487239 27745:1.0 29461:0.1122969837587007 35197:0.4269141531322506 36589:0.4021655065738592 36763:0.15777262180974477 
-0.04214073475917306 0.059538888549721274 0.04559635334216423 0.04706576253488196 1191:0.31778929188255617 4349:0.44041450777202074 6447:0.6379533678756477 9933:0.3018134715025907 12089:0.18652849740932645 13201:0.5440414507772019 13227:0.29533678756476683 17208:1.0 22421:1.0 24283:0.49222797927461137 27155:1.0 27718:0.5993091537132987 32608:0.1424870466321244 34877:1.0 36848:0.39378238341968913 
-0.020838632682677476 0.017466314929255083 0.019632160518104874 0.01339408581517905 1097:0.13371104815864027 2857:0.7365439093484418 3258:0.1274787535410765 3333:1.0 3938:0.4702549575070822 5434:0.09206798866855524 11251:0.047386041720319336 12646:0.14730878186968838 12839:0.28682719546742214 15125:0.10651558073654391 16665:0.2762039660056657 18331:0.08581903016163973 18731:1.0 19384:0.6628895184135978 20653:1.0 21632:1.0 21841:0.9275849858356939 25134:1.0 31060:0.04543069982163466 33568:0.12343180898421692 34626:0.6317280453257792 36216:0.37393767705382436 36763:0.5779036827195467 
-0.05214199979958421 0.08104800331793388 0.05877126505381055 0.04160295162794345 2149:1.0 2664:0.8972972972972972 2857:0.7027027027027026 3100:0.6081081081081081 3362:1.0 5560:1.0 5561:1.0 5563:1.0 5564:1.0 6447:0.3993243243243244 6644:0.2972972972972973 8012:0.38738738738738737 15894:1.0 19131:1.0 24283:0.10270270270270271 27607:1.0 29461:0.2616216216216216 
-0.04884863373160481 0.1491223495774233 0.04612882365465498 0.03632300095038478 86:1.0 1998:1.0 2091:0.5460921843687374 2194:0.32130928523714086 2204:1.0 2447:0.24048096192384769 3419:0.7775551102204408 3561:1.0 8138:0.7154308617234468 10793:0.43186372745490975 11796:0.035147217511946965 12061:0.6012024048096191 13981:0.11422845691382764 15147:0.04659318637274549 17275:1.0 17566:0.0667048382479244 18561:0.03740814963259853 18846:1.0 19860:0.23747494989979961 21841:0.05047595190380761 22471:0.04437446321213856 24031:0.3006012024048096 26284:0.5460921843687373 27292:1.0 27607:0.3707414829659318 27630:1.0 28249:0.1549766199064796 28457:1.0 29902:0.6012024048096192 30415:0.11222444889779559 31024:0.04338677354709418 32737:1.0 33568:0.08731749212711136 34409:1.0 34525:0.15551102204408815 35055:1.0 35551:0.9659318637274549 37222:0.20440881763527052 38080:0.3406813627254509 
-0.05699733737777739 0.05797107797097162 0.04467816694685639 0.04202889064503417 1097:0.3255172413793104 4349:0.11724137931034483 5434:0.22413793103448276 6441:0.443281807372176 12197:0.2712643678160919 12762:0.25747126436781614 14530:0.16724137931034483 16665:0.3362068965517241 18561:0.2574712643678161 21841:0.1737068965517241 26240:1.0 26333:0.612151067323481 27146:1.0 30070:1.0 31024:0.2986206896551724 33304:0.6436781609195402 37268:0.6427586206896551 
-0.06540233764405962 0.05658900178091395 0.07837593235304764 0.04541941618460362 1097:0.11939291736930861 3550:1.0 4270:0.6644182124789207 5408:0.14671163575042157 5434:0.05480607082630691 8187:0.13827993254637436 9039:0.5295109612141652 10507:0.4198988195615514 12646:0.3069139966273187 15125:0.031703204047217534 15196:1.0 15230:0.897133220910624 16665:0.5754637436762225 18800:0.4856661045531197 19118:1.0 21841:0.4247470489038785 24219:0.5143338954468802 24283:0.06408094435075885 25045:1.0 25134:0.5952782462057334 26380:1.0 29783:0.07588532883642496 31060:0.027043907313721815 31114:1.0 34111:0.6677908937605396 37745:0.13322091062394603 
-0.004542095616117222 0.014063358503226897 0.0012579543897533255 0.006850152245022385 3258:0.45 4675:1.0 6447:0.49250000000000005 8187:0.82 15931:1.0 17566:0.6657142857142857 33152:0.57 33304:0.9333333333333333 37007:0.31333333333333335 
-0.08973544775420794 0.12985887594266662 0.06445458860583843 0.0674593779531293 3100:1.0 4032:0.7333333333333334 4349:0.07555555555555556 11145:0.4977777777777778 14429:1.0 21398:1.0 21603:1.0 31499:0.8355555555555556 33025:0.4162962962962963 33198:0.4888888888888889 34747:0.4327272727272727 37243:1.0 
-0.02550039199279758 0.02520637327894262 0.024837484165207726 0.023468678812740985 525:0.13625866050808313 4711:0.19399538106235567 5434:0.07505773672055427 5786:0.1501154734411085 6889:0.8060046189376443 7179:0.5896843725943034 8138:0.8244803695150116 10687:0.884526558891455 11730:0.4849884526558891 12575:0.8845265588914548 13852:0.1489607390300231 14140:0.5496535796766744 15931:0.23094688221709003 18561:0.12933025404157045 20707:0.5819861431870671 20758:0.8845265588914549 21841:0.1163394919168591 22045:0.8845265588914548 22141:1.0 22311:0.392994611239415 23809:0.8845265588914549 24283:0.21939953810623558 25158:0.707621247113164 25529:0.884526558891455 25553:0.44226327944572746 30648:0.07759815242494227 31024:1.0 31060:1.0 32608:0.06351039260969978 33131:0.581986143187067 33515:0.8475750577367206 34747:0.6745748477850093 37007:0.07236335642802155 38080:0.7852193995381063 
-0.043437539244883645 0.02056756873118006 0.01649234047088728 0.007119559317981779 111:0.5977961432506887 216:1.0 1097:0.26005509641873287 4842:0.0650137741046832 5312:1.0 5434:0.26859504132231404 6494:1.0 6555:1.0 12197:0.32506887052341593 14574:0.10718757826195843 15931:0.8264462809917357 16740:0.4075015893197712 18064:0.3746556473829201 18561:0.05142332415059688 20199:0.34710743801652894 20715:1.0 20992:0.10330578512396693 24283:0.05234159779614325 24746:0.32231404958677684 25158:0.6330578512396695 25657:0.6473829201101928 32605:0.1650137741046832 34006:0.6418732782369146 36763:0.5619834710743802 37301:0.11216056670602124 38066:0.209366391184573 
-0.10027311126248413 0.09606587863856252 0.07373586374924365 0.06767532691144394 901:0.2 1306:1.0 2062:0.9404255319148935 2509:0.7468085106382978 3695:1.0 12762:0.1588652482269504 21660:0.4127659574468085 25657:1.0 27506:0.4158054711246201 28329:1.0 28528:0.05009671179883946 29933:1.0 35764:1.0 36763:0.2893617021276596 
-0.03630539598759777 0.03787807903267976 0.044281235372266414 0.031061913849175976 644:1.0 2261:1.0 2647:1.0 4349:0.03655913978494624 4842:0.050752688172043016 5434:0.06989247311827958 6285:1.0 7527:0.9462365591397851 12908:0.2537634408602151 12930:0.5698924731182796 14528:0.9440860215053765 15133:0.25161290322580643 15147:1.0 16622:1.0 18331:0.32574320050600886 18800:0.6193548387096773 19922:0.4881720430107526 22173:0.5182795698924731 22471:1.0 24283:0.16344086021505375 25858:1.0 26333:0.19088581669226828 29933:0.5053763440860215 30621:1.0 33198:0.23655913978494625 34904:0.0881720430107527 35055:0.35770609318996416 36589:0.3727598566308244 
-0.0 0.011155626747257863 0.0 0.0 447:0.4117946110828673 2093:0.3914590747330961 5434:0.11565836298932383 6067:0.14844941535332995 6870:1.0 6871:1.0 9933:0.20729537366548043 11251:0.11905532190229698 11601:1.0 12906:0.7793594306049821 13875:0.6690391459074733 15220:0.2704626334519573 16652:0.9786476868327401 16706:0.5836298932384341 17396:0.35765124555160144 18331:0.10780824785430186 19407:1.0 20937:1.0 21154:0.23487544483985762 21541:0.5231316725978647 27311:0.9163701067615658 27718:0.20581257413997628 30070:0.5160142348754448 30415:0.199288256227758 30648:0.05978647686832741 31586:0.06710726995424504 32408:1.0 32964:1.0 33025:1.0 34904:0.14590747330960852 35508:1.0 36649:1.0 37301:0.14489069649211997 
-0.20447145689618104 0.23114923059589618 0.16748711017087975 0.15561099451104068 3258:0.7894736842105262 20578:1.0 24283:1.0 
-0.1788141561585197 0.200383504771963 0.1590707156335946 0.14091859885312114 6552:1.0 11192:1.0 14574:0.47450110864745015 16706:1.0 25114:1.0 34553:1.0 
-0.10434755578575483 0.10422868238285235 0.11625185509077952 0.09203559363916687 8126:0.7010309278350515 14407:1.0 14530:1.0 15140:0.7835051546391754 18833:1.0 21660:1.0 21841:0.5193298969072164 24783:0.5682989690721649 27718:0.19873997709049254 28996:1.0 
-0.045208336240528404 0.04563830997905012 0.04297740449027647 0.038644271204402655 598:1.0 893:1.0 1191:0.057374493295915194 1794:0.17174929840972872 2019:0.48362956033676335 2088:0.8587464920486435 2197:0.4256314312441535 2487:1.0 4349:0.28624883068288126 5746:1.0 9083:0.2862488306828812 9418:0.4368568755846585 9835:0.14873713751169318 11153:0.09822263797942 11251:0.01564758908070414 11730:0.5893358278765201 12105:0.5472404115996258 13201:0.09822263797942 13688:1.0 14316:0.5472404115996258 14407:0.09073900841908326 14429:0.21047708138447146 15133:0.2188961646398503 15140:0.21328344246959777 15220:0.07109448082319926 15528:0.4471468662301216 16643:0.3928905519176801 17415:0.6117867165575304 19283:0.2853133769878391 22400:0.10523854069223573 23136:0.205799812909261 23850:0.5706267539756782 24177:0.3246024321796071 24364:0.304022450888681 24493:0.2164016214530714 24585:1.0 25365:0.1403180542563143 25658:0.31805425631431244 25724:0.22918615528531336 25732:0.676333021515435 26860:0.9260991580916744 27690:0.22637979420018708 27884:0.4377923292797006 29149:0.21234798877455563 30090:0.2862488306828812 30790:1.0 31586:0.1587598556728585 32964:0.043810414717804794 33632:0.20366163303487905 34747:0.060719448932732366 35197:0.08606173994387278 35311:0.42656688493919553 38080:0.9541627689429374 
-0.0 0.004995854928124281 0.011536648375978235 0.010035114574481287 525:0.056030389363722705 914:0.5033238366571701 1758:1.0 1846:0.29914529914529914 2769:0.22981956315289648 3119:0.28110161443494774 4142:0.5470085470085471 4349:0.06457739791073125 4510:0.105096549540994 4708:0.157644824311491 4842:0.1120607787274454 6285:0.4415954415954416 6447:0.7717236467236469 9182:0.5394112060778727 9933:0.22127255460588796 10525:0.15574548907882244 11184:0.5555555555555556 12908:0.2241215574548908 13201:0.0997150997150997 13227:0.10826210826210828 13672:1.0 13852:0.06125356125356126 13875:0.17853751187084524 14407:0.09211775878442545 15253:0.4672364672364672 16082:0.3979107312440646 17208:0.03665716999050333 18024:1.0 18489:0.1359463581685804 18561:0.01772712883823995 19107:0.315289648622982 19131:0.17568850902184233 19401:0.25966625966625967 20779:1.0 21154:0.12535612535612534 22173:0.6866096866096866 22698:0.23805001582779362 22765:0.12891737891737892 22953:0.20227920227920226 23762:0.98005698005698 24283:0.09021842355175688 24696:0.7274453941120608 25657:0.22317188983855651 27387:0.4102564102564103 27872:0.36752136752136755 29433:0.7065527065527065 30415:0.053181386514719854 31024:0.04112060778727445 32608:0.20892687559354228 33152:0.0811965811965812 33198:0.20892687559354226 33669:0.10446343779677114 33879:0.03323836657169991 33894:0.6229819563152897 34702:0.4862298195631529 36589:0.6584362139917695 36763:0.06457739791073125 37015:0.6856600189933524 37229:0.06718898385565053 38080:0.48433048433048437 
-0.06370168504252445 0.05999674428565099 0.043371343265083885 0.05201661321685898 3258:0.34090909090909094 4842:0.35757575757575766 7727:1.0 8187:0.6212121212121212 11372:1.0 14530:0.18371212121212122 14898:1.0 22645:1.0 30415:0.42424242424242425 32080:0.5011655011655012 
-0.04045687137874843 0.03674387965249041 0.04828459906851718 0.023305181391907098 146:1.0 666:0.3691275167785235 1097:0.03167785234899329 1192:0.3651006711409396 1578:0.9100671140939596 2746:0.9302013422818791 4349:0.045637583892617455 4842:0.06335570469798658 6447:0.3635906040268457 7527:0.2953020134228188 9933:0.07818791946308726 11251:0.022452715070164733 11647:1.0 11676:0.35838926174496644 12197:0.21118568232662188 12762:0.05011185682326622 13227:0.07651006711409396 13672:0.4711409395973154 16706:0.11006711409395971 17438:0.06241610738255032 18064:0.3651006711409396 18331:0.04066324516383734 18561:0.025055928411633108 20779:0.47114093959731534 21154:0.6201342281879194 21398:0.30201342281879195 21632:0.4738255033557046 21841:0.03380872483221476 22280:0.035794183445190156 24283:0.12751677852348992 25115:0.5194630872483221 27718:0.051752423564504095 28339:0.5127516778523491 29304:0.5919463087248321 29737:0.1822147651006711 30415:0.3758389261744967 31499:0.2523489932885906 31586:0.025311601150527323 33152:0.07651006711409396 33879:0.1644295302013423 35287:0.11946308724832215 36317:0.04302013422818792 38066:0.2040268456375839 
-0.15347929715186168 0.15836904576765387 0.2376021947068426 0.13298690084336712 3258:1.0 11145:0.8296296296296297 29783:1.0 
-0.05155812844191065 0.055697480928425115 0.044469767802335344 0.045661843776089076 1097:0.8218905472636817 1191:0.6102819237147596 3258:0.22388059701492538 4349:0.1691542288557214 5434:0.3233830845771144 16387:0.43283582089552236 17396:1.0 18331:0.15071700321919812 18809:1.0 25158:0.38109452736318405 31024:0.2154228855721393 31513:1.0 31586:0.2814498933901919 33025:0.46600331674958534 33152:0.2835820895522388 
-0.0 0.0017762703168562777 0.011159991627256458 0.012699302632238018 2509:1.0 3258:0.3846153846153847 4349:0.1452991452991453 13201:0.8974358974358974 15133:1.0 15220:0.6495726495726496 19384:1.0 24746:1.0 28528:0.10062160062160064 36285:1.0 36763:0.5811965811965811 37001:1.0 
-0.07301389205053713 0.08480116833210266 0.1215899278763555 0.053903298925931 436:0.5568181818181818 509:1.0 3412:0.026913875598086123 3557:0.3456439393939394 5434:0.15388257575757575 6351:0.05208333333333334 7235:0.03391873278236914 8012:0.06786616161616162 8050:0.7301136363636364 8072:0.42424242424242425 8187:0.07765151515151515 8535:0.709280303030303 9933:0.055160984848484855 10363:0.24337121212121213 11537:0.14962121212121213 12646:0.04924242424242424 13406:0.12426346801346799 14274:0.5956439393939393 14712:0.041193181818181816 15724:0.7073863636363636 16808:0.34185606060606055 16824:0.07007575757575757 18331:0.11475044563279857 19155:0.3731060606060606 20510:0.6704545454545455 21057:0.16792929292929296 21841:0.07155539772727272 21965:0.5056818181818181 22113:0.029233870967741934 23243:0.35984848484848486 23757:0.24715909090909088 24351:0.5539772727272727 26287:0.44696969696969696 26333:0.25216450216450215 28820:1.0 29092:1.0 29779:0.2907196969696969 32658:0.29640151515151514 33426:0.3409090909090909 34673:0.27698863636363635 34831:0.5606060606060606 35051:0.08112373737373738 35925:0.06510416666666667 37229:0.06699810606060606 37243:0.2130681818181818 37621:0.23863636363636367 38074:1.0 
-0.014235291843676485 0.018013811836214498 0.007000316482444303 0.018932642099810305 500:1.0 1610:1.0 3268:0.2005163511187608 3938:1.0 4510:1.0 4708:1.0 4842:0.1421686746987952 6447:0.5933734939759037 10507:1.0 11688:0.9578313253012049 13981:0.6867469879518072 18561:0.11244979919678716 20176:1.0 21841:0.30346385542168675 22750:0.34337349397590367 24481:1.0 28528:0.07092004381161009 32020:1.0 35268:0.9357429718875503 36059:0.4417670682730925 36763:0.40963855421686746 
-0.1807347544236499 0.18694295120376203 0.1615001709442837 0.15720457372037097 2525:1.0 4711:1.0 5434:0.38690476190476186 30197:1.0 30648:1.0 37007:0.7460317460317459 
-0.047929734717574835 0.04929798572504538 0.07453891564469828 0.042810839749998636 171:0.16752577319587628 390:1.0 801:0.28350515463917525 1097:0.7907216494845362 1691:0.10567010309278349 2093:0.2835051546391753 2310:0.9252577319587628 2745:0.5798969072164949 3151:1.0 5434:0.08376288659793814 6441:0.16565943832207608 6447:0.06346649484536084 9438:0.5747422680412371 11203:0.4097938144329897 12646:0.06701030927835051 12762:0.09621993127147767 15445:1.0 15623:0.3318298969072165 15933:0.39304123711340205 16361:0.9252577319587629 16665:0.6282216494845361 17220:0.24033505154639173 17980:1.0 21154:0.34020618556701027 21717:0.29896907216494845 21841:0.1947487113402062 22203:0.09664948453608246 22432:0.4742268041237114 30648:0.0865979381443299 31709:0.07989690721649485 33304:0.24054982817869416 33568:0.11229749631811488 34525:1.0 35326:0.2757731958762887 35764:0.6056701030927835 37418:0.7989690721649485 
-0.04226797160278059 0.04495057121178622 0.040279766971421896 0.03762102239777735 86:0.04324839660253077 1097:0.1840873634945398 1120:0.26625065002600107 1155:0.3463338533541342 1191:0.06378921823539609 1257:1.0 1544:0.0859767724042295 2536:0.2059282371294852 3412:0.3990475408490024 6086:0.24336973478939158 7335:0.764430577223089 7472:0.21268850754030164 8012:0.07453631478592478 8432:0.09360374414976601 8751:0.047971918876755074 9182:0.14768590743629748 11145:0.019414109897729244 11333:0.20488819552782117 13875:0.733229329173167 14242:0.5356214248569944 15220:0.03952158086323453 16345:0.09568382735309414 16740:1.0 18489:0.2791566208102869 18561:0.2620904836193448 19120:0.6180967238689546 19140:0.03193794418443405 19401:0.14218854468464454 20684:0.12116484659386377 21623:0.033021320852834116 21660:0.05044201768070723 21841:0.013098023920956839 22765:0.03529641185647426 24203:0.05954238169526782 24796:0.07748309932397297 25169:0.06266250650026002 25254:0.18876755070202808 26266:1.0 27045:0.08736349453978161 30331:0.6032241289651586 30415:0.058242329693187746 30832:0.03078523140925637 31499:0.09776391055642228 32605:0.031149245969838795 32608:0.07150286011440458 33152:0.13338533541341654 33198:0.05720228809152367 33298:0.20956838273530945 33568:0.1132902458955501 33615:0.06292251690067603 33896:0.951638065522621 34525:0.040353614144565786 36317:1.0 36763:0.03536141445657826 37229:0.14716588663546543 38066:0.07904316172646908 
-0.10215261303994516 0.0610297676495153 0.05979487402032746 0.06104923332928476 2047:0.9416243654822334 5434:0.3299492385786802 6067:0.21174764321972445 6447:1.0 17631:0.7614213197969542 18561:0.09475465313028765 25254:0.614213197969543 30415:0.5685279187817259 32608:0.13959390862944163 36763:0.34517766497461927 37870:0.27918781725888325 38080:0.4314720812182741 
-0.03574413451331488 6.882741363000659E-4 0.004170945486088094 0.0041546032910155135 1094:0.6111111111111109 1727:0.9166666666666666 9933:0.8090277777777777 12089:1.0 12197:0.13657407407407407 13201:0.7291666666666665 18800:1.0 24283:0.13194444444444445 24414:1.0 27718:0.13387345679012344 30415:0.7777777777777779 33025:0.6504629629629629 33152:0.19791666666666669 33879:0.12152777777777778 
-0.02393680291885896 0.017275992846754788 6.116918044562596E-4 2.456445447341782E-4 3100:0.598404255319149 6067:0.6656534954407295 6447:0.13098404255319152 6644:0.29255319148936165 8187:0.4361702127659574 8751:0.9813829787234043 9933:0.3098404255319149 13875:1.0 14530:0.12898936170212766 17396:0.5345744680851064 18800:0.7659574468085107 21669:0.5106382978723405 22698:1.0 24746:0.6223404255319148 25254:0.6436170212765957 27506:0.17325227963525838 33216:1.0 
-0.09663606189600475 0.12088427001429897 0.08131141495212699 0.08161853464354321 1191:0.22549019607843135 1192:1.0 4675:0.3676470588235294 6644:0.20220588235294118 8012:0.26348039215686275 9182:0.5220588235294117 12908:0.4338235294117647 12916:1.0 13136:0.23897058823529407 21685:1.0 25254:0.44485294117647056 26333:0.3263305322128851 27506:0.23949579831932774 30331:0.5330882352941176 30415:0.2058823529411765 32964:0.17218137254901958 35656:1.0 37870:0.40441176470588236 
-0.037652141212232794 0.07594216955875961 0.045703742353379005 0.04689255239025026 914:0.48802946593001845 1191:0.11295273173726214 2841:1.0 2846:0.5156537753222836 3502:0.18784530386740333 4142:0.707182320441989 4349:0.09392265193370165 8012:0.1319828115408226 8187:0.15101289134438303 9233:0.24033149171270715 9637:0.27992633517495397 9933:0.1072744014732965 12213:1.0 13419:0.2651933701657459 15220:0.139963167587477 15623:0.23710865561694291 18331:0.11158054381973784 19140:0.11310620012277472 22363:0.26151012891344383 22421:0.35543278084714547 22765:1.0 27194:0.2136279926335175 27385:1.0 27478:0.7734806629834254 27807:0.19337016574585633 29737:1.0 30415:0.10313075506445674 31722:0.9281767955801106 33152:0.05248618784530387 33216:0.3462246777163905 33879:0.3222836095764273 35011:1.0 36268:1.0 38066:0.4198895027624309 
-0.021416601227864946 0.01682937580694674 0.0 0.0 1097:0.9530769230769232 2429:0.4211538461538462 2857:1.0 4902:0.3 6107:0.10673076923076924 6179:0.12211538461538461 7165:0.15824175824175826 7359:0.1692307692307692 9377:0.22692307692307698 11145:0.6461538461538462 12646:0.25 13406:0.25235042735042734 16665:0.5625 17396:0.3865384615384616 18331:0.0582579185520362 18443:1.0 18809:0.3865384615384616 21841:0.096875 25158:0.14730769230769233 27146:0.27884615384615385 29461:0.18615384615384617 30648:0.16153846153846155 31513:0.19326923076923078 32964:0.09006410256410256 33152:0.054807692307692314 34111:0.7615384615384615 34496:1.0 36317:0.06163461538461539 36589:1.0 36645:0.5198717948717948 
-0.008525263131677691 0.0060535345866533285 0.0 0.0 714:0.34959349593495936 1191:0.3324299909665763 2509:0.15853658536585366 2846:0.7588075880758807 6447:0.1334688346883469 7179:0.1729900632339657 8751:1.0 9933:0.1578590785907859 10310:0.034722222222222224 12908:0.6395663956639567 19120:0.6902439024390243 20779:0.9512195121951219 21154:0.3577235772357723 21541:0.3983739837398374 21669:0.13008130081300814 21685:0.7371273712737128 22765:0.18394308943089432 22771:0.16124661246612465 24283:0.051490514905149054 24746:0.3170731707317073 25018:0.6558265582655827 25254:0.3279132791327913 25365:0.4065040650406504 25505:1.0 26787:0.21355013550135502 30070:0.3929539295392954 30415:0.15176151761517617 30621:0.6300813008130081 31586:0.10220673635307782 33359:1.0 33879:0.18970189701897022 33896:0.8265582655826558 36317:0.2605691056910569 37007:0.2547425474254743 37229:0.19173441734417346 38062:1.0 38066:0.20596205962059622 
-0.0 0.015044933701742669 0.01773065609071487 0.01740142477003089 376:0.7880258899676376 2088:0.9902912621359223 3258:0.14563106796116504 4032:0.5339805825242719 4349:0.9902912621359224 6664:0.08899676375404532 6747:0.9902912621359223 7568:0.9902912621359223 9083:0.9902912621359223 13201:0.6796116504854368 13227:0.18446601941747573 13689:0.9902912621359223 14254:0.255663430420712 14407:0.313915857605178 15133:0.7572815533980581 15538:0.4886731391585761 18331:0.09803921568627451 18561:0.12081984897518878 19362:0.9902912621359223 20599:0.05825242718446602 22053:0.9902912621359223 22507:0.15857605177993528 22953:0.6893203883495146 23136:0.7119741100323624 23990:0.9902912621359223 24507:0.9902912621359223 25377:0.9902912621359223 28591:0.9902912621359223 30090:0.9902912621359223 31586:0.12205270457697644 32768:0.9902912621359223 33301:0.6634304207119741 33568:0.1410078594544614 33694:0.9902912621359223 33944:0.9902912621359223 35925:0.22249190938511326 36068:0.9902912621359223 36390:0.9902912621359223 37584:0.9902912621359223 38080:0.2750809061488673 
-0.09710700172032144 0.1190788697270737 0.08749178441748238 0.08772418544786856 2572:1.0 6447:0.15487421383647804 11251:0.10520297312750143 11688:1.0 13981:0.3584905660377359 17546:0.6235399820305482 21154:0.41509433962264153 21252:1.0 30415:0.7044025157232705 30846:1.0 31060:0.2017237363149313 32608:0.1729559748427673 35142:1.0 
-0.10274936993049016 0.10210570437442912 0.09684869997113794 0.11505523043901837 1656:0.6919831223628692 1770:1.0 2044:1.0 2073:1.0 2688:1.0 17396:0.42405063291139244 17438:0.19620253164556958 19100:1.0 21841:0.10627637130801686 27497:0.9873417721518984 27784:0.7552742616033754 36601:0.12611345522737927 37745:1.0 
-0.012624216401319591 0.0 0.0 0.0 376:0.795751633986928 2088:1.0 4032:0.5392156862745099 4349:1.0 6664:0.08986928104575165 6747:1.0 7568:1.0 9083:1.0 13201:0.6862745098039215 13227:0.18627450980392157 13689:1.0 14254:0.2581699346405229 14407:0.31699346405228757 15133:0.7647058823529411 18331:0.0990003844675125 18561:0.12200435729847496 19362:1.0 20599:0.05882352941176471 22053:1.0 22507:0.16013071895424838 22953:0.696078431372549 23136:0.7189542483660131 23990:1.0 24507:1.0 25377:1.0 25657:0.7679738562091503 27206:0.3431372549019608 28591:1.0 30090:1.0 31586:0.12324929971988798 32768:1.0 33301:0.6699346405228758 33568:0.142390289449113 33694:1.0 33944:1.0 36068:1.0 36390:1.0 37584:1.0 38080:0.2777777777777778 
-0.005312673424428654 0.0 0.0 0.0 1097:0.9076923076923078 3258:0.8653846153846155 4902:1.0 6067:0.8021978021978023 12646:1.0 27974:1.0 37007:0.6025641025641026 
-0.027141833067358175 0.05710561717663329 0.030451087483404745 0.0405952710605972 447:0.3144409937888199 1191:1.0 3258:0.24456521739130432 11251:1.0 12197:0.10688405797101447 14922:0.16195652173913042 16096:0.5615942028985507 18800:0.7826086956521738 19140:0.333786231884058 22435:1.0 22580:1.0 31740:1.0 32103:1.0 33152:0.15489130434782608 35142:0.8641304347826086 35197:1.0 
-0.009469575615630617 0.024238988947937905 0.004330511609672395 0.03314524397912488 1034:0.1519674355495251 2093:0.1492537313432836 2509:0.07937584803256444 2881:1.0 3412:0.0385631650360637 4708:0.6757123473541383 4842:0.16010854816824968 6086:0.6350067842605155 6447:0.20047489823609227 9933:0.5532564450474898 10478:0.5183175033921302 11537:0.10719131614654002 12197:0.053369516056083206 12457:0.1791044776119403 13875:0.12754409769335143 13982:0.2903663500678426 14830:0.8493894165535956 15623:0.17469470827679784 17344:1.0 18064:0.18453188602442333 18331:0.12331391172479846 18800:0.39077340569877883 19120:0.1151967435549525 19140:1.0 19299:0.3419267299864315 20199:0.1709633649932157 21154:0.17910447761194026 21450:1.0 21841:0.06835142469470827 23518:0.8778833107191316 24283:0.0773405698778833 24777:0.5074626865671642 25254:0.16417910447761191 27045:0.22795115332428764 27385:0.7367706919945725 28664:1.0 28891:0.38670284938941657 30415:0.07598371777476255 32365:0.1146540027137042 33152:0.03867028493894165 33879:0.04748982360922659 35142:0.2157394843962008 36317:0.0869742198100407 36601:0.040554801748831595 36763:0.27679782903663497 37229:0.09599728629579377 37544:0.7327001356852102 
-0.009569887211612258 0.03235196593402043 0.030518037103060437 0.0070880869194954255 133:1.0 447:0.089010989010989 1097:0.27230769230769236 1191:0.14153846153846156 1192:0.41846153846153844 1476:0.5492307692307693 2093:0.16923076923076927 2248:1.0 2476:0.9084615384615385 2552:0.33769230769230774 2766:0.7269230769230769 3183:0.18538461538461537 3412:0.15303643724696356 3958:0.2076923076923077 4842:0.018153846153846156 5434:0.15000000000000002 6067:0.09626373626373629 6447:0.28413461538461543 6555:0.2792307692307692 6870:0.21615384615384617 7472:0.31461538461538463 7678:0.22076923076923077 8495:0.2776923076923077 9005:0.1473076923076923 9933:0.13442307692307692 10312:0.2419230769230769 11251:0.14153846153846153 11333:0.6061538461538462 12197:0.121025641025641 12646:0.039999999999999994 13227:0.04384615384615385 13320:0.16923076923076924 13875:0.14461538461538465 13981:0.043846153846153854 14526:0.7615384615384616 14530:0.018653846153846153 15220:0.11692307692307694 15306:0.576923076923077 15623:0.09903846153846153 16652:0.21153846153846154 16665:0.075 16706:0.18923076923076923 17396:0.07730769230769231 18064:0.41846153846153844 18331:0.1165158371040724 18489:0.027529137529137528 18561:0.10051282051282051 19922:0.1746153846153846 20176:0.1276923076923077 20199:0.09692307692307692 20779:0.5399999999999999 21154:0.1523076923076923 21841:0.11625 22377:0.08589743589743588 24545:0.17076923076923076 26333:0.06827838827838828 27146:0.11153846153846154 27311:0.1980769230769231 27718:0.044487179487179486 28052:0.3646153846153847 30415:0.04307692307692308 30694:0.31153846153846154 30846:0.06115384615384615 31024:0.016653846153846154 31586:0.014505494505494505 32408:0.21615384615384614 32608:0.021153846153846155 32795:0.3030769230769231 33025:0.5043589743589743 33152:0.04384615384615385 33568:0.06703296703296703 33879:0.2423076923076923 33896:0.23461538461538461 35142:0.1223076923076923 35268:0.05974358974358974 35311:0.05846153846153847 35925:0.052884615384615384 36649:0.10807692307692308 36763:0.05230769230769231 37301:0.03131868131868132 
-0.0 0.0013761326833576783 0.0019288117586000828 0.0 576:0.1467324290998767 1097:0.7274969173859434 2038:0.16769420468557336 3412:0.3504445453955481 4711:0.10357583230579533 4842:0.029099876695437735 4902:0.1282367447595561 5434:0.12022194821208385 6447:0.09109124537607893 7727:0.16276202219482122 9637:0.187422934648582 9897:0.5166461159062885 9907:0.23879983559391693 9933:0.43094944512946975 10502:0.9272503082614058 12089:0.08877928483353885 12173:0.5092478421701603 12197:0.024249897246198106 12646:0.7694204685573367 12762:0.5984381422112619 15724:0.9210850801479655 16665:0.06011097410604192 16897:0.2872996300863132 16931:0.25154130702836003 17396:0.12392108508014797 17605:0.7274969173859434 17916:1.0 18331:0.29883223326321895 19682:0.6337854500616522 20719:0.13686806411837235 20937:0.17324290998766956 21541:0.1812577065351418 21841:0.031057336621454993 22045:0.4722564734895191 22141:0.35593916974928075 22170:0.16892725030826142 23914:0.0776818742293465 25098:0.02695085432446715 25114:0.10110974106041924 25158:0.04722564734895192 25347:0.11590628853267572 25571:1.0 28996:0.11960542540073982 30197:0.10357583230579531 30477:0.8557336621454995 31024:0.026695437731196054 31482:0.8637484586929716 31586:0.04650343491280606 31657:0.04849979449239621 31830:1.0 32608:0.03390875462392109 34424:0.47225647348951916 36645:1.0 36649:0.34648581997533917 36763:0.25154130702836003 36848:0.5622688039457461 37007:0.11590628853267572 37301:0.050202571780870175 
-0.0037502082930537272 5.145833652182735E-4 0.010437196921305273 0.0016788976596387084 453:1.0 1191:0.08837656099903937 2197:0.32780979827089335 2365:1.0 4279:1.0 5434:0.04682997118155619 6431:0.37103746397694526 6447:0.46127521613832856 6808:0.760806916426513 7817:0.329971181556196 8559:0.5374639769452448 9136:0.43717579250720456 11251:0.0723080953628504 11378:1.0 11670:1.0 12089:0.05187319884726225 12173:0.08501440922190201 12197:0.14169068203650334 12457:0.19020172910662822 12787:1.0 12908:0.17002881844380402 13227:0.08213256484149856 13958:0.21037463976945245 13981:0.08213256484149856 15220:0.1095100864553314 15358:0.08501440922190201 17546:1.0 18331:0.04365146635022885 18561:0.10758885686839577 18856:0.04388263033796175 19131:0.26657060518731984 19299:0.18155619596541786 19384:0.16858789625360227 20653:0.5086455331412103 20779:0.5057636887608068 24103:0.5778097982708933 24283:0.054755043227665695 24493:1.0 25169:0.17363112391930835 27311:0.37103746397694526 27718:1.0 28891:0.4106628242074928 28996:0.1397694524495677 29461:0.06974063400576368 30415:0.3227665706051873 30477:1.0 30648:0.14524495677233432 30924:0.29863112391930835 32828:0.8213256484149856 33025:0.13496637848222862 33304:0.2689721421709894 33879:0.02521613832853026 33904:0.6051873198847262 34525:0.11181556195965418 35508:0.20244956772334294 36484:0.43768011527377526 36763:0.09798270893371758 36848:0.10951008645533142 37229:0.305835734870317 37301:0.05866611774392754 37583:0.9423631123919308 37657:0.20965417867435157 38066:0.4380403458213256 
-0.02094354703229813 0.0177389426858408 0.019070662005802017 0.01656591010772506 3258:0.15789473684210528 4349:0.4771929824561404 5434:0.912280701754386 6067:0.8781954887218045 6441:0.22552934059286148 8742:0.3684210526315789 10507:0.2912280701754386 11285:1.0 11521:0.08771929824561404 12457:0.46315789473684216 12906:0.768421052631579 17426:0.17982456140350878 18331:0.1062951496388029 18561:0.0654970760233918 19384:0.4105263157894737 19812:1.0 20937:0.9859649122807018 21841:0.08837719298245614 23358:1.0 28891:1.0 30415:0.19649122807017547 31024:0.37982456140350873 32828:1.0 33152:0.1 33254:1.0 34786:1.0 37301:1.0 38080:0.29824561403508776 
-0.057584251493862204 0.06272284976008824 0.06301771786704742 0.05484407004132459 436:0.6447368421052632 1727:0.2894736842105263 2003:1.0 2509:0.1282894736842105 2757:0.2412280701754386 3100:0.2467105263157895 3258:0.09868421052631578 3459:1.0 5434:0.1425438596491228 11285:0.6249999999999999 11796:1.0 12762:0.08187134502923978 13271:0.26535087719298245 14922:0.06535087719298247 15893:1.0 17196:0.7434210526315789 17438:0.2039473684210526 18561:0.04093567251461988 19100:0.5197368421052632 23351:1.0 24585:0.468859649122807 24746:0.256578947368421 25114:0.3596491228070175 27506:1.0 30415:0.12280701754385966 30621:0.5098684210526315 30648:0.0368421052631579 31991:0.6885964912280701 33694:0.6710526315789473 36119:0.5197368421052632 
-0.0 0.0 0.0 0.0024565757913024115 79:1.0 1637:1.0 3258:0.19313304721030045 3268:1.0 3938:0.7124463519313304 4842:0.20257510729613737 5434:0.27896995708154504 9933:1.0 10811:0.8154506437768241 11967:1.0 12197:0.16881258941344776 16897:1.0 17438:0.19957081545064376 17566:1.0 18331:0.1300176723049735 18561:0.08011444921316166 20684:1.0 21841:0.1081008583690987 24567:1.0 25158:0.328755364806867 30415:0.48068669527897 33152:0.1223175965665236 34006:1.0 34877:0.8283261802575107 35268:1.0 
-0.28848592285593544 0.30481614197250784 0.3197953700886665 0.22670408353643445 6840:1.0 18489:0.7779973649538867 25196:1.0 33879:0.7608695652173914 
